1
3

32
80
80
128

0.411799102513
-0.90282985658
0.756466899259
0.555192151728
-0.399323674745
0.0694712269966
-0.857072586941
0.584633856904
0.683282478169
-0.722686541521
-0.772044262792
-0.769300512826
0.375654437558
-1.01968170888
-0.332222088577
-0.491460179804
-0.480942560472
-0.207432440784
-0.219996387384
0.131544413626
0.344835363098
0.823100642223
-0.207019357095
0.37896368347
-0.942003329314
0.716319548282
0.2274659722
0.401664691651
0.536975582718
-0.964568183364
-1.02823338978
0.199459150326
0.526700686237
0.156221931455
0.510033812434
-0.928162937735
0.0654109621869
0.608658894716
0.421152226084
0.715685642917
-0.164029721929
-0.517771857814
0.648385902002
0.614749476633
-0.524866976495
0.621360086621
0.692931520531
0.143445347809
0.287537608589
0.592342432732
-0.210247639193
-0.803334762176
-1.0819018352
0.785739349923
0.437290759632
0.908438892036
0.426154276409
-0.667801188615
-1.06193864256
0.888650780174
0.460391414209
0.00555435416041
-1.03461086521
0.355795840602
0.0260455922537
0.89251618076
-1.00845955037
-0.543078959459
-0.472945118877
0.859186670401
0.210521906711
-0.0777977601809
-0.339707921536
0.365412317961
0.648813071204
-0.82082276294
-0.933383334087
0.627080112875
0.491680260515
-0.839171828796

-0.105572478701
-0.381698504463
0.283977994324
0.00399889637876
-0.982639681897
-0.462330133524
-0.964291852745
0.670934546634
0.23311707578
0.274617873216
-0.668326981128
-1.08707977343
-0.766016602356
0.313535615988
0.379264205775
0.303104363552
-0.425946878901
0.752568257633
0.539137429057
-0.136415850527
0.0773438017934
0.280082474471
0.359016938479
-0.0386441942308
-1.02017420665
0.591856621634
0.151308334222
-0.198176044108
-1.06712942458
-0.674071873212
0.175628253009
-0.117805952977
-0.776644388496
0.234031941083
-0.628725766591
0.692491204339
0.0162331707314
0.803493827067
0.783499379511
-0.788145845617
0.484439432007
-0.513666417111
-0.143125345113
0.601574422245
0.600165070672
-0.761693316127
-0.765113648575
-0.639207569253
0.491309550697
-0.701239419452
-0.997015164092
-1.05428649108
0.779765145568
-0.225754289695
-0.656846105828
-0.032889648379
-0.0995507693869
-0.722212744154
-0.693982610574
0.0313306950166
-0.40649240576
0.902264832064
-1.02513260338
0.442763587432
-0.250669809765
-0.278249093601
-0.504842513924
-0.810278385659
-0.327981931765
0.218587219591
-0.965114860653
-0.294545524451
-0.596180161083
0.6331433158
-1.06950831474
0.293247966127
-0.633595116958
-0.815589160952
0.0452917900394
-1.03324377298

-0.291501665432
0.167041297221
0.1735088305
-0.678302809842
-0.252530912672
-0.319143749439
-0.257308579759
-0.15245372001
-0.28905614463
0.653859260714
-0.423089700005
-0.810036060465
0.137982086549
-0.217877363463
0.31911450681
0.747351078718
0.103771569309
-0.247476050787
-0.880924756375
0.604047917803
-0.943963970291
-0.256042354837
0.486202681444
-0.0152696456452
0.375240979884
0.660363402442
0.865747664345
0.442553342402
0.624412434811
-0.0625896827773
0.163498031897
0.00762550806388
-0.406369781566
0.523128081
-0.751820133377
-0.752605828844
0.147107925312
0.55471996762
-1.00727222955
-0.506875518623
-0.0435312778561
-0.222530221426
0.417152289234
-0.880645549237
0.30745227734
-0.367072564477
0.52896012438
-1.07079571359
0.125677419816
-0.923917853002
-0.993332587842
-0.593929898516
-0.245443231791
0.074323787757
0.813651204306
0.852408186288
0.476900249819
-0.937386296511
0.638435248272
-0.14530137932
-0.721472090713
0.813073369649
-0.997037113181
-0.329640442142
-0.67723214028
0.791908243168
-0.174865046178
-0.927421887189
-0.116231143036
-0.168200273891
0.0310139684211
-0.655104386817
-0.351261167511
-0.93986275338
-1.01068925123
0.776482976219
-0.715750299056
-0.562323120863
-0.460356469259
-0.0500739284818

-0.985260336239
0.783472764485
0.428463940779
0.304086601839
-0.784688155054
-0.951015515139
0.113245068577
0.89081360286
-0.586418495622
-0.886477611353
-0.468275219915
-0.522070858837
0.655436619532
-0.24786924975
-0.0219156240918
-0.0616715116811
0.138741392425
0.0552558466677
0.0673516743619
0.788560732238
0.111743455244
-0.885582889784
-0.986154916225
0.195595533924
-0.741528738778
-0.968960107851
-0.462568696317
-0.268245093555
0.0610350231216
-0.34569259395
0.0604680069674
0.149665002781
-0.314731425728
0.702810661855
0.468029923965
-0.685998394555
-0.343959585908
-0.630300521807
-0.350154819462
0.327273464201
0.0652243868652
-0.349264035311
0.170916425053
0.499147121679
-0.574483275392
-0.173096388318
0.750202751593
0.116632045881
0.778293940635
-0.0830572774388
-0.335172751539
0.174464278434
-0.357586100992
-0.333115560644
0.527089190433
0.784623244397
0.366489210019
-1.03894090641
-1.05376630477
0.440293924691
-0.220530590716
0.392040369744
0.55603421141
0.549814556543
-0.373382001448
0.911886569429
0.684674964617
-0.759109359801
-0.795828476833
0.259665179921
-0.597629939727
-0.633773401462
-0.280301940074
-0.800764358548
-0.661052862318
0.419377546369
-0.414247523387
-0.117134641048
0.2610009742
0.832830761102

0.899796873127
-0.166671813242
-0.390985491918
0.904059448383
0.517919738963
-0.507884064026
-0.871015364833
-1.07691714968
0.607909529191
-0.541294001992
-0.603035963782
0.278387681812
0.818515649662
0.613639431594
0.87063552123
-0.616064879706
-0.609835245949
-0.0607567564732
0.377416853221
0.069004046325
-1.07976671777
-1.03713055969
0.57575196142
-0.985757347676
-0.158353624146
-0.920728117761
-0.50372685421
-0.389983367916
-0.713651300024
0.754974706524
-0.738661351418
-0.754266950073
-1.04458332975
-0.918805332362
0.741413903677
-0.162231415453
-0.692669640922
-0.137613277322
0.643343654778
-0.121027200566
-0.461794026971
-0.688995982556
-0.644774321553
-0.52510125799
0.61903177436
-0.484911833193
-0.801616675375
0.0330839956868
0.675714420003
0.274320858227
0.705192675517
-0.76551471861
-0.163414439749
-0.556928795519
-0.382130359541
-0.780491922079
-0.556703648897
-0.0599221454632
-0.0549508003805
-0.290842462975
0.859721942392
-0.444124943354
0.525229130838
-0.826644967536
-0.553669257446
-0.907218941719
0.855008709861
0.00466860238682
0.347780574379
-0.920143598098
0.312243496987
0.525230675223
0.095474547648
-0.816991762757
-0.841449141842
-0.70512708434
-0.459374819065
0.644868794434
-1.0421585972
0.886521483824

-0.0895428817571
-0.763958208964
-1.02704764801
0.336785408706
-0.870510741345
0.162682821685
0.701061581534
0.214443217089
0.0238534545195
0.433287094934
0.525995540881
0.140192047842
-0.658393377677
0.0494741930328
-0.621865778837
-0.233902176485
0.266742602482
0.140971234969
0.803933795415
0.0349125668229
-0.483758932057
-1.03815673781
0.629101421332
-0.36796460777
0.586700405673
-0.44025697937
-0.662940107856
0.260282110727
-0.799806639713
0.284526465417
-0.461811175998
0.707235827206
-0.681144645947
0.138990322353
-0.406088424312
0.857538517972
0.727106624565
-0.663002802664
0.310113823523
0.192088570365
-1.03433901707
0.0451916257709
0.144452743011
-0.853105117511
-0.48287781112
0.707327787631
0.428998287361
-0.961182911302
0.376765269553
-0.958580697938
0.811547857623
-0.287927136101
-0.42450067412
-0.462400245999
0.697509381968
-0.715841158645
0.539970777799
0.783739994616
-0.359970385362
-0.468061208129
0.897816309445
-0.364913929161
0.0540605782996
-0.0698385417852
0.225771722525
-0.0833831097289
-0.706191871673
-0.174841422925
-0.817409835426
0.921117724946
0.546048494128
-0.80146645782
0.0671068047487
0.252434897167
-0.402572770933
0.679751555255
-0.81859595551
-0.216560047841
-0.119265375864
0.518477815589

-0.0904887350761
0.190037062223
-1.08340402076
-0.898090750508
0.857798280395
-0.105683888194
-1.09025790404
0.599142470978
0.0850322356765
-0.467246074419
-0.777602809786
-0.207522121227
0.186791267283
0.0398642600422
-0.0504658161383
0.176971479735
-0.958298794061
0.515830845104
0.119494687569
0.210883766766
0.278768082882
0.477373460072
0.440886292278
0.122250401525
-0.0605338664696
0.417590023743
-0.247965699998
0.243940847466
-0.650222993836
-0.255145515494
-0.383526552782
-0.153054385107
0.724106219091
0.388320872358
-1.03952130261
0.544135002759
-0.128853343682
0.803858010299
-0.49311449713
0.302225984469
-0.600669118583
0.657691713498
-0.712386499669
-0.846260198317
-0.0757983137152
0.107504150662
-0.683629317615
0.272417032947
-0.28136736245
-1.03382823883
-0.162174863162
-0.6197830926
-0.845199416096
-0.299017932289
0.878343773669
0.629397415826
-0.682869916155
-0.416364563016
0.370962668054
-1.06129860587
0.588137412779
-0.337868293457
0.203553790003
-0.15080013158
0.398014974524
-0.561090795949
0.338788511147
0.0586991756286
-0.0380895049845
-0.994148613196
-0.00231529336649
-0.513258570267
0.669136276186
0.253054850184
0.00266662755177
-0.679491664974
0.0753366222987
-0.0817565270573
0.615859224442
0.137933355657

-0.795190210147
-0.897359528678
-0.715134758298
-0.931623923265
0.0645302656316
-0.305746411917
0.806220458653
-0.362967844971
-0.0386103936087
-0.329484716847
0.180395270605
0.68527553342
0.20775226691
-0.906056218123
-0.891652882203
-0.528181879393
0.834342525073
-0.623074730559
0.712485023391
-0.856765723337
0.590811530286
0.850919439798
0.125677996376
-1.06159595638
-0.724696162161
0.751625466975
-0.16573010766
0.234820034138
-0.630088712472
-0.990231014256
0.2462548021
-1.03731373281
-0.566261575364
0.304539398329
-0.871894079671
-0.196199615916
0.898490373419
-0.773859970135
-0.516274982289
-0.909782782593
-0.819876449351
-0.522474588373
-0.857619924217
-1.08657819894
-0.742740477047
0.0154248463637
0.680553145131
-1.00155271408
-0.40830704604
0.410691250934
-1.08983064813
0.514346180026
0.0817592168383
-0.069450303993
0.485304972731
-1.04659620583
-0.705619725661
0.912066089298
-1.00923234001
-0.397131078317
-0.606674527465
0.619619837798
-0.402827839511
0.206467429378
-0.255512642646
-0.729610783754
-0.616561546638
-1.03349864295
0.146464860161
0.78141938189
0.296101551193
0.5445654
0.435391615264
-0.706716525482
0.695997194446
-0.506960106332
-0.210275124201
0.718346128316
0.557547041118
-0.740280244133

-0.474928378383
0.602420219472
0.0623568449939
-0.321832080776
0.881046280012
-0.52027866161
0.512363998148
0.778365421679
-0.437806242606
-0.547353216808
-0.854409063028
0.111873642588
0.132421557421
-0.898112991956
-0.243281282023
-0.775674438244
-0.389392342445
0.263220537744
0.543858662115
0.767221519071
-0.820450897557
-0.418497489422
-0.681657854284
0.503631410362
0.111381298565
0.916315979821
0.293090994319
-0.512120524606
0.572222055944
0.147451927266
0.323169350688
-0.857716069139
-0.891546584383
-0.224862422881
0.90905502986
0.470484803999
-0.693898673912
0.367510108174
-0.698668265067
0.511762355258
0.387454327617
-0.141644585595
-0.588153684743
0.442682102647
0.814840815047
0.23826155071
0.811331976903
0.441181016807
0.434202418657
0.01894055242
-0.334442435484
0.509238512254
-0.470692873669
0.484146573288
-0.830794384843
0.279393830586
-0.988081444692
0.233342186247
0.849903305951
0.883997232843
0.432179722799
-0.3883031573
-0.910923957297
0.644450192707
0.623301088726
-0.239343677748
-1.0312116992
-1.0764136647
-0.321430314764
-0.172790903643
-0.727106221722
-0.0099748240617
0.872372716149
-0.115076617873
-0.860258847029
0.402244504335
0.725657630555
0.670512356252
-0.410022957127
-0.949452055449

0.391164718584
0.59268422197
0.793029410814
0.714378088923
-0.388900254823
0.37348373407
-0.0795368055926
0.818058524886
-0.246207142669
-0.554629439333
-0.276588477734
-0.92078048825
-0.224905511533
-0.676017168693
-0.874424049469
-0.0302661135842
0.895201176551
0.331053962049
-0.20450122555
-0.256211832818
0.489867622304
0.156027198109
-0.855830324992
-0.0393208787434
-0.997304381693
0.0828496130122
-0.764386221683
-0.64914685839
0.126432991794
0.00611166691562
-0.324124691898
-0.440544488166
-0.397668829864
-1.02048373501
0.598447803617
-0.747184048653
0.704060203492
-0.799839610682
0.468834720604
-1.02519159588
-0.0798097739268
0.595168325593
0.26437953335
0.11290133532
0.262726764057
-0.779086290553
0.289880339252
-0.560857184897
0.856477274197
-0.932345207371
-0.887980532208
0.666041303319
-0.44022068145
0.456397787109
0.268925542968
0.136218699064
-0.288948068171
-0.70006223475
0.0637514174949
-0.440039210672
-0.0641774875649
-0.142887981584
-1.07223794126
0.281457066217
-0.418398802855
0.751531297793
-0.246167386436
-0.0704979187739
-0.350741097312
0.313619484334
-0.600942524132
-0.840803452371
-0.493261307523
0.823843699114
-0.0675652358459
0.380017581845
0.725427234818
-0.878548811538
0.624398387161
-0.365853679168

0.452961706165
-0.547685752821
-0.279240417668
0.234826978095
-0.57889824271
0.565154583376
0.0895072858962
-0.732806657944
-0.0313836728099
-1.08963020057
0.670891067159
0.762540509565
-0.521155028743
0.499479144707
0.784037396251
-0.350732802404
0.697234275798
-0.801889147717
-0.531664188216
0.0361813576932
-0.403121259183
-0.634307384873
-0.629289484104
-0.768842064721
0.903315273624
0.587869953743
-0.512973153291
0.871564334501
0.600606866127
0.849024518401
0.328404782805
0.514878148201
-0.949811101654
0.186809509371
-0.31344514853
-0.344870892874
0.0882491964756
-0.841255699575
0.868657230614
0.258196243
-0.335561921494
-0.738090537839
0.368749951043
-0.246856049223
0.857507029367
-0.531840419001
0.343442772345
0.0450897959463
0.843368734113
-0.390475201562
0.879398675062
-0.67480320519
-0.553917501024
-0.293582135625
-0.598557941502
0.382649442229
0.437005408188
0.639051430138
-0.757540828857
0.796309541781
0.652594023577
0.448810837346
-0.786385327996
-0.539660095297
-0.780172302459
0.29533526195
0.386517984207
-0.962838584656
-0.126284271419
0.781150039452
0.0673717781038
-0.490895114465
0.663503739349
0.301572226154
-0.187114011223
-0.554616849858
0.90548375329
0.687303249903
-0.978889754553
0.252125920307

-0.37818970719
0.191633739453
-0.902469973272
-0.279351663772
0.328074786327
-0.639243510297
0.428136774595
0.145737276056
-0.439277862693
0.492795975025
0.00206108719992
0.285878965291
-0.816742040096
-0.432691952693
0.336967934722
-1.08512883796
0.101013944511
0.314244572313
0.837623124941
0.169763112638
0.224984806398
0.543528724255
-1.02550075415
0.064990533533
0.698818849055
0.0603983520364
-0.47855990596
-1.04113711607
-0.890722044401
-0.0704311811402
0.882082009753
-0.803578003948
0.035503322296
0.378131287349
-0.881284423045
0.187370572506
0.2176192385
-0.0445500103819
-0.166116628223
-0.495911115502
-0.89892336894
-1.03113629057
0.771878641152
-0.607423154956
-0.896560268011
-0.439479017955
-0.318660570266
-0.500186556632
0.0189771513902
0.556302390523
-0.492770402303
0.260083813315
0.499317590482
-0.26888752898
-0.871009637258
-0.692614877835
0.662214595072
-0.211500820956
0.713654300278
-0.259692964867
-0.465260739969
-0.948059801405
-0.374599933621
-0.53803492248
-0.611522317493
-0.698641725647
-0.81301991295
0.580691035279
-0.404043513166
-0.480311800398
-0.268370416002
-0.0232172411063
-0.32855273467
0.135304397655
-0.365926794973
-0.172461985058
-0.784175000014
-0.721867018712
0.88791363731
-0.869506974616

0.578077959881
-0.12006738793
-0.459866054375
-0.206610529676
0.513650714228
-0.802009051974
-0.983370907289
0.416061929232
-0.878583996553
0.0717185640936
-0.9887593358
0.252526038224
-1.01900424585
-0.405324245831
-0.714490463577
-1.03920734628
-0.0712796907248
-0.0313054903035
-0.317035196882
-0.959822857954
0.00395101923724
0.0828052330753
-0.171893569121
-0.369088583428
-0.540096880476
-0.200324482369
-0.465934740055
-0.116105485166
-0.808889020446
0.00717439926374
0.412265674336
0.170827179325
0.438036186851
0.485508738108
0.283500265916
0.0915648066685
-0.130578276045
0.102738981768
-0.962218903744
-1.01462051899
0.0309181856972
-0.455862837309
-0.323781142268
0.279839084338
-1.04429666639
-0.280740061033
-0.382632974376
0.22133346789
-1.02279419578
0.767360780923
-0.698552031929
-0.683044609347
-0.666490502665
0.414737982533
0.904935159434
0.455295869961
0.614956827782
-1.09331962892
-0.954581628322
0.608567690951
0.73659328363
-0.697044060192
-0.974216091419
-0.489424049927
-0.325864093308
-0.450675494702
0.85841033116
-0.951729451924
-0.173199135828
-0.332150905335
-0.524617272708
-0.231082153194
-0.933759255444
0.560932619969
0.899861431826
0.4308247062
-0.130526296799
0.435053130215
0.740091933343
0.340910928649

-0.0471855937423
-0.402404487414
0.224828385636
0.654628340629
-0.789585548405
-0.627877111253
0.315231241256
-0.971252371832
-0.28080934929
-1.0388636345
0.0414663425262
-0.691558153196
-0.74373850337
-0.369868068743
-0.0314630746693
0.53740019638
0.500162906507
-0.720593712103
-0.140354305373
0.587005340635
-0.15518314095
-0.148640465611
0.806722046444
0.170109044206
-0.130862518901
0.855717804903
-0.180560204307
0.494977846757
-0.72955742202
0.514020987116
0.00673179519874
-0.0172896689449
0.69272949865
-1.00379262596
-0.734170274265
-0.373415094428
0.347492745831
-0.671234307075
0.208077006415
-0.464116044205
-0.0511455189252
-0.387425990722
-0.668512126698
0.2586749188
-0.911820060141
0.252608488591
0.133235001345
0.687641528232
-0.729136610121
-1.010842235
-0.545341066909
0.565410036443
-0.450793375666
0.244231228626
0.0694484784743
-0.520090029662
-0.198338414337
-0.242043667955
0.621540778359
0.282786953098
-0.666391666385
0.032545223621
0.197154057679
-0.428582800355
0.875549513919
-0.302895921489
-0.44276619339
0.811588080119
-0.642547384828
0.136578697149
0.0909125489539
0.386114137613
-0.344701595792
0.720424394268
0.748457785352
0.570041121449
0.284906349604
0.0749142363683
-0.896403208717
0.661794017416

0.813693566104
-0.997733843168
-0.812163299637
0.562252024118
0.291144477403
0.484151531296
0.677239589116
-0.346702747373
-0.00135611014244
-0.262667084584
0.183694565329
0.632860063002
0.264747118998
-0.466450893481
-1.0634176695
0.630093461576
-0.199616912243
0.813687908856
-0.203776926708
-0.182408321881
-0.867991270214
0.888262893978
0.407786116614
-0.0787860686248
-0.340483040323
-0.863329562547
-0.586762700197
-0.256191872996
0.289482623277
-0.821469478199
0.512797252465
-0.893721469003
-0.245432429935
-0.461378783158
-0.515877715509
0.730498443834
-0.0511054549482
-0.295011229514
-0.313822461418
-0.112926241977
-0.249772803292
-0.934965626448
0.677433535185
0.214565594246
0.901868340805
0.385990082199
-0.0101064345113
-0.82573830223
-0.872309976263
0.66558714369
-0.184608192324
0.0406329955864
0.145038559053
-0.909161407703
-0.0136580323524
-1.05419133327
0.376913371054
-0.411853624395
0.593933925883
-0.947276224446
0.106693162112
-0.799421772675
0.594370624421
0.630920057513
0.42274751338
0.101876783552
-0.165059513168
-0.531523259817
0.0428582687169
-0.951965205842
0.193178315866
0.259688375034
-0.679215162176
-0.575425311544
0.432486626499
0.8226613984
-1.09246617142
-0.666389014292
0.0260994071962
-1.00962673055

0.115839530557
0.832455743462
-0.769455120518
0.56794384048
0.0252977592839
-0.894274101583
-0.745156283879
0.0603157548459
0.553371331861
0.072024038811
-0.786873199799
-0.252643080028
0.821353329893
0.654614798611
0.365512844603
0.578581267421
0.064676072421
-0.544232885904
-1.05399504142
-0.728709314558
-0.559879915846
0.298509344046
-0.320232537648
0.0801652997139
-0.234849444128
0.60467186671
-0.582708218195
0.668985655054
-0.614089535545
0.0122734967772
-1.00882667479
-0.184650248696
-0.102141763065
-0.477797162215
-0.601584996547
-0.0828650483002
-0.453111000445
-0.8786205916
0.666856056893
-0.188449183141
0.484284764341
-0.0100483761208
-0.324974950034
0.161355079503
-0.627054511238
-0.424599843796
-0.751907169006
0.885918971457
0.476784755873
0.206780538312
-0.782666778105
-0.924352108734
-0.154316557243
-0.0467245070433
-0.289391346613
-0.145121380816
0.0388439229026
0.855509181063
-0.605571561456
0.312260215435
-0.965333527445
0.627767397313
-0.28532970983
0.729499024856
-0.529006460601
-0.582145639529
0.312431109111
-0.809760981571
-1.01936460459
0.620324798601
0.541176582608
0.713242179389
-0.352456288489
0.739288701393
-0.860316411436
-0.0548082066279
-0.740822976449
0.535092577217
-0.802655525093
-0.0819904728883

0.075010828391
-0.85690210869
0.325884442966
-0.144381301359
0.737800747404
-1.05801445603
-0.863953312047
-0.657558725969
-0.454187021579
-1.09699217639
0.30306571872
0.0471520017077
0.889469305083
-0.928219173783
-1.07958664504
0.392141995643
0.0748554906245
-0.127507250408
-1.03959659061
-0.0309188050973
0.327967872689
-0.0373958391684
-0.482955299275
0.842569131682
-0.0300430788891
-0.364641386183
0.538454786846
0.395739873311
0.357378417761
-0.108459011665
-0.677634921598
-0.165123494255
-0.00606579165598
0.586159643276
0.531346567647
-0.248345096613
-0.84049991716
0.213827789261
-0.269852279174
0.76698870598
0.708004869329
-0.985303107248
0.540708727512
-1.03943798344
-0.58914685113
-0.360550639092
-0.608789386252
0.281074386267
-0.00626403819359
0.353221153734
0.144397296024
0.138263201038
-0.609086559778
0.498470005256
0.835107357666
-0.716063285594
0.12771163244
0.630437772886
-1.01122851261
-0.953951837725
-0.688933734251
-0.238008432781
-0.156015827447
-0.992985688502
-0.571473606395
0.0912596949977
-1.04982789394
0.0370077228433
0.519329672631
-0.902706377057
-0.309342711247
0.186784417261
0.194198150932
0.7544563125
0.0681827528621
-0.0937506426709
-0.531362705666
-0.327511353098
-0.113937169528
-0.0854312267077

-1.09407670968
0.814399461989
0.245658278479
-0.685454625612
0.346916965399
-0.0340267259339
0.223586938464
-0.0633191975962
0.718091661476
0.226257876644
0.344027026468
-0.0169410507005
0.0521672033361
0.90630414033
0.533286244617
0.24143409572
-0.829221644403
-0.385120120907
-0.445409224047
0.301478229801
-0.578624609496
-0.184073212997
-0.477576172178
-0.783055807194
-0.860364317456
-0.0747793613504
0.00579467599091
-0.0527936010206
0.454429374744
-0.547649407543
-0.920892734963
0.512888569259
-0.354906173691
-0.706960927583
0.899037440319
-0.31798493493
-0.514800528244
0.869698299149
0.168218993618
-0.631107781912
0.24923625051
0.192693141688
0.679372432833
-0.147253447358
0.64276447992
0.563081118155
-0.126398896757
-0.112064738948
-0.0946512567006
0.407700159382
-0.0224524531693
0.141997985615
0.600227435248
-0.425837486086
-0.122383800237
0.810135378323
-0.101747678549
-0.588369502242
0.848306659023
0.12873097185
-1.04906903578
-1.08046760434
0.0275489449512
-0.685058410406
0.384630339345
0.644555886002
-0.507005668936
0.564358519538
-0.295281271429
-0.91663728669
-0.20571638941
0.214622293155
-0.687633501946
-0.991411687439
0.331585514306
0.658069802059
-0.844754585138
0.841875403563
-0.961139187663
-0.706275396585

-0.0533305257206
-0.857525566789
-0.206252505334
0.431075516318
0.897039213612
0.493296766961
-0.946825099651
-1.0805019651
-0.0414969212582
0.465218304589
-0.346934341485
-1.04670146107
-0.494672374273
-0.55011834473
-0.519986123598
0.484789316085
0.598520078609
-0.0746097979548
0.165126088461
-0.121203479007
-0.612015580922
0.281258311196
-0.882571219906
0.234702602172
-0.792818468282
0.442739570244
0.580003183117
-0.0189599756171
-0.631027126142
-0.83274296814
0.839620036598
-0.802990630673
-0.882375302972
0.151308841133
-0.480498407377
0.647366809691
-0.0797165740532
-0.479113896764
-0.599192686227
-0.358181086815
-0.909998204948
-0.557971677259
0.279432581657
-1.01402350584
0.0707656845556
-0.430495259143
-0.413289441544
-0.118723266918
-0.371019596963
-0.603239145147
0.87344529675
0.726368562495
-0.913846994933
0.118017029528
0.354857218746
-0.316060363147
-0.67927687202
0.0715615877754
-0.571107472648
0.153505938705
-0.505916091292
-0.373052026051
0.897111164137
0.602535375238
0.423821669991
-0.352693962711
0.319397188393
0.0211677473706
-0.904592637129
-0.287905669103
-0.512502062585
-0.043183225844
0.830446248486
-0.170200849779
-0.272747986942
-0.836904758997
-0.0992679455507
0.276047083286
0.285555421107
0.60143055554

-0.818315239573
0.0585163450217
-0.994812992968
-0.621782435814
0.233401407845
-1.02284658143
0.193581313905
-0.988405712339
-0.856538967323
0.108690486226
0.363728522137
0.851975370578
-0.341362399644
-0.953111656179
-0.96032461536
-0.333078065635
0.825400012756
-0.861215991421
0.276714639545
0.828226253785
-0.629785138511
-0.510700156087
-0.512461184957
-0.00883857053432
-0.153873440314
0.532660246007
0.203259945202
-0.659286470582
-0.534526897717
0.363164696668
-0.0616173990316
-0.276593675675
0.585430568357
-0.55899855773
0.861436429998
-0.938891862946
-0.749071424924
-0.187960996218
-0.833252550481
0.268997194116
0.795482946762
-0.456042761662
-0.0972695082284
0.877698651543
0.632807892219
0.0804446425043
-0.595886791971
0.776654400282
-0.990966450816
-0.667724454857
-0.866652061592
-0.0574384220225
0.163303405344
0.69431070859
-1.0168510879
-0.762830271328
-0.452340002074
0.522395775008
-0.6614407222
0.618844662177
0.601926675808
0.12922096095
-0.477434912467
0.900479955062
-0.958470903986
-0.0199429907193
-0.0247294097121
0.0454907576444
0.058363538722
0.22209418121
0.17527815409
-1.05961931794
-0.146627461871
0.838580381507
0.248282138025
0.676487662862
0.639064703662
-0.577441844501
-0.913499319576
-0.996692913055

0.397775390787
0.341288818625
0.641644699978
-0.00418896497393
0.214985132418
-0.494384130917
0.205063982514
0.00631323734773
-0.541148411151
0.574826061298
-0.253755470839
0.813067302227
-1.0629785754
-0.834574464245
-0.683441594251
0.880903344451
-0.52584242594
0.159559789085
-0.594465198941
-1.00133358297
-0.70120337917
-1.07108771181
-0.810281396421
-0.164863693764
0.567324167078
0.800972747024
0.0141048171855
-0.699338734271
0.292443289633
0.775607092661
0.16965779884
-0.683195688603
0.661191273189
-0.754443781805
0.881065894962
-0.7398366581
0.167019722412
0.606561505175
0.334018937743
-0.187402580183
-0.40429612562
-0.800493758394
-0.402755252474
-0.140112568832
-0.597509746898
0.421383001324
0.484995850303
-0.149440858566
0.506725086684
-0.567941455479
0.607517315726
-0.878968779007
0.819660879534
0.563065356616
0.801420396368
-0.865957691646
0.708831359096
0.0703057112249
0.317844463241
0.655108165573
0.434343841776
-0.173285983344
0.190712549335
0.385969301146
-0.0953563182323
-0.485937766381
-0.633246269436
0.768057171031
0.902694828562
-1.04152114326
0.378849361431
0.256838168568
0.380034215294
0.203702287248
0.474108142808
-0.321955964133
-0.951404886589
0.401560822053
-0.770139324322
-0.17496630988

0.135797156989
-0.0732828639059
-0.300424655475
0.239196367401
0.323525836951
0.69193523133
-0.856730729371
0.660636170215
-1.06164698273
-0.458908860261
0.373434701139
0.691339564442
0.408535289472
-0.47073304046
-0.25147511445
-0.364264818538
-0.240563169883
-0.159613651992
-0.310579756078
0.00586314878167
-0.952553647666
0.558681513422
0.182775233805
0.91180861158
0.625403348815
0.303408394778
-0.455700637482
0.0320596278882
0.73106744303
-0.857956205778
-1.08665113237
0.363257029173
0.456111443961
0.201735089787
0.195646915384
0.302163237787
0.455049754448
0.532974770703
0.870175150257
0.327790793829
-0.410398602019
0.0474656849533
0.441954995501
-0.271516301061
0.511610743919
0.25604908789
0.285985101768
0.370105348786
-0.625380586432
-0.461480667328
0.375283470351
0.917398236873
0.752786233258
0.658207995011
0.78129816132
-0.0292886599658
-0.238551934296
-0.554498397362
0.0419665371154
0.60361572321
0.591577593674
-0.238973041966
0.686930853414
-0.50516274634
0.757116153034
0.585333690584
0.44875384535
-0.475789762066
0.610767018409
-0.660314737113
0.590781118617
0.210353228053
-0.947829491218
0.193903817526
0.558672689213
-0.0259915351655
-0.0731827330859
-0.854160542615
0.616977660806
0.120515196678

-0.319019704092
-0.0599759833738
0.111084964646
-0.950838452893
-0.34299215734
0.498668845348
-0.27675205244
-0.654533483434
0.867811131443
0.481061932764
0.642261496472
-0.562048450631
-0.593184590868
-0.285720905261
-0.560743393671
0.847207572516
-0.0280236110558
-0.821949687809
0.538121726097
-0.316241830502
-0.54096730844
-0.935907732909
0.0639123346368
-0.961681026308
-0.867690089912
-0.391459717989
0.904271345426
0.832661043476
0.872107251989
0.718311388248
0.454709234603
-0.617192598459
0.150185852276
-0.760942126235
-0.0553750176965
0.90334922951
0.560905778965
-0.323736388272
-0.9257450675
-0.32780446158
0.757572145714
0.317739925498
0.667019081585
0.0424606186053
0.402882410967
-0.566503086637
-1.03401992979
-0.600575582588
0.359172261017
0.104560499941
0.38317894429
0.885251921704
-0.442100825625
-0.140845747302
0.339980805632
-0.708754951491
-0.683473343959
0.840813771383
0.0892543642762
-0.532293563151
-0.273278690922
0.525560179022
-0.119837099784
0.612695175908
0.817363857809
0.145122822736
0.20607961597
0.170982675036
0.910964614018
0.710219630448
0.40452195063
-0.112589550072
0.201853463723
-0.581006029091
-0.562685787905
-1.04077030845
-0.086686438653
0.0109399049736
-0.614406912489
-0.449254061708

0.426914621515
-0.590796351868
0.913364975314
0.0934547000309
0.0702658777734
-0.810265553651
-0.251895390435
0.307639608148
0.916264505038
0.241649162572
0.0417662866841
0.901677802565
-0.235855429433
0.101228076288
-0.600391782988
0.215981229383
0.478862133669
-0.325119603455
-0.0891782405609
-0.459216755034
0.909943133454
-0.0374226477942
-0.491713622809
-0.623222629088
-0.438448370616
0.599175013298
0.608367630251
-0.224086149588
0.837591643975
0.0543211240395
-0.573170357932
0.337873962367
-1.07094938707
-0.646428465106
0.562117378698
0.872893769104
-0.404635556205
0.460160420078
0.269693903202
-0.757253431363
-0.812503401853
-0.335571999297
0.418777766028
0.791173654927
-0.480551648031
0.82090514965
-0.837650258615
-0.36536297687
0.281302278543
0.63216262836
-0.00829451999895
-0.704630824406
-0.574755552521
0.403688312733
-0.98965655972
-0.817692055298
0.475389811068
-0.205387083795
-1.01125601984
-0.201101835267
0.35120136936
-0.90083508524
-0.132880104205
0.309948579862
-0.780202158025
-0.798444741287
-0.740858891575
-0.124939771067
0.602503260418
0.132970759423
-1.05666772003
0.499919359951
0.572517506615
-0.630414476691
0.241601928227
0.636707698992
0.0583525477618
0.490751161123
-0.671045395227
0.316438218579

0.751493849301
0.141692851253
-0.619868830155
0.859808123056
0.68048315031
-0.842174986816
0.513906204253
-0.0379536885256
-0.959690958097
-0.00470018148684
-0.864530494765
-0.58682612889
-0.798769190216
0.0215670520907
-0.254480304899
0.554543983716
0.863617033782
0.159738617352
0.468238665825
0.265192650452
0.299758523389
-0.948596307757
-0.198643485191
-0.538047611765
0.578784684737
-0.986920800223
0.0851177949251
0.784735523694
0.196519071407
0.24657869142
-0.387875200872
0.543901440696
-1.06979884431
-0.276981874501
0.679284463077
-0.719576486955
-0.0370282468647
-0.190007938094
0.486310297494
0.46635953461
-0.139614109734
0.137413542875
-0.211071298317
0.299950173495
-0.39867442267
-0.287168554964
-0.481488602547
-0.601283640133
-0.367424427838
-0.404169153623
-0.802120160742
-0.393021918987
-0.897665234681
0.309713602819
-0.23473932359
0.401548905698
-0.628077317795
-0.1958906928
0.393995770828
-0.98422270335
-0.306544143332
-0.775470498331
0.537374467725
-0.316600959315
0.169792486064
0.779574111699
0.38614657703
-0.827816042386
-0.133570692518
-1.05068981679
0.885501847783
-0.732624094
0.467724540279
-0.19432805318
0.256223475418
-0.0213299904994
0.0525297759472
-0.117438371105
-0.0737247821127
-0.192264034455

-0.885992909045
0.525319701061
-1.02743384429
-0.701449232714
-0.175017109343
-0.182061525212
-0.152831941181
-0.0708398672075
-0.115721519458
0.240303289812
0.671039315206
0.830197007479
0.0972475054678
0.555938372825
-0.441219222125
0.788122978188
-0.31865465742
-0.670002754614
-0.827389976123
-0.083524698121
0.561491695653
0.631952202343
-0.600229401827
0.415990547033
0.655409220317
-0.475569160348
0.738555469497
-0.935204910742
-0.688609464559
-0.189066617863
-0.690754978917
-0.0540940712471
0.827086515921
0.298906500966
-0.529244187241
-0.848479392342
-0.931842734163
0.552044420155
-0.708897867641
0.679520654027
-0.564789517631
0.0124955445788
0.555368104714
0.583733995355
-0.688014671062
-1.00870646882
-0.124856174429
-0.562122484464
0.0515914985974
-0.542977782557
0.580981801104
-0.839087812556
-0.507714651524
0.0602394235343
0.658853596655
0.900630217628
-0.799967113743
0.246409079533
0.732746529007
0.898988197731
-0.528565033236
-0.161383042092
-0.491975227771
0.463605130915
-0.812302859975
-1.07655571369
0.757253694059
-0.00630740311875
-0.183604934787
-0.288812049307
-0.664551213612
-0.772621608311
-0.640805824294
0.896943155003
-1.04718624399
0.684164473775
-0.0801459624216
0.387657231762
-0.92895553911
-0.595477403883

0.0791332435677
0.841737610784
-0.188033539109
-0.783188298878
0.738850579286
0.796031802513
-0.819647700092
-0.0373609981898
-0.810831012638
0.747146279736
-1.07968775828
0.72503459124
-0.433832823351
0.393493751368
0.867635259073
-1.03947331234
0.46221684274
-0.422731482495
-1.0926345841
-0.500093827487
-0.71240603665
-0.566548155478
0.720393240535
-0.743675203117
-0.0896325294439
-0.625396787722
-0.681112493714
0.0409846749375
0.326533438752
0.474598910972
-0.265819664094
0.49672221346
0.856127579649
-1.0899626214
-0.306821698174
-0.598224325883
0.459175715027
-0.551346970943
-0.421207456074
-0.621747677219
-0.390458751378
-0.287880236937
0.387819004303
0.562437183747
-0.424964141746
0.55207126482
0.0952640395537
-0.743529147153
-0.225279428441
-0.24003753689
-0.360494983221
-0.123385499072
0.71871854057
0.0671779643267
-0.0796630209726
-0.537248311519
0.665136131118
-1.04612167464
0.854941315526
-0.14056579927
-0.709004788053
0.153210505197
0.282500006546
-0.889110105468
0.805029469707
0.555037325629
-0.519750882917
-0.424124682028
-0.557568546366
0.820978424997
0.401774159048
0.726468074046
0.7984179965
0.684648775595
0.912522508583
0.790197879147
-0.872899802959
0.133795360186
-0.905468348569
0.7040912481

-0.788225758433
0.822079987564
0.318817599657
-0.896818725077
-0.0808511954757
-0.848741702168
0.495883896641
-0.884691703539
0.374522780563
-0.411080816028
-0.731695325059
-0.613982201195
-0.594977732877
-0.617693485336
-0.151761681964
-0.255317658725
0.591902698475
-0.33409097588
0.707432870988
-0.655071204942
-0.0171079886482
0.0895523618445
-0.356878807346
-0.231119055103
0.172120444133
0.250593601705
-0.58599709326
-0.00621048595918
0.695076970592
-1.0247191888
0.851542651142
-0.74384914463
-0.640830937413
-0.142397498527
-0.332488491144
0.859327459889
-0.711395382104
0.0746736197308
0.697883375051
-0.199692106451
-0.992908504912
0.645156464658
0.57814105163
0.533067792751
-0.87165027871
0.135761250628
-0.797245854542
0.0543063964378
0.117955834674
-0.729636858764
-0.809360583467
0.62915471585
0.142820109152
0.0617886836474
-1.01981078937
-1.0862890184
-0.260739656385
0.792272932598
0.326702288721
-0.595834756999
0.717318273045
0.705834165604
-0.384865499361
0.375288061173
-1.09616474869
-0.273234013116
-0.914944195915
-0.8977050833
0.636576090863
0.685837104121
0.0580991437671
0.779597073453
0.383926908346
-0.0383889041968
0.135558182659
0.0148885930239
-0.582965697413
-0.816145269495
-0.256442491168
-0.534105477997

-0.478384149702
0.390949909085
-0.669195478376
-0.448953412148
-0.499732001326
-0.114129974838
-0.0932662263174
-0.662466515027
-0.941640320372
0.262561641203
-0.693637772703
-0.477883236387
-0.68204835538
-0.108168093231
-0.622221901467
0.119758403896
0.486188193336
0.264075027064
-0.258296929211
-0.748968272316
0.187612903481
-0.93968178274
0.79631529565
-0.832505177942
-0.865776071104
0.392783140532
-0.130488781811
0.553285155539
-0.677719949801
0.0965173545248
-1.05304144414
-0.0522810936923
-0.447945394699
-0.588436039133
0.534784217312
0.56818974087
-0.715715569294
-0.949749771714
-0.38962572549
0.812374407472
0.131475803221
-0.74828896139
-0.756232270728
0.418814192669
-0.470570633465
-0.282728331337
-0.836921817947
-1.07237481592
0.520908644903
-0.454683291845
-0.033773283205
0.0759343335141
0.199001365209
-0.630241327974
-0.735065635188
0.69973083169
0.723722028761
0.823488308547
0.716036817022
0.281825225594
0.853561308515
0.319651369528
-0.68597959612
-0.726872993262
-0.596979136252
0.744188708049
-0.720580100105
0.176707755088
-0.454219269247
-0.671937025409
0.392386646467
-0.505617134709
0.347272958713
-0.335516984277
0.280841874813
-1.01304147256
0.748909391666
-0.133311285458
-1.04125799234
0.517108525954

0.355080392627
-0.131282878857
-0.198286726879
0.183571664187
0.468731963873
-0.241609974591
-0.170785032796
-0.968056046115
0.390435754554
-0.894313878452
-0.710203503958
0.0169020681938
0.461256261132
-0.466764353486
0.513562191136
0.673079106624
-0.521767963605
0.390511065913
0.746110954254
-0.436965094156
0.426215271592
0.842002411473
0.693121445778
0.198677531973
-0.461748389396
0.517344402102
-0.501175380347
0.809557899668
-0.332919850676
0.0724743859682
0.636356959779
0.0906994264633
0.259473391187
-0.776941594406
-1.05937418263
0.70372425735
-0.843981661987
0.506502987475
-0.697337346999
-0.353653683572
0.548650801831
-0.231232024262
-0.929192351228
0.351341210558
-0.0918517042182
0.225867361842
0.708996629582
-1.03225399896
0.732283736731
0.456280986768
0.132719013541
-0.695331524193
-0.429679898257
-1.02326663869
-0.971853022621
0.471766346672
-1.09833390883
0.612296145432
-0.0935179860445
0.124171678961
0.486529242206
0.825598892796
-0.942000750949
-0.880080035377
-0.73569556463
0.644661174517
-1.06664025021
-0.827281645385
-0.780170265534
0.508576904338
-0.0533069041452
0.544269429226
-0.61490274521
0.909757909056
0.644896612889
-0.132250337234
-1.00433504759
-0.775968748543
0.693766435783
0.234118718428

0.876401242159
-0.147631123101
0.413137431723
-0.855800525443
-0.706866666706
-0.536782818453
0.326574928024
0.286882146959
-0.468217081291
0.768633006804
-0.1686279713
0.366540995892
-0.0572558340228
0.106669447252
-0.581635095768
-0.284470260587
-0.89526731799
-0.769714177332
0.219191472307
0.79532307663
-0.395010902559
-0.532943000505
-0.846352780047
-0.253484948362
-0.899254102161
-0.134410908459
0.471856464789
0.290615728848
0.0248958753268
-1.01566295182
0.209548505688
0.481688164923
0.532989913707
0.557593064242
-0.131200371643
0.790560460083
0.0276520972074
-1.02646766108
0.644342141481
0.0252506942807
-0.3109959131
-1.00567418025
-0.164166464448
-0.734455611223
-0.163260148933
-0.916675188879
0.343568406351
-0.551118009278
0.0368930051748
-0.66742649787
0.0302182603128
0.00744266001593
-0.832186373749
-0.939323933311
-1.0028951057
-0.333019353291
-0.0315736546164
-0.252451081129
0.884772301452
-1.0866844899
-0.486734434289
0.123133748702
-0.646554485824
-0.212887241046
-0.658157895855
-0.463573414841
0.603574383388
-0.742243738784
-0.836152789007
-0.327536990042
-0.444294393806
0.201653010699
0.819182394722
-0.767640578188
0.760146809063
0.352160384517
-0.71994910257
-0.796087289108
-0.826645031585
-0.250439684666

-0.696206851359
-0.0887251439818
0.0840188741239
-0.238133062568
-0.787110768049
-0.47424192177
-0.151297716817
0.124972149527
-0.100168297932
-0.253055369917
0.0664422009403
-0.764691671787
-0.992206550741
-0.394456540913
0.475300313311
0.28218523384
0.647162168765
0.863269477491
-0.691681681928
0.0715261744419
-0.166965884583
-0.748840242287
0.189696921265
0.0560802217792
0.901940121901
-0.315590392888
0.148954285863
-0.155170532456
-0.522366677175
-0.76441070548
-0.176555884971
0.892643335547
0.0806638940518
-0.787004077834
-0.546682663222
-0.934748602823
0.118969455611
0.885342859904
0.554602192435
-0.900793432465
0.665245838982
-0.62118168016
0.313341706424
0.1693940554
0.806617110522
-0.729811479827
-0.511512658749
0.748737407272
-0.340265820214
0.412277415727
0.665030396666
-1.05438343308
-0.594457298613
-0.895372454167
-0.599932397936
0.847901654877
0.682852515063
0.517018988173
-0.615194540673
0.597578120662
-1.09258522911
0.677323235352
0.49353026258
0.741221250429
-0.454793435146
-0.183136885683
-0.470437333349
-0.429691889893
0.124321367143
-0.0805819080692
0.199679432186
0.762247070014
-0.591857105215
-0.121761915342
0.182544838401
0.781051943889
0.0518788195264
-0.491905101271
0.88076137562
0.515639080823

0.385430210415
0.326616204633
-0.560015101679
0.278143507802
-0.400638346106
0.102203730254
0.611403226944
0.00523577529497
-0.396936909477
-0.316270339467
0.278443631614
-0.436355154237
0.219494196266
0.275494450379
-0.0115322330074
0.605147446296
-0.251166858466
0.493728520638
-0.383082144762
0.0552806069793
-0.232988557905
-0.391194597181
0.0111787638597
0.581821266918
-0.00383417021942
0.509325129611
0.514752539488
0.177377363806
0.517924004009
0.360204750534
0.383199856558
-0.715459128078
0.27565549404
-0.161495091347
0.493912657413
0.351897391596
-0.515268621283
0.254563509445
0.389037257205
-0.273347184664
0.207634500613
-0.447286945889
-0.221198598832
0.0636749766926
-0.78769241853
0.513720626087
0.126604475918
-0.325771011796
0.0681852444918
-0.478205675943
-0.319091130764
-0.730653713298
0.103568516568
-0.348904348248
-0.624732903312
-0.600875681118
-0.25211835425
0.594374950673
0.00924395861067
0.0824936277338
-0.529096379922
0.606128797076
0.126663655559
-0.763480154379
-0.217838005806
0.601769564608
0.220702260911
-0.595804117136
-0.200538550876
-0.4024639798
-0.408034877803
-0.569231050101
-0.379934321597
0.462271798715
0.460132876716
-0.354036480095
0.173243521411
0.146930166708
0.130277834974
-0.0310913719189

0.28359687367
0.6019793653
0.401653523441
0.171427136139
-0.421470507127
0.0958371417191
0.18651606635
0.252652538576
-0.590963251904
-0.308111393428
-0.225993912565
0.451220892688
0.422411428456
-0.429552209925
0.369627299604
-0.240135852221
0.382126325913
0.574903028098
-0.475750450668
0.488056737899
-0.432733545012
0.0674816690134
0.567685250037
-0.564583436484
-0.70500122046
-0.733301081868
-0.306153983179
-0.0265797050594
-0.717191810426
0.262480431509
-0.14492309591
-0.195324020139
-0.747942799396
-0.687508090104
-0.501882595498
0.607711154305
0.602707721476
-0.220936256772
-0.779191736866
0.248786202889
0.0157003467872
-0.602633417445
-0.219315795537
-0.126797093044
0.295236054598
-0.0781169480033
-0.454158792669
0.286573331551
0.110576791475
-0.368905800864
-0.0900820524071
-0.347622104992
-0.528058916248
-0.153392040324
-0.00700430559362
0.332834799236
-0.303885144781
0.0530751588297
0.36159647754
-0.480253874543
-0.0797376684628
0.26287826408
0.0567154565154
-0.530265711988
-0.711720529103
0.129191330729
0.181187009614
-0.0736549005348
-0.333965719923
-0.327239950875
-0.128608314206
-0.0945799952086
0.0929190989685
-0.669582376313
-0.207585614824
-0.109562301403
-0.364100653787
-0.0610002697726
-0.504620959749
0.0663156417915

0.163180394459
-0.409725015009
0.230540422711
-0.305598309777
0.0275932764485
0.381813152281
-0.585993063492
-0.497417557474
-0.788597735113
0.171381861519
0.555303258394
0.124457714835
-0.63690306644
0.583435490179
-0.244353972617
-0.370637120882
0.0550255669773
0.593650810681
-0.681673067396
-0.495169207925
0.396107305032
-0.317823658101
-0.200392500824
0.46509172576
-0.416312645171
0.408962159557
-0.0718953617097
0.0512804947302
0.31615235556
0.480363080446
0.11391157993
-0.690097857597
0.334478130467
0.582518080173
0.42855914501
0.624965884284
0.26075668644
-0.11936111782
-0.524247801026
0.106278793765
0.347557494038
0.398641056344
-0.0806515030384
-0.45046105866
0.174011883556
-0.648427159762
-0.0932198079624
0.399567509298
-0.557263728637
-0.638926480207
-0.538892922919
-0.664765414723
0.513884191089
-0.569351016026
0.575828259055
-0.681114673236
-0.702219683556
-0.699448202022
-0.256873838457
-0.266701717782
-0.0931626445999
-0.293046335217
0.363305994855
-0.534501536508
0.266251350385
0.208115490595
0.0782296487627
0.077596981614
-0.521116805811
0.175468916898
0.563708529745
-0.212736115632
-0.362762046022
0.407717338389
-0.41901073598
0.0631649767227
0.227493383355
0.581561198038
0.209426093378
0.0475792104642

-0.664743650684
0.0313488620857
-0.544720908231
0.576424508886
-0.0504684793712
0.470686845664
-0.0473219912543
0.427936695474
0.381656818327
-0.298142492971
-0.164888110594
0.524033873447
-0.0137008714907
0.485235952649
-0.109046060721
-0.0272861146123
-0.485060586061
0.461604978678
-0.124311880986
-0.116160521651
0.0136192348388
-0.740409231474
-0.240630891564
0.429682826182
0.102471199695
-0.173650834478
0.286514682282
-0.58736132815
-0.414593703363
0.573259529308
-0.661718641997
-0.401836592167
-0.011746035581
-0.583748081931
0.58462752774
-0.191974925099
-0.260297501619
0.484571690335
-0.15695246819
-0.752845819836
0.236695951462
-0.161405818945
0.599181276514
0.0511784757612
-0.744945442195
-0.14040934374
-0.428838066105
0.0602498196193
-0.121463125863
0.070632179363
0.589031399988
-0.0264865614982
0.498011024087
-0.00180659935111
0.288027124102
-0.465690645811
0.391351458945
-0.377212256174
0.170660545914
-0.422545149196
0.371642535909
0.116926197142
-0.756938809768
-0.153225587179
-0.322823031137
0.555115319316
-0.566051053848
0.523763289944
0.267127510406
0.00612200034959
0.162184870421
0.146699958204
0.552869194238
0.143635999833
0.615635205884
-0.682636943176
0.0197261352228
0.101194267935
-0.530210132806
0.0854117026302

-0.68826970575
0.360698286585
0.00864421645029
0.216953680261
0.186817415445
-0.490937869684
-0.374860996766
-0.163798727824
-0.649530008746
0.20442880325
0.0218040423611
-0.41826748046
-0.797906122753
-0.558257451405
-0.467957383066
-0.321606208774
-0.0176978859932
-0.185681762316
-0.0398902354394
0.535679277285
-0.642947575922
-0.752972608008
-0.47489734699
-0.440191274436
-0.327475521923
0.543035917046
0.0180885584259
0.243821886655
-0.636369974458
0.0973328369339
-0.0055665419015
0.296456894759
0.423635401335
-0.453734931659
-0.45921051372
0.0922605881363
-0.595650728344
-0.576987943988
0.0771424791923
-0.606223843156
0.525508202838
0.206587375378
0.234254232939
0.251354097068
0.59279788293
-0.0970726499667
0.495861394802
0.306105836279
-0.631780361273
-0.52551491042
-0.161620957889
0.459784379898
0.52844034122
-0.593236051533
0.292340813189
-0.288696866942
0.620307040977
-0.759184224999
-0.494440500498
-0.553152674798
-0.252692111142
-0.274320626992
-0.57510946039
-0.475976906464
-0.754976266959
-0.210249928455
-0.757674730819
0.445204019213
-0.601190496572
-0.436069088455
-0.3616904301
0.554759794901
0.13334661191
-0.498867273563
-0.583749799302
-0.781680488935
-0.517194547635
0.585427205632
-0.213178396875
-0.352231093556

0.486819244251
-0.559961419683
-0.767444100103
-0.112530594587
0.288326857392
-0.612402757401
0.0972210813409
-0.637001655315
0.283497536007
0.203791725165
0.258446280969
-0.155231902563
0.546697377641
0.335438972237
-0.795791103513
-0.238447043923
-0.779076378923
-0.11738363186
0.449616134582
0.250964350654
0.142411912995
0.326280156549
0.282945208927
0.58725020561
0.591223382252
-0.419696725421
0.201115748307
0.192349429264
-0.0539264722163
0.112953169068
0.133084577074
-0.0045544660456
0.221236372677
-0.227234301857
-0.518915445083
-0.307848980229
0.603300873442
-0.130696303201
0.455071642099
-0.285783811465
0.107999658923
-0.176044818638
-0.420656390559
-0.339688640588
-0.396539576305
-0.0465212761389
-0.716117363132
0.495352151466
-0.129855644025
0.231864865781
-0.765656052719
0.357950448582
0.492423098755
-0.427387229599
-0.601677090163
-0.477191619954
0.362632658491
-0.0592457931092
-0.307844169274
0.238073718246
-0.552156640192
0.130168488427
0.0882577145967
-0.48596188529
0.227828990321
0.191798879178
-0.328320625535
-0.267642383169
0.117865166814
-0.696031279097
0.526958966974
0.333126562046
0.430126767215
-0.768229794989
-0.403997505204
-0.0541033479435
0.0516631638627
-0.791868310219
-0.0993054426013
-0.127168880319

0.0549387331988
0.470750453609
-0.640418864298
-0.320981168509
-0.674587690101
-0.178362935988
0.504233575587
0.485321538865
-0.6123095586
-0.665183601295
-0.412698321404
-0.527495284126
-0.172205805211
-0.356378315997
-0.428009572719
0.134173268091
0.0371183808558
0.542462476866
0.0854700288962
-0.185469163043
-0.678050505353
0.377316791631
0.0594076769117
0.526823799648
0.118569186679
0.453732065585
-0.290668624509
-0.633148173084
0.334676283135
-0.313604603572
-0.79623200063
-0.172299112478
0.45905462207
0.330260665488
0.543214836716
-0.745101383178
-0.178907072333
-0.250274466605
0.432517728619
0.313669252743
0.209314864167
-0.508207243241
-0.387844365342
0.402631889327
-0.140926558014
-0.551167493962
0.208380271046
-0.357977555903
-0.47982151906
-0.373830489415
-0.238534346901
0.255489847551
-0.486881281183
-0.118811932606
-0.501909512838
-0.222991684531
-0.729813820207
-0.721740568921
-0.00615992726708
0.492468916698
-0.38095187208
-0.405205557526
0.124809261584
-0.515310362957
-0.513206700725
-0.560266853186
-0.220568947189
0.501820592799
0.306230542397
-0.628582005916
-0.315795984499
0.323521917105
-0.610320838738
-0.284276241042
0.116617549607
-0.380026312153
0.317103267443
-0.198770714971
0.610678595169
-0.403592159605

-0.308415385624
-0.310210340632
0.520110056021
0.0354240071839
-0.448262661624
-0.656083282952
-0.605183330388
0.211221577048
0.0700207889366
0.468229589199
-0.24282674016
0.278352591065
0.369289514021
0.452112882632
0.429863013678
-0.234878182791
0.181623285893
-0.796462084533
0.175891020263
0.0574685044348
-0.402299973768
0.533974054905
-0.48941394052
-0.35532001607
-0.276855469171
-0.704368978552
-0.0203830504278
0.442804118442
0.31569416673
0.493799727124
-0.41030861242
-0.148987897652
-0.492155541088
0.211804225019
-0.543991933026
0.294830609613
-0.279964754621
0.324656310761
-0.75355179104
0.0997200955513
0.462087684789
0.198421884061
0.0789178368167
0.00147276721791
0.00145582137698
-0.181045272459
-0.0307078052052
-0.642143593444
-0.745375918807
0.317696191824
-0.124193726221
-0.729465945836
-0.501272670505
-0.729845226509
0.411239653502
-0.0801388581639
-0.369763990778
-0.233371179988
0.421889877119
0.358358283032
-0.703007631984
0.543735891314
0.0977186457838
-0.44837189713
0.358662801211
0.583861115895
0.437056108421
0.021571204252
0.171564907471
0.512896770845
0.245724246289
-0.703778465095
0.375312632454
-0.401518251125
0.445169287922
0.184566130821
-0.447044273582
-0.636143908071
-0.684725697258
-0.69104057207

0.578877911482
-0.36525163743
0.326028064058
0.270795185632
0.337830467209
-0.479021431011
-0.107432687324
-0.124753175392
0.551528402556
-0.496936002608
-0.0184704715755
-0.0505407396385
0.330797653994
-0.642371770382
0.090739553666
-0.585127772683
-0.0325277754202
-0.531944512248
0.0599584923989
-0.65995204252
-0.534252936097
0.225393958978
-0.479186868833
-0.141819883403
-0.560004747629
0.376187943502
-0.537288483751
-0.628286655511
-0.542745478753
-0.409581829975
0.240466979976
-0.0918065534119
-0.596472628291
0.0366522916855
0.57958385084
0.380801283189
-0.162151678968
0.343851905711
0.354254135276
-0.375266230429
-0.0157962724585
0.564373281068
0.0912440843389
0.436315845795
0.551616467642
-0.593570865469
0.480758888262
0.415721339954
-0.127372870567
-0.758642779148
-0.522172168372
0.560866530268
-0.618037007586
0.261878007522
-0.516868140967
-0.14469225423
-0.686038256159
-0.382353799063
-0.593435397828
-0.380288117494
-0.629498164692
-0.42578092393
-0.10992392797
-0.801015678189
-0.261778397617
-0.0414713605728
0.14147720838
0.102422510452
-0.482964931836
-0.461709315187
-0.601681698601
0.573567837289
0.036129592437
0.0266773938818
-0.524129843183
0.0860953323621
-0.737676396501
-0.626623447779
0.532151551717
-0.386501909235

-0.533247294947
0.262461073056
-0.718916073743
0.426247111691
-0.268879853067
0.383872872611
-0.532851781994
-0.435728182557
-0.197881322119
-0.798647923828
-0.524033774658
-0.386174541601
0.505908220631
-0.135908058889
-0.417838446615
0.422635499308
0.17897381917
-0.517567737474
-0.396729068916
-0.0899402699088
-0.730539531373
0.408030016683
0.234265979229
0.362515726181
0.0848047930886
0.378193774579
-0.543448083912
-0.737310297333
-0.198539062821
0.314145450311
-0.753575209145
-0.0148422948964
-0.140258193107
0.302344677651
0.0871557246392
0.224801988938
-0.690454909748
-0.311421618706
0.152574711657
-0.636619414675
-0.445864504115
-0.0272625734956
0.0511887571808
-0.555829186048
-0.323007904504
-0.691946341265
-0.043643494036
-0.188287184582
0.594479755968
-0.610790806597
0.0802015778756
-0.176843961448
0.341956487837
0.163086157961
-0.592632583693
0.250453764981
-0.646414070366
0.0299566208167
-0.42770347636
0.151692939435
0.604436299993
-0.0713778463422
-0.325548904781
-0.417802293936
-0.229591913461
0.549351110957
0.085945871528
-0.607883253556
-0.7406387888
0.506393506298
0.140687466385
0.0547543679475
-0.322820076011
-0.113621955503
0.0659344383426
0.100432856589
0.505044540658
-0.393192730275
-0.787701710177
-0.637689143207

0.280726293321
-0.225691550765
0.138722755736
-0.469277317769
0.4717443555
0.0699561785033
-0.0557363050988
0.548613216131
-0.325482425601
0.068590217283
-0.524684665795
-0.351748453583
-0.562144578136
0.0921116059843
0.564476899148
0.619340158005
0.175189895014
0.307742934072
0.465258425205
-0.454192841422
0.089247184832
-0.73822528323
0.397102155379
-0.303464739636
-0.131959118217
-0.637088729191
-0.523152318148
-0.0572161430896
0.403204273076
-0.520937217406
0.608897825242
0.321417565453
0.013791564617
0.411403290954
0.0606677307565
-0.565576531657
0.132014320443
-0.397719779635
0.158658231672
-0.511069845719
0.086987665381
-0.535825181532
-0.145812261328
0.300602834376
0.226112570806
-0.0487106339778
-0.760468272246
-0.0828569683554
0.146290008647
-0.382792927703
-0.158762131031
-0.376399327966
0.608155785578
0.0401067136163
0.281305176217
0.398691091186
-0.543745424991
0.465900285104
0.146661930612
0.181877460264
0.253160493129
-0.623957051457
-0.465242202036
-0.659765969006
0.386305721586
-0.594763196479
-0.652262853384
-0.279891314816
-0.430367261466
-0.312442933171
0.123770811678
-0.773483048353
0.161183246786
-0.334143974276
-0.759777853665
0.105610176586
0.224532969211
-0.0198199635526
-0.151705063966
0.167038662147

0.195343486682
-0.207681139693
0.118259816141
-0.224089757966
-0.0259095371025
0.412075758322
-0.690511188386
-0.305133609811
0.0741616592971
0.434393152344
-0.368708739223
0.527476003752
-0.433979504665
-0.255414079684
0.245679393063
-0.359808387105
0.0566760342176
0.186666267182
-0.393785882966
-0.633353201324
-0.74013421723
-0.119715046448
0.402638229814
-0.459605761828
0.301120104456
-0.680352427013
0.622337246271
0.614917879827
0.0917482849815
-0.47361321224
0.441648449035
-0.414079883464
0.167717142061
-0.704505362835
-0.800930770899
0.276370087621
-0.622931007929
0.183649790736
0.020462049942
-0.00463118893862
-0.0085901276372
-0.145158859708
0.442540581341
0.0225050584776
0.49107525365
-0.25841476581
0.0319922434169
0.250473735488
0.37019995334
0.0723793294743
-0.319384518192
-0.493517167485
0.1955484016
0.114726483687
0.15771347758
-0.143972099323
-0.0194003300108
-0.268791534817
0.131909128237
-0.749216637229
0.137760700012
-0.0888981762934
-0.101427584738
-0.568207082701
-0.438946934129
-0.626798458044
0.0651326954653
0.231939220589
0.103780677672
-0.581096740174
-0.439453901618
0.137582174082
0.496334618641
-0.163155132003
0.487676074271
0.145636369486
0.626866627944
-0.318934499137
0.407119395416
-0.770178030251

0.181777126753
0.033778051223
0.480415242171
0.569087929904
0.2143736926
-0.357369034967
-0.177873504792
-0.540548726659
0.16618683173
-0.301590465908
-0.75363768567
-0.0976312075841
0.243217262181
-0.0101709940133
-0.494641459777
-0.327674055354
0.321588838366
0.0243404716987
0.541336077504
-0.198922723249
-0.0347922454922
-0.719065537614
0.261965343222
0.555780698077
-0.187818586304
-0.123581710413
-0.215793781739
0.127246310604
0.298804289598
-0.777954290176
-0.330047868143
0.148478394769
0.163406718044
0.0753169139836
-0.746878702999
-0.119763805825
-0.240075937154
-0.362839712297
-0.0723340505909
0.478554796155
0.617607622991
0.523710530682
-0.339010755104
-0.328121911097
0.588260045742
-0.564251749182
-0.441619700603
0.540306987962
-0.172721386857
0.216452864333
-0.180030823734
-0.56524309548
0.444285217581
0.34609218555
-0.45804853652
0.313206468136
-0.0453811876113
0.280246625809
0.0976037309707
-0.208564710198
0.0294663396395
0.0100435041137
-0.257715029817
0.538859994139
-0.44086705048
0.154049188917
0.47281709876
0.211850919427
0.370787164464
0.497153761193
-0.725383584744
-0.48537097081
-0.610315430285
0.0916227607453
-0.566890874055
0.211011890434
0.0161891430799
0.394099079941
0.33831038157
0.221175669294

-0.712956402114
-0.178773479337
-0.223296866646
0.412716768074
0.395642055459
-0.0131989824032
0.51689950182
-0.411455137848
-0.24618329702
-0.761181856507
-0.571245034635
-0.718022643442
-0.411683239011
-0.0240939219799
-0.681038550197
-0.427487974287
0.539796014654
0.2550580368
0.178913294081
-0.0410525690129
-0.275339677066
-0.404468056408
-0.684779557004
0.305074070737
0.411468931703
0.294892580513
0.479321738882
0.125523151719
0.19250094244
-0.368607491782
-0.217517644205
-0.059022049359
-0.182432069305
0.175775526413
-0.781357568037
0.528119719799
0.145003535854
-0.483711534161
0.153694037745
-0.60835447681
-0.508631269186
-0.228377869172
0.182695753416
0.486850940159
-0.166745384092
0.265183561121
-0.21002732849
0.400245887759
-0.569846537044
-0.766300880289
0.382406614332
-0.429034437959
-0.185263069975
0.135897286785
-0.171283977194
0.218482047296
-0.719087402292
-0.208662765771
0.0238453295685
-0.00293070869259
0.322343173906
0.411572941163
0.108769291602
0.524870428734
-0.377384432582
-0.527664162888
-0.605123953037
0.0175894981798
-0.772458767063
-0.474590155949
0.0738185172985
0.256007748467
-0.406885293289
0.198947623019
0.0641955532207
-0.374834264143
0.481549509507
0.591264126881
-0.386544348971
0.240037866799

0.301707421185
-0.145872810892
0.28796647311
0.428260564501
0.0303393049767
0.534821616589
-0.503470937096
-0.19035442069
-0.436891969972
-0.455386138104
0.592478760401
-0.344879905418
0.283156337918
0.545283257513
-0.737851551281
0.00941571266642
-0.0802449378414
-0.726391181104
0.474966356455
0.0990796322849
-0.035415010021
-0.345551424652
-0.346575498638
-0.237695993285
-0.521341241926
-0.189874752742
0.399178490668
-0.494234918903
-0.542719372825
0.242067943468
-0.403550912256
-0.583125198277
-0.0368830687082
-0.00590640350064
-0.619885335169
-0.344986778644
-0.690463564224
-0.0469908629419
0.591622480085
-0.585185112785
0.412081758702
0.181771332652
0.238341790312
0.49786862862
0.533405692675
0.309645655062
0.556694376308
-0.666087344696
0.478908598196
-0.0849674320551
-0.270618452266
0.409774872174
-0.122155638419
-0.731257048709
0.306914591627
0.204526235081
0.0352405119812
0.300696380224
0.540500927231
-0.28377678415
-0.430535587046
0.392638457558
-0.363318085677
-0.73472573158
-0.0394696504597
-0.0858431219509
0.180613694869
-0.752286268456
-0.706938077673
-0.42462155769
-0.185133103731
0.333294008778
-0.0381048955002
-0.363668844592
-0.741414228871
-0.26478731724
-0.0530950742795
0.469877707274
-0.198841268701
-0.517909135071

-0.535664135306
-0.790431879159
-0.43879237952
0.339635230315
0.358908396194
-0.187828091162
0.276608292715
0.16385282627
-0.280659509568
-0.528310850407
-0.764581101315
0.535388395662
-0.446264670036
-0.799247997414
0.0743549651727
0.305243027119
0.502080311302
0.480328155985
0.401365325924
0.204126697064
0.25080180542
-0.12528011774
0.413736523574
0.517079698632
0.624435798531
-0.0887049256645
0.327199530298
-0.304877406112
0.375737926737
0.322662797033
-0.208228565
-0.609502370967
-0.0797368793131
-0.272628477607
-0.236922497519
0.225997639592
-0.751694874163
0.240357092486
-0.484852627729
0.52563404232
-0.103993574552
-0.013773382112
-0.494091263809
0.213168925585
-0.55705130888
0.422193812922
-0.252816958967
-0.680010183462
0.30196166634
0.178898882022
0.31640120501
-0.109136854431
-0.302563832751
-0.424774048283
0.5381627701
-0.162940530105
-0.783634534343
-0.660111484667
-0.492230742134
-0.0990131352774
-0.729484586216
-0.696576895315
0.0519371035707
-0.276106852633
0.523691320826
0.620020921907
0.35797118672
-0.0102160999071
0.17394070268
-0.423769550689
0.608118949523
0.341620855085
-0.218032609845
-0.271991313976
-0.746593035192
0.623234459684
0.116534285007
-0.0708765222694
-0.663154581174
0.595413455787

0.178610357194
-0.413540735426
0.334192674137
-0.298624944758
-0.0869092962518
0.242787652338
-0.600740302329
-0.247707342593
0.175559222662
0.0597945285354
-0.189264557803
0.0500305615193
-0.610625559312
-0.721578544834
-0.00249746531556
-0.775017493105
0.520299097447
-0.150649320819
-0.361118127609
-0.600726400655
0.514314649746
-0.69528037667
-0.272506118574
0.268541848936
-0.180226981417
-0.780125624627
0.0136137179217
-0.726336014205
0.310281405595
0.534724657176
-0.774217323735
-0.0778156640355
-0.750254700832
0.475248099135
-0.160685343765
-0.469924512531
0.540636414495
0.509618390109
0.410956073546
0.24827516884
0.234449883165
-0.770253818963
0.161646206029
0.442092165525
-0.570555694328
0.269449480879
0.433254657734
0.419373903807
-0.360135757667
0.252063634552
-0.380593581574
0.585147912667
-0.465191629815
-0.618780327816
-0.372651829005
-0.237318119418
0.233201660197
0.581443834931
-0.182057152331
0.0958226633679
-0.241944810811
0.10275697231
-0.384964927636
0.0874506412735
0.606404662482
0.104009467985
0.240161154456
-0.339932491573
0.0558952188637
0.600780382014
-0.156698567214
0.0255758970596
-0.456415938949
-0.436348282709
-0.196960581893
0.308341290871
0.521602915101
-0.796291610368
-0.523535138286
0.132289578285

0.212036789734
-0.0562872106991
0.168353715731
0.0810505639504
0.0293559410769
-0.161335995363
-0.384246448622
-0.555114902627
-0.556797667977
0.47247937943
-0.236326836789
0.0776923760675
0.585831298027
0.369805002812
-0.258461031603
0.442720651705
0.0918931245622
-0.483999914922
-0.784695969269
-0.572102307274
-0.396459977005
0.0877605437645
-0.67741240728
0.343251985008
-0.148019986011
-0.0239853584548
0.428236123723
-0.778145468699
0.311684731986
-0.599521229606
-0.0142699283592
0.341715798655
-0.287100979922
-0.354090646544
-0.224049828681
-0.24395982441
0.238891289273
0.48991413541
-0.799337073553
0.159665521028
-0.7165757458
-0.802042888892
-0.573536217709
0.455869268024
0.514974108355
-0.010123433085
0.124476544574
-0.651000947488
-0.497919246034
-0.515533305833
-0.20846264675
0.128430950931
-0.147858757824
-0.0177864208981
0.184087451176
-0.0738810201672
-0.312637108805
0.00741111993216
-0.486115710829
-0.574163123689
-0.752417672302
-0.796858642422
-0.408655429392
0.326620869105
0.00386286887571
-0.490009456319
0.337773196339
0.416955123912
0.501206358909
-0.719939533038
-0.030092126064
0.41646454417
0.586202381657
-0.0146680593816
0.215819859634
0.349224323974
0.070188011287
0.271967961106
-0.550200254792
0.117712507524

0.547897187727
-0.254629019548
0.394626403361
0.125972641091
0.135731716907
-0.619644104229
0.208323641499
-0.702222478709
-0.203204502635
-0.693070250486
-0.109466054951
0.336007841365
-0.786657205903
0.41308846075
-0.687077708708
0.433912002674
0.43747723145
-0.220642360065
0.00715129488371
0.104796298105
-0.251475983855
-0.605625983474
-0.349348957745
-0.242908410195
0.482198992841
-0.109567880178
-0.0201725192991
-0.535890928906
0.0730229736659
-0.693053043871
0.45942915902
-0.505522206644
0.503453610365
-0.148548731047
0.326542855874
0.0426878163828
-0.596830554851
0.573078282916
-0.125566153765
-0.656383096589
-0.00968140941729
0.20949094824
-0.130162684748
0.297653842002
0.10485822344
-0.462643216881
0.571697558628
-0.781166209943
-0.129597878082
0.0376642782485
-0.352431391793
0.435422350254
0.10398067968
-0.163902286065
0.152494655158
0.103873022978
-0.682112136625
0.615620793468
-0.314079887788
-0.120153513957
0.609296899629
0.415069504537
-0.642613008679
0.416461333454
0.402143866408
0.228166253047
-0.492943745331
-0.732265551185
-0.527569392728
-0.169615670472
0.396151301807
-0.0961706042298
0.285324460598
0.55114901445
-0.409781437356
0.470216167967
0.620165576997
-0.692658932609
0.23587903107
-0.0274499197428

0.556108226777
0.128684286429
-0.805185395426
-0.0927632021379
-0.420856293333
-0.77149416714
0.626837477767
-0.15169329039
-0.116917127602
0.49728552666
-0.539137682319
-0.263830730476
0.514147988215
0.0384873938083
-0.560616753029
-0.778622167763
-0.319971542277
-0.470316304355
-0.713376403614
-0.166105208906
-0.356993268532
-0.163919627876
0.328446220045
-0.53737172196
-0.617233394549
-0.366294777925
0.577704921799
-0.0682397152719
0.440092365146
0.0337788246178
0.169613671734
-0.435710140932
0.141134607168
-0.666038341748
-0.0256125402849
-0.662448194346
-0.419235655102
-0.701654437815
-0.0336406891431
-0.733104084639
-0.780938373887
-0.640646231756
-0.594419569299
-0.729403718667
0.590595806365
-0.352434179642
-0.429594784491
-0.371802417802
-0.411706477043
-0.613945364607
0.346649749399
0.14303507275
-0.345272613421
-0.00197080583617
0.343555505947
0.00868391164644
-0.362723495144
0.463739520231
-0.680498893227
-0.161905621564
0.261988150353
0.601598109716
0.406990493145
-0.747894578113
0.329202929849
0.102239262096
-0.214681549597
-0.592496186764
-0.0650518392864
-0.757859934456
0.302083530919
0.211399106085
-0.72501065112
-0.250754364
0.0691278104075
0.37097142824
0.156494929244
-0.431355135603
0.59444891723
0.107752475755

0.0565989355791
0.250160007889
-0.347412972676
-0.608051551246
0.152539745137
0.368868504385
-0.668407891329
0.0615724684711
0.0268503335303
-0.266987534567
0.0429638781593
-0.321195488125
0.518344313295
0.537342005751
-0.684996167225
0.0453616768192
0.470184578728
-0.36882856811
-0.324082258784
-0.488522625168
0.388348654157
-0.758618314127
0.0689659570691
-0.426722543202
-0.226492583723
-0.292533197844
0.459294296399
0.270982801731
-0.405532642407
-0.359100780927
-0.437520959291
0.369494079182
0.607923411642
0.476779121027
-0.0387470526193
0.409227792823
-0.496348850879
0.330370833848
-0.239404215097
-0.256657379161
0.560279589214
-0.745148693062
0.246369555127
0.394004940944
-0.134088490342
-0.593319868954
-0.494335312427
-0.00164449849696
0.291994858979
0.161772079914
0.180427903609
-0.418806894739
-0.39640238349
0.0368056135311
0.172834412064
-0.741303705088
-0.633723931249
-0.097639254763
-0.709616173412
-0.46690316159
0.174039747168
-0.477560435588
0.1433963747
-0.264040649335
0.322340555792
-0.713694138153
-0.478773672924
0.606978264069
-0.398198580235
0.0759158717634
0.448791023382
-0.401064808502
-0.326613314154
0.386863064549
0.366117807776
-0.115719114246
-0.754798442657
0.476047270143
0.389858766213
-0.178040019986

-0.0874880768773
-0.393149950389
-0.691987844743
0.382858517284
0.243493543525
-0.614373544824
0.0834016290328
-0.000429427060561
0.168451932492
-0.20690008028
0.603225084918
0.344671418555
-0.494016187875
0.293941262123
0.417882979776
0.287661392714
0.556231006266
-0.586215000929
-0.775108647637
-0.733387744853
0.0545515780637
0.389599208356
-0.0998132447057
-0.644108961647
0.131363842476
0.436603047566
-0.554952505237
-0.454367751439
-0.13229787476
0.129492851607
0.457284676134
0.288573238623
-0.646006415571
-0.653104490568
0.449175061605
0.00705170177671
0.205035623388
-0.674888126285
-0.663747751364
-0.709569693342
-0.167866299143
0.0673128618776
0.348594170953
-0.620037723358
-0.475545694515
0.418237313691
0.0673286727338
-0.0529441183273
-0.467017804725
0.327413008933
-0.604882481051
-0.710758858395
0.218855027101
-0.42652234917
0.17608523848
-0.366740902647
0.470742857301
-0.667471770509
-0.0324157918514
0.48084090646
0.11980381403
0.568511409544
-0.744272758061
0.118360923531
0.27202268242
0.0539727949004
-0.21104248007
0.469148223856
-0.721939894288
-0.612135692595
-0.761406866163
0.466432343159
-0.592516518538
0.148337000567
0.317587375028
0.487731406072
-0.510800092446
0.497543513029
-0.125824457202
0.479870939476

0.151820441943
0.186539468238
0.191747402826
-0.463422058689
0.0368430232227
-0.343396540592
-0.709222560887
0.202212282989
-0.0139805206329
0.0324327227478
-0.408373542553
-0.636517873621
0.254633910608
-0.341585565314
-0.699179136396
-0.57944277258
-0.130446082257
-0.475339738312
-0.480131195231
0.268518258685
-0.589359274035
0.380483984016
0.142380301443
-0.142195022537
0.426178877691
0.156600201636
0.19167561503
0.333648549824
0.603155363845
0.045417923368
-0.803141642142
0.294186156867
0.572878387167
-0.372298578655
-0.701834276369
-0.274614319714
-0.338434958898
-0.413173430692
0.310761419045
-0.433073709436
0.356535533681
-0.374287874046
-0.269577527185
0.278407957659
0.298582216049
-0.101056232839
-0.322517273559
-0.590061577194
-0.310520996839
0.0480655760913
0.135958767334
-0.55665047636
-0.715552534934
-0.558784657904
-0.157900517431
-0.463178796772
-0.561324998197
0.123247179855
-0.443799527436
0.320472572626
0.444223335858
-0.550390237779
-0.012970996761
-0.102422375105
0.444232727271
-0.0053553148362
0.156781917824
-0.149717653946
-0.485813745207
0.537090879945
-0.0287500882273
0.200124111314
-0.0249813901507
0.302457382432
0.369254444333
-0.187478555548
-0.636025088763
0.363096625986
-0.167667475824
-0.671087056667

-0.603193285606
-0.758798999241
0.42104486982
0.413726186807
-0.630321453503
0.607719339451
0.418274383792
0.182321149354
0.352733675997
0.494223363957
-0.370120282081
0.164912667943
-0.391276170955
-0.24359986142
0.183482844558
-0.0851911486993
-0.0631543244066
0.0474962153137
-0.102532373026
-0.34241579297
0.541146478119
0.281927136143
0.50597591124
0.427579742758
-0.251932131574
-0.700595825532
-0.676372712784
-0.439222590695
-0.375873547416
-0.196460448183
0.0084601926674
-0.431185194807
-0.540566694381
-0.526853740352
0.313363986273
-0.0265795277611
-0.0217568448092
0.409178448958
0.0349459799104
-0.722102332051
0.0357044209508
-0.219363389724
0.186210298746
-0.24144079808
-0.200300628319
0.446531834891
0.555341005661
0.409321113125
-0.0110472758071
-0.390948995963
0.118471679265
0.268294900254
0.402427096557
0.174401831433
-0.423252331633
-0.429230413511
-0.23112318223
0.0482933190593
-0.804388564014
0.380130956196
0.607992315298
-0.155575750413
-0.640887555086
0.324728139193
-0.561343424172
0.596213127106
0.0504495718365
0.257424895118
0.479395149784
-0.671105351989
0.164394336333
-0.522696412985
-0.231245943164
-0.784831933262
-0.211645743199
0.139061736803
0.129355380367
-0.0811997833788
-0.224244592108
-0.494518225462

-0.372472274005
-0.373402045736
-0.40568752125
0.42955216102
-0.440019816548
-0.689340413827
-0.142667541214
-0.589191932155
-0.213708456347
0.0190956357216
-0.191799274901
-0.142546787967
0.08319375147
0.107056361208
-0.0920376449626
-0.728219416031
0.267395746495
-0.797519303891
-0.0456960427176
-0.115856280232
0.0832299398459
-0.329422405196
-0.118711436112
-0.44372309709
0.339036917998
0.490946067883
0.335002183118
-0.186900858388
-0.194512133113
0.224999347295
-0.363168990396
-0.78119708713
-0.244710020065
-0.269217555771
-0.223149451905
-0.30829561386
-0.710631824902
0.428658480156
-0.295940166636
-0.408842062671
-0.577182982824
-0.0384078119808
-0.328424314013
-0.496852148659
0.573472868856
0.542104652507
-0.710862653505
-0.604903675708
0.208845213993
-0.0531192613176
-0.483819801303
-0.165022139678
0.00990025636965
0.624076611224
0.223298922802
-0.270444695529
-0.747313995476
0.00496658623715
0.125133206475
0.0273267598697
0.443486762938
0.580372241128
0.622079062334
0.304280963126
-0.347754849213
0.383694656686
-0.596479427843
-0.24949277899
0.204762503158
0.600315663129
-0.742087833197
0.390228308957
0.30176400077
-0.589100423467
-0.28492637528
0.561781474657
-0.40798607337
-0.781445893402
0.195686806409
-0.199510569922

-0.0225577476424
-0.494187373432
-0.00267003276155
-0.0222723108867
0.572737015353
-0.69780546327
-0.495245736391
0.523605280683
0.34660785403
0.605798823303
-0.0441586251736
-0.224329431213
-0.173908466944
-0.533523108895
0.134474356055
-0.194311519443
-0.571625946472
0.277813552062
-0.723458280676
-0.132391225224
-0.30810441556
0.229082321591
-0.397626508108
-0.416678740963
-0.438964755929
-0.223204222928
0.362410738798
-0.526219969588
-0.161843067763
-0.287817457314
-0.0115840310052
0.439973211874
0.395748109764
0.16420668472
-0.409798530366
-0.469258085733
-0.426890785985
-0.803590127732
-0.686990118911
0.182239180712
-0.569327227453
-0.308136221617
0.432734396514
-0.561279033285
-0.680273378002
0.208398125071
0.477107412129
0.381788360153
0.183327572744
-0.562572212499
0.234567947626
-0.195064960127
0.453725460707
-0.417926854791
0.0254699943215
-0.309824794162
-0.0336086414196
-0.0145474682287
0.554814566376
0.557064424091
0.277314971914
-0.455870006909
-0.609507660968
-0.779946943037
-0.766116143469
-0.715642181737
-0.451641230647
-0.53098469902
0.609485730019
0.107715244214
-0.630344875413
0.544865701703
-0.586948092062
-0.195517899181
-0.640708961454
-0.453106502193
-0.700021212327
0.161730878834
0.0750571809098
-0.208502875454

0.61284221042
0.524891199986
-0.0754532882561
-0.347761552113
-0.282530854268
-0.78018509121
-0.49646610353
0.392858875425
-0.535573189967
-0.0505607129998
0.579002345882
0.407934204805
-0.359200753769
0.244445291457
-0.268473279399
0.598379841325
0.258126826868
-0.623808133689
0.133056263104
-0.607772937399
0.39587223235
0.186503629153
0.116060946279
0.554751110289
0.476816029296
0.0995207775695
-0.51879379311
0.240918992648
-0.554879151985
0.283252197663
-0.137399775132
0.0816125923497
0.433210352614
0.0467549394631
0.166778952561
0.531313881576
0.0528066026548
-0.0293684215833
-0.41844765422
0.176598756612
0.441141573336
-0.288781748217
0.29193824612
0.541610575278
-0.700616558696
0.426006685036
-0.290254626621
-0.242617253891
-0.218795846448
0.154616489684
-0.190956883298
-0.603161313106
-0.700394033739
-0.737772758426
0.499471238573
-0.318580808826
-0.468466820562
0.367550089713
-0.617375932098
0.279544735268
-0.597058257108
-0.301152884222
-0.757121567638
0.240407729149
0.601352821968
-0.162497546095
-0.101597339563
-0.377824031419
-0.0692466460371
-0.0755087918669
0.610580797292
-0.00407289726634
0.489548298574
-0.483481187276
0.141656411878
-0.212613462989
0.0100585395793
0.419595910021
0.183293156379
-0.590442197924

-0.405811561353
0.615033595108
-0.247141827847
0.171317691631
0.143597305417
0.323958233331
0.311471828595
-0.57865598229
0.123933495771
0.0116833602434
-0.00960441009277
-0.599687086368
-0.752521231374
0.0700683658933
0.532830373608
-0.744398687471
-0.256282585673
-0.276816783771
0.18202091395
-0.148181144132
0.426841115196
0.314129763682
-0.475943390036
-0.565324981098
-0.245824021996
0.407552556737
-0.250572110857
0.397047490291
-0.783316267545
-0.128439053136
0.0944586184489
-0.124201420251
-0.283006891555
0.283355253189
-0.611427136567
0.0765708810184
-0.263080664456
0.162883239892
0.236477241773
0.274447797378
0.28142667258
-0.640649185887
-0.645133446269
0.352290133966
-0.134096419207
-0.308001265261
-0.632331196944
0.307996292877
-0.443650984702
0.548251860146
0.236692817234
0.173961039569
-0.783822912099
-0.0958273961938
0.360329790647
-0.69620340828
0.149250419743
0.546449285206
0.299159492801
0.411784590482
-0.350780652041
-0.483814072759
0.330837478168
-0.794833809439
0.501240212434
0.233764512541
-0.534307676144
-0.281869854214
0.511251334823
-0.566172928115
-0.773233930447
-0.127088459864
0.589760490363
-0.370369937474
0.393198171998
-0.689233716173
0.337413592855
-0.693502255478
-0.428822891414
-0.653237215023

-0.737018691781
-0.290651051222
0.397928864576
0.58967949929
-0.587246342413
0.26440567988
0.597168081834
-0.223107698917
-0.666248273486
0.386797385265
-0.0618068388608
-0.309571981342
-0.779640449983
-0.238716615981
-0.129139410485
-0.371396111205
0.155566540694
0.0109928687518
-0.417680015125
0.286660970788
-0.752789815705
-0.425197642826
-0.533230426755
-0.790064708917
0.423014698917
-0.184567634663
-0.46458441363
0.527477209293
0.124924708488
-0.477654682476
-0.794820201607
0.399040312365
-0.167945588594
-0.508711912582
0.362033737203
0.446140511245
-0.0503826599624
-0.716909254533
-0.673901093532
0.242069317517
-0.686578254666
0.289776808438
0.472413053205
-0.141220867918
-0.0262175890335
-0.279396272796
0.0153546701844
0.569581818995
0.118661619812
-0.581553764626
-0.312121344641
-0.196469705099
0.530039065743
0.477927719397
-0.567966277829
-0.752557910567
-0.308495646404
-0.528341346521
0.162084219941
0.264078680764
-0.338064345843
-0.481389039165
-0.369286349447
0.613867250818
-0.124949822344
-0.0764692323181
-0.407702069472
-0.795366806447
-0.116971493753
0.476475425841
0.224470773557
0.283461536376
-0.364871242886
-0.235650816957
-0.13221825925
-0.356241621318
-0.127589029564
-0.396369353418
-0.663292964813
0.0442090755888

-0.0603441576284
0.589626349455
-0.772066595664
0.120054986601
-0.208892011227
0.0601231004757
-0.452186013556
0.0348951115671
-0.367524223633
0.45882639732
0.551806960207
0.0295138484843
-0.217362381509
0.171702533637
0.325434539501
-0.159506961138
0.293085240356
-0.695080039284
0.0866529223282
-0.556920343206
0.514130015368
-0.702333903584
0.204174999844
-0.19579217632
0.608402971822
-0.678482525001
-0.719259848604
-0.0461982126211
-0.0513707787731
-0.32466020424
0.193212561607
0.0732004929216
0.228649689352
-0.161075492743
0.221605741359
-0.210057340157
0.462180548093
-0.428541822503
-0.364473031784
-0.0568935286797
-0.761403960498
0.322370974627
-0.439657316792
0.372740968625
0.518342515598
-0.0392599282946
-0.251507935412
-0.192351531588
0.500489923173
0.0845209992601
-0.395666380439
-0.394542453298
0.313744356509
0.118889052186
-0.557082520368
-0.510707749032
-0.706046506674
-0.7077144692
-0.778567964317
0.177403390946
-0.780081325599
0.121243125157
0.491394578218
-0.712863924558
-0.151926036558
-0.247023084091
0.606193235753
-0.13180318434
-0.205870437532
-0.263640253716
-0.313658926245
-0.486515476167
-0.322563289112
-0.542819636605
-0.364324503771
0.534284850255
0.153950674152
-0.603909752568
-0.345144405291
0.535945517244

-0.439287712534
0.298721181216
-0.732531116913
-0.509797140463
-0.307510852459
-0.512566855518
-0.428599386959
0.344519441164
0.307516309069
-0.538700536273
-0.555801846369
-0.293985875511
0.464273162748
-0.582612329323
0.0342952087187
-0.440366615877
-0.613129826293
-0.243582230942
-0.402251624669
0.124061099867
0.408347026919
-0.228405889059
-0.324159543159
0.110936734944
-0.554835789175
0.146138050352
-0.227443531917
-0.473757469478
0.582959713835
-0.377929703218
0.551775572413
-0.226884012919
0.108691234029
-0.781598566158
-0.171608907118
-0.254349837455
-0.674816956864
0.598010510841
-0.772017381265
0.093987038363
-0.341360802043
-0.238934033
-0.760359018095
-0.620490052249
-0.0114073657968
-0.166691311588
0.376505621532
0.000631985380001
-0.462205038893
-0.227630254885
-0.792118072461
0.0467584405185
-0.243993649512
-0.373367849554
0.618385349569
0.400250291669
0.0845547260643
0.601852403425
-0.238899166939
0.560225366052
0.217242353606
-0.471347386796
-0.354590559352
-0.347947260006
-0.134927912671
-0.234282126684
-0.131598638006
-0.73793645913
-0.47853683452
-0.403844804718
-0.756138666595
-0.214531103006
0.529454955286
0.478059528147
-0.383479391079
0.0715425328269
-0.366543649913
-0.682317108855
0.243931267842
-0.180311160989

-0.437794615101
-0.607030804034
-0.558191826969
0.399970674128
0.117931956973
-0.282254054458
-0.749461409048
0.155280902363
-0.159630280588
0.0172567011721
0.529939004335
-0.310821988226
-0.0669566054977
0.585482619006
-0.603250513096
-0.72367676567
0.228318689923
0.385204980641
-0.734243142317
-0.310119191271
-0.0650776809066
-0.0838091203676
0.474655764745
-0.602969574514
-0.30887326682
-0.647974063657
-0.187239817656
-0.429496101363
0.0727020958311
0.0775082215418
-0.739812720742
-0.0247153394191
-0.482758157906
-0.097201418972
0.545165197213
0.591363625218
0.239495607021
-0.443797260853
0.385068708183
0.30651732401
-0.524077809888
0.0426204894221
-0.109102012309
-0.596194800585
-0.0353218582431
0.18272554441
-0.739994341465
-0.265145145999
-0.0548997288613
-0.566637120688
-0.335043070861
0.358826564059
0.558210450457
0.587360117747
-0.049238811344
0.181783456845
-0.554573621483
0.0679124009075
-0.486990580576
0.386729660252
0.377711292813
-0.521401558449
0.267079939958
-0.00640566768994
-0.439466765962
-0.682145129168
-0.712523710166
0.273900409291
-0.484624813703
-0.029555879555
0.232589743629
-0.796916636436
-0.0111991125371
-0.396373851864
-0.378838107094
0.624995106357
-0.0247873929036
-0.24269216385
0.00313781427658
-0.108564860508

0.159107337803
0.263813842247
-0.297730692745
0.0146661012652
-0.620985862842
0.0428464955297
0.348281676976
0.148589421838
-0.668060405434
0.162990198056
-0.499146366238
0.376775505455
-0.66711093793
-0.759140081384
0.0224879295386
-0.0772279107869
-0.753376206915
0.534732153684
0.0809498798973
0.0403294277584
-0.611637963009
-0.73546811144
0.274303976988
-0.328353474911
0.318495399692
0.0836792424681
0.112848316467
0.448930780098
0.0388594937306
0.317015672662
0.0519762934313
-0.101064037399
-0.406749122709
0.00611600224594
0.468863621013
0.349288061725
-0.027541113451
0.577834512262
-0.405378096327
-0.13402026232
0.23604933888
0.22598800081
-0.3826285091
-0.499418304109
-0.460063963147
-0.111614800265
-0.50310537734
-0.449585783366
-0.341911767699
0.178561534421
-0.0483721037653
-0.0266701192568
-0.136930568706
-0.106512006474
-0.446774894875
-0.462557741392
-0.673782347195
0.458158732727
-0.0614109883094
-0.796990490437
-0.107192334285
0.575599344923
-0.351660860436
-0.515976117922
-0.0290372750618
-0.691808477797
-0.678181087396
-0.645146934735
-0.316894248111
-0.395278610988
0.524096801135
-0.253463665734
0.0653058845455
-0.0801117720041
0.24356148791
0.362952969728
-0.789962293095
-0.580285977593
-0.420713603217
0.522674496691

-0.344011006592
0.291000438184
0.313739171992
0.314780408275
-0.752285181926
0.207498003857
-0.246087399624
0.121699872576
0.567706731742
0.0218787117042
-0.375365183747
-0.263655267766
-0.38109829967
-0.631183593046
-0.353291045235
-0.0104230242873
0.159695487096
-0.403741456083
-0.50812885256
0.0288771156895
0.281255120326
-0.302701111802
-0.764696021331
-0.261868583755
-0.617609263223
-0.287942775317
-0.538410200825
0.478142978617
-0.0300895159523
0.523834046291
-0.262250589833
-0.516923664467
0.124706658048
0.505738628405
-0.800608801696
0.613791029093
0.458068090556
-0.661010476401
0.0539284141604
0.379594306233
0.308971784781
-0.382843790569
-0.0902850532485
0.428254610101
-0.309867582985
-0.573593009779
0.11132791157
0.472425080819
-0.7628822632
-0.0401042931097
-0.267270507657
0.0595350991592
0.31189839362
-0.261507705016
-0.5765282453
0.251038076188
-0.113938809294
0.12199639231
0.518091133714
0.22419815867
0.567526971122
0.429699473006
0.030550499207
0.0702483748056
-0.271470653496
0.389553282506
0.458767559586
-0.161194580182
0.146878261933
-0.163723588471
0.500634798251
-0.797998381066
0.267593856855
0.494766003858
-0.32730138119
-0.617487321046
-0.385246418631
-0.76142395294
0.485475415081
-0.340084147006

0.500761026133
-0.613788356095
-0.240529802091
0.0161573974415
0.0757064449338
0.443278642947
-0.397990481832
0.273686798945
0.401712720222
-0.434736581651
0.574149940941
-0.0384206237329
-0.63750255201
0.106426355997
0.392335575389
0.220434402258
-0.263671651867
-0.499675550101
0.504374120105
-0.504556424761
-0.0846112699458
0.554168802557
-0.0331191731335
-0.453729746523
-0.754298176246
0.396978825706
-0.0148317147248
-0.767533662376
-0.107302118838
0.575790847634
0.0161018824878
0.111743881332
0.274538798647
-0.77355004093
0.172436844716
0.0350852228131
0.119328935992
0.442397596129
-0.628105188258
0.0791705074651
-0.157304965254
0.395323507911
0.0385857104614
0.527585879543
0.184305907952
-0.245974043549
-0.0330491238796
0.556653570982
0.382525781752
-0.158414917541
0.618046922495
0.333924714315
-0.399480511286
0.326051313203
0.163622619664
-0.69229266951
-0.651014064631
-0.0437945076978
0.082394413532
0.513714946381
0.263948704103
0.0264969643829
-0.619710527935
-0.770949944701
-0.346846185187
-0.489683770332
-0.654281264278
-0.233274781717
-0.768331405976
0.61494853508
0.128785354854
-0.799868019439
-0.226463441927
-0.132072059949
-0.595040524719
0.227854105221
-0.256330820849
-0.290576636672
0.496544980383
-0.00908676806777

0.182441709368
-0.345665116971
0.443374204655
0.212541773878
-0.132310229229
-0.00361579071833
0.0466001733481
0.301706031903
-0.196573667018
-0.398659548339
-0.749257343718
0.327414113476
0.0485299161302
-0.55833203449
-0.400918279501
-0.449040346476
-0.418954733541
0.149927774217
-0.590337247332
-0.300192291453
0.0186863967741
-0.536402734963
-0.315620122152
0.203682014981
0.211281223013
0.480224654897
-0.0649128098594
0.370512569392
0.463507792844
-0.00791482006795
0.315474706834
0.522506980923
-0.610928932724
-0.520683646644
0.574406807136
0.196315780425
-0.601048319104
-0.632612923422
-0.103625161412
-0.214119474404
0.407950338031
-0.535600900829
0.49168286504
-0.361297515454
0.252671693821
-0.647837960891
-0.156125314796
-0.537032175426
-0.670322005284
0.546359123606
0.55769764639
0.228427833736
-0.305057276237
0.0495592557009
0.264358779331
-0.377290111287
0.0864087615481
-0.272284284137
0.352452896337
-0.290992063114
-0.376794786524
-0.193088949449
0.43306935147
0.192214736683
0.166525682371
-0.21581962871
0.597352468415
-0.192242764104
-0.130948856569
0.438907689048
0.474077559518
-0.477745228171
0.577599539519
-0.0131061416179
-0.775613083162
-0.49035817828
-0.484716006024
0.439122465698
-0.633116818319
-0.362603444414

0.0632205267657
0.403590060782
0.0381753220449
0.607037555027
-0.693759492392
0.250475863714
-0.0278084368605
-0.757734240304
-0.280846580353
0.0057787271684
0.304878871197
-0.209860887044
0.129164822459
-0.600618831459
-0.527664951519
-0.781640499975
0.174187810288
0.371310672711
0.154468060807
0.266041801989
0.387981031664
0.293678031985
0.200528087309
0.00721829410282
-0.109152562429
-0.742740524873
-0.284142549011
0.00167931325717
0.477247687122
-0.65443242531
-0.196861332314
-0.066003687215
0.278154571019
0.009966316815
-0.393716807239
-0.565484457791
-0.285303670355
-0.332978043954
0.00762053708611
-0.443404883766
-0.703148267166
0.124171738937
0.240301968532
-0.155417784119
-0.799126047915
-0.0982960505827
0.0813489215958
-0.0502057879344
0.462267835359
0.479802303992
-0.0337713985781
0.0991412974241
-0.10453374652
-0.487226273354
0.510903072816
0.0762918637275
-0.633717064104
0.254133875041
0.277629542846
0.14956920943
0.0224930996303
-0.266940489012
0.0582361894268
-0.696816376796
-0.411960919761
0.554902974152
-0.529001094186
0.230038385443
0.504675318793
0.457426162514
0.494275636459
0.147252756794
-0.345251150446
-0.732867788841
-0.620810992202
0.246460536042
0.213674137032
0.405079725864
0.219033678271
-0.6929061703

-0.431410227033
0.0153272422087
0.238581130534
-0.156492494334
-0.552509062848
0.0226605742407
-0.435963582895
-0.412994976326
0.0365676420585
-0.625071380618
-0.279823913517
-0.790628283681
-0.674117303411
-0.683471002258
0.119967342298
0.178224357325
0.416153022104
-0.481515005012
-0.696079419113
0.417241068857
-0.704360461064
-0.286465095483
0.261797864408
-0.261160725582
0.436929546986
-0.495948857005
0.567815311623
0.0513117203175
0.356485822126
-0.259690663531
-0.145965411195
0.0696570600814
0.367225133531
-0.600600482739
-0.470072937612
0.448742109281
-0.323409368677
-0.507951896281
0.529329724249
-0.0330576305152
-0.215563822442
0.384535893205
-0.531751265671
-0.724031764418
0.129068134345
0.475774012376
0.46221260415
-0.093226768459
0.381018310983
-0.784861600891
0.465861917222
0.0135272805912
0.573546575722
-0.524911572173
0.211887550224
0.047594391463
-0.438357964988
-0.161528214178
0.613699545343
-0.734550002176
-0.676131751179
0.0890157278403
0.402333063247
-0.452694608681
-0.698255204634
-0.211353239809
-0.415601511
-0.232088340573
-0.123027015879
0.439233299673
0.592302539106
0.108613030478
0.0320868543238
-0.229146478877
0.355350054004
-0.37701994001
-0.0978300048318
0.62034114367
0.412114976019
0.455203943613

0.50850210262
-0.157485713486
0.0479339257334
0.571606565804
-0.157186438121
-0.226089746353
-0.689802434606
0.362190101287
-0.180452236042
-0.432789019802
-0.0936809604507
0.143777448418
-0.126423569801
-0.422311925454
-0.0343819478891
0.115053374073
-0.66546327177
-0.604045695403
0.134534292107
-0.158747920954
-0.175710093684
0.0992521410589
-0.651115936516
-0.545569856885
0.172123449475
-0.295735555353
-0.548817150087
0.10360504545
-0.722820286679
0.393637459671
0.0724026371604
-0.277379337024
0.350400898586
0.111790807334
-0.675761243987
0.272832679325
-0.444694830865
0.576642076744
0.573717770607
-0.778984062855
-0.0840276935344
-0.104142660893
-0.746289808621
-0.741917750583
0.507646996137
-0.417539891759
0.560187759438
-0.298519349868
0.0528871177936
0.259673393625
-0.174096833956
0.0560589182004
0.0782547418125
0.534612584281
0.22953534671
0.518144972758
0.36268150587
-0.0408576847311
-0.113762357973
0.111173277095
-0.0783001206669
0.415154178062
0.255526256333
0.0128638491222
0.114530819852
-0.786441230096
0.568251523603
0.121697211717
0.000316581912881
0.0608785287454
-0.342809976395
-0.790705807359
0.128462059266
0.589310966004
0.210803264717
-0.442985286719
-0.565303003888
-0.307433882874
0.41597770664
-0.721542290378

-0.268405432667
-0.137564917017
0.131824229755
-0.409480566872
-0.634298660454
-0.0954257859064
0.434063436059
0.0677798879614
-0.506891229133
0.158003693299
-0.230910837562
-0.566254555822
-0.438558671363
0.497790498913
-0.327433630217
-0.0456810189405
0.0435488856381
-0.30550215747
0.0065092991491
-0.465944960416
-0.708533540595
-0.0934631197306
-0.369727369796
0.140691712344
0.0867926356014
-0.300022984242
0.541207631309
-0.0865313219884
-0.190000990292
-0.281183501181
-0.75280804156
0.54896742584
0.40900408993
-0.126402553654
0.0574369650583
-0.488601649281
-0.545454823156
0.390357470673
-0.0255335550269
0.0589681962087
-0.549509621132
-0.792236279819
-0.632350684374
0.54606204668
-0.743771761655
-0.0127631550779
-0.295066233374
-0.60349624536
-0.0696534126133
0.584927254792
-0.496842127194
-0.137114413293
-0.120906609337
-0.0105737222308
-0.699322821134
-0.681773802847
0.322838258291
0.144929870761
-0.334662832186
0.447253215258
0.543713441632
0.437664523423
0.563540421617
-0.550849362314
-0.382651510274
-0.670378968015
-0.0152195632682
-0.722057216341
-0.326986874003
0.261394057121
0.299846077926
-0.185911076134
-0.685760184715
-0.242775355853
-0.527212047725
-0.0998586371412
-0.799719405219
-0.253139735292
-0.00129346435642
0.620191612117

-0.0974035266072
-0.319383554179
-0.378046558418
0.338141379198
0.509680426386
-0.371095195329
-0.125560512839
-0.10616732385
0.0289802136547
0.01605300057
0.434343556733
-0.28497468637
-0.136655483213
-0.265683156456
-0.0845140620987
0.319749994633
0.092077967254
0.482280399889
-0.452664753734
-0.0817390650909
-0.19087320978
0.184216632393
-0.63714489799
-0.650299230437
0.0201776899854
-0.729630061368
0.265058536009
0.556133855273
-0.11001867743
-0.184613770832
0.50468062135
-0.449104513881
-0.672366659546
-0.596488596505
-0.682796437956
-0.207472514247
-0.465413665669
-0.400435740978
-0.632008866877
0.0061242811686
0.451579530283
0.0401198356052
0.269966860349
-0.221273534639
0.526279873048
-0.336855286661
0.575936617424
-0.537862892376
-0.448764177791
-0.561781971544
0.329079077329
0.564463833819
-0.448249519951
0.341839422687
-0.728463963341
-0.314281045426
0.226867137418
0.387596681237
0.034114547603
0.450043849828
-0.644815519297
0.0044833304777
0.054653521894
0.115737640676
-0.68437945351
-0.123786916142
0.293836916304
0.36286504067
0.229850806614
-0.343655788948
-0.430114744727
-0.0996211838514
-0.308104882358
0.340590122115
0.0985858432157
-0.167460042952
0.190117523831
0.55250102054
-0.46826972738
-0.561196129251

0.260643606646
0.2062775175
-0.568020669876
0.335718580136
-0.135948159668
-0.485662029273
-0.484639823172
-0.616543896636
-0.0474646467882
0.251313743744
-0.163877249538
0.485766619725
0.0335044976175
-0.439275475552
-0.411729187864
-0.642669770798
-0.765647473277
-0.461156821025
-0.767955426376
-0.301687051554
0.298962474742
-0.197753667426
0.565411238041
-0.667917275858
-0.747841751059
-0.544900486501
0.308807343524
-0.503887291903
-0.118466501106
-0.104034896442
-0.0231451297678
-0.713913278125
-0.571152594578
0.354933584398
-0.753151443474
-0.25520973432
0.43312436257
-0.513810037178
-0.661775012744
0.073784165956
-0.255405455899
0.607692438892
-0.101680448991
-0.0609938874265
0.497865425603
0.458148700186
-0.0284777278655
0.196638400402
0.500374367549
-0.773440053534
0.176073979335
0.36192690547
0.384182702778
-0.0821218843738
-0.594504076435
-0.15769969397
-0.69076420209
-0.332587820027
-0.260655200492
-0.0396175294203
0.61756374638
-0.0287317280425
-0.218483640774
-0.209311139893
-0.652543103854
0.165479141301
0.452497887144
0.358601722501
0.162163940889
0.622184644945
-0.120261669092
0.413457366577
-0.519073468489
-0.346115487475
-0.614686026921
-0.0295985007129
-0.0906633221951
-0.00483916489061
0.600235720737
-0.633334667287

-0.368360215923
-0.172151334694
0.451367728557
-0.533439959908
0.111555832295
0.212725779506
0.0860232848976
0.0510768661945
-0.268213373819
-0.223651767106
-0.740022666085
0.298903010003
-0.0800126667015
-0.690351774624
-0.517676351663
-0.0672612015754
-0.796940267225
0.0248165044062
-0.699783510331
0.225782531876
-0.798981121192
0.614013221539
-0.553920612798
0.0874008335939
-0.458056165322
-0.240126804122
0.590360872109
0.104812985229
-0.771880455171
-0.715552764823
-0.0118986242224
-0.655499322472
0.41512094059
-0.267833502791
-0.507477100482
0.493878932792
0.24848451054
0.31385409708
0.237273468631
-0.220060311298
-0.0274027202347
0.458314601674
-0.607633397138
-0.602333111469
-0.538442184845
0.332017861606
0.484452694535
-0.634775706281
-0.580446156106
-0.061180024237
-0.64854437388
0.260012937461
-0.0639237715031
0.304401358685
0.477782533801
-0.409771233359
0.497471060361
0.103102017787
-0.612049547081
-0.367365181098
-0.322130459039
-0.361403135217
-0.217808936969
0.207955484884
-0.446188331736
-0.274280662911
-0.595931345127
-0.21613559752
0.060935813032
0.00236587219919
0.609908701716
0.0717360783664
-0.430807829832
0.601527978446
0.601558696409
0.246914964813
-0.305346258136
-0.343178466399
0.339951270294
0.273255737952

0.257941580325
-0.649949089347
0.303693493125
0.126538808791
-0.170909815612
-0.181744621494
-0.290442878642
-0.0713295322019
0.614386520044
-0.49506287559
-0.324738521857
-0.0379250232477
-0.593738465985
-0.307965569637
0.353849018841
-0.427958159359
0.537986436995
0.0213306032688
0.00625159670228
0.182411089813
-0.545755423752
0.151592760788
-0.302516686939
-0.0241837565505
0.0581855262078
