3

32
80
80
128

0.497566160922
-0.807479684177
0.833742684849
0.642849908344
-0.306569268056
0.151381895167
-0.762419604104
0.672136295445
0.766412406568
-0.631120859495
-0.678065540494
-0.674057741059
0.465190750844
-0.923642037768
-0.238934670566
-0.396720081242
-0.385020062194
-0.119158359803
-0.128591447012
0.217387081407
0.431171511509
0.899079477949
-0.112695860247
0.457880455418
-0.843673855887
0.798728459875
0.31081650144
0.489506759042
0.620638490555
-0.866948654542
-0.933946624425
0.287693975724
0.608229222799
0.241603633847
0.589074852179
-0.830617735966
0.155258714441
0.687524987288
0.499396158472
0.802618072336
-0.0768015908489
-0.424631855215
0.735408483464
0.696768897707
-0.431879914332
0.703957341357
0.774522588124
0.224504201158
0.378580231332
0.677083085436
-0.124112451508
-0.707244647168
-0.983234707245
0.861228783307
0.517351898003
0.994267759083
0.508828475828
-0.570766489704
-0.963101113194
0.973494148663
0.540867498852
0.0927272974999
-0.937608804506
0.439407640808
0.109252679709
0.968290527978
-0.912174928192
-0.447138913016
-0.383827571486
0.93903595287
0.293913171622
0.00583931325085
-0.24647996258
0.446871554093
0.72976396999
-0.723669658882
-0.838857247764
0.708067255381
0.569691004186
-0.740524671373

-0.0121337192837
-0.292783962957
0.371740937811
0.0866972951499
-0.883740967653
-0.366359834456
-0.865357219396
0.747288080777
0.323861507583
0.363688002198
-0.57806566536
-0.991344738227
-0.669092903807
0.393240760456
0.464687494477
0.394107658805
-0.336690091919
0.829099277238
0.619163473316
-0.0448403196189
0.162889793392
0.360410597755
0.444783421325
0.0449556685869
-0.923900647061
0.679271648855
0.232385942606
-0.113560077596
-0.967908780828
-0.579053858473
0.256780944449
-0.0291901452415
-0.68142525421
0.317050583853
-0.532726761044
0.770205193559
0.109133293458
0.881993459098
0.868309429164
-0.691398945644
0.563288003664
-0.423087199853
-0.0537388701379
0.681477559044
0.680201757649
-0.667352749202
-0.668639720888
-0.54766235362
0.577999754251
-0.610160444745
-0.897979334145
-0.958215188167
0.85880393236
-0.139157796578
-0.559746374456
0.0584344823202
-0.0146291089488
-0.626617039885
-0.598711734822
0.113172741827
-0.314775124518
0.979114188457
-0.926897059281
0.523802002534
-0.159707253429
-0.191111251568
-0.410457610094
-0.71621044047
-0.238243677523
0.309824106545
-0.869701771477
-0.206254233855
-0.500953870106
0.719186146738
-0.973988966508
0.378903508825
-0.539853015812
-0.717491936812
0.13478578217
-0.937297529521

-0.205684931327
0.255933063283
0.265055171774
-0.587755615812
-0.164868541003
-0.225892047211
-0.163437284081
-0.0601435230479
-0.194064388469
0.734477947601
-0.334177582871
-0.711600972801
0.225368026165
-0.123776377724
0.39824499604
0.825731567012
0.194834256385
-0.154182564436
-0.78500568678
0.686335201194
-0.849479685909
-0.169051002837
0.566328214193
0.0772592904993
0.455959082999
0.739846577011
0.94622944651
0.532349645478
0.706330205028
0.0270661480496
0.247616534306
0.0904281322843
-0.310157844038
0.601580865358
-0.65659861363
-0.65801977659
0.227943452893
0.635068186434
-0.910537168659
-0.416648122724
0.0501511304814
-0.134682136473
0.500698818212
-0.78187373415
0.392100786401
-0.27850239167
0.615217144132
-0.976099769905
0.214877607991
-0.825306788808
-0.896557345204
-0.497364346574
-0.160449588063
0.166504922046
0.891914754419
0.927781618044
0.556311729251
-0.840401487201
0.720977927895
-0.0576219199669
-0.629830009796
0.888238373714
-0.900251770471
-0.235574248514
-0.587082686706
0.868983762134
-0.0898640616241
-0.832378692999
-0.022657690271
-0.0800773677923
0.123581818841
-0.557431237448
-0.265252667442
-0.842260012766
-0.914338752164
0.863286367832
-0.62521611866
-0.469416491452
-0.363882584952
0.0346185480573

-0.889966911741
0.86938005447
0.507371448635
0.386227641016
-0.687549190933
-0.853084474181
0.202643894508
0.968042928805
-0.495326606951
-0.790183557555
-0.371832483728
-0.42743891082
0.7321863
-0.159991070814
0.0610467991942
0.025826297263
0.226010708012
0.14292879203
0.151537938803
0.865405574228
0.192904993628
-0.789104240607
-0.889589756423
0.282745903589
-0.648653580019
-0.871183294725
-0.371156522651
-0.176663536198
0.151388143594
-0.25169184242
0.14319844067
0.238881855046
-0.220073610455
0.784697755742
0.549812100656
-0.595859179022
-0.256327649209
-0.536378948437
-0.26390064211
0.410968908326
0.156006425144
-0.260076365016
0.252685152297
0.580144083935
-0.484185037739
-0.0818847160945
0.829756186765
0.19999107034
0.859187468721
0.000325760257189
-0.240285561614
0.259181263035
-0.270544308162
-0.245179339416
0.60453519741
0.871035427117
0.455560388703
-0.944621991711
-0.956254825687
0.518782948307
-0.125845370872
0.473940643846
0.63353104022
0.628473417473
-0.278612599775
0.994986681044
0.764124609107
-0.661434218125
-0.698536307585
0.345162922339
-0.506601154134
-0.536157056485
-0.193579437904
-0.706712506818
-0.567787018909
0.499852203028
-0.320312468211
-0.0274886187381
0.341565628169
0.914389421388

0.97706041628
-0.075279615125
-0.296789000366
0.979547508841
0.60515916759
-0.411310245411
-0.774370339978
-0.98179762956
0.690151815101
-0.452857263636
-0.50917420032
0.364735068484
0.894125297779
0.69428854056
0.945525960087
-0.518833306711
-0.514027612465
0.0237929421598
0.461861144097
0.154472703723
-0.980477995551
-0.938418272236
0.658882147227
-0.888144797203
-0.072061733267
-0.821860970162
-0.41522128809
-0.300187759726
-0.622007406077
0.834444914772
-0.640468187062
-0.658521097131
-0.94646119132
-0.820058645665
0.817770752074
-0.0721089056277
-0.60099871577
-0.0476846553398
0.722198888371
-0.0286988043592
-0.366589360562
-0.595423026605
-0.550799705974
-0.430383339067
0.701726799612
-0.391635124943
-0.706915903147
0.12458582385
0.757817681275
0.353992064144
0.792438369647
-0.66789862582
-0.0786607999211
-0.460119284939
-0.293357159704
-0.684904435489
-0.459768329356
0.0333648376363
0.0320488551523
-0.205494374299
0.942080276516
-0.35534050768
0.608180229546
-0.729335585148
-0.464465451348
-0.808645018964
0.932138468153
0.0973649608577
0.436081886864
-0.82237593049
0.395197017101
0.60328576723
0.186654385946
-0.718645962406
-0.748728571661
-0.609897685443
-0.371905214346
0.727312454463
-0.94653070719
0.961852232127

-0.00571163224243
-0.66903676738
-0.932176358658
0.41999152348
-0.775146213746
0.247109364441
0.785355573706
0.296019247221
0.113507292891
0.513540897053
0.612600642601
0.221121543854
-0.561394123932
0.139671670157
-0.526839928351
-0.142095829051
0.352277728823
0.231330084866
0.889297274395
0.116942824171
-0.395383707377
-0.943774503228
0.708824415721
-0.280907356489
0.673446368229
-0.345939899924
-0.571848602837
0.34966482165
-0.702370528315
0.371059543152
-0.373391549446
0.794775030053
-0.586201667195
0.226908336998
-0.316057206925
0.938269237923
0.812901036466
-0.572097458475
0.389600461663
0.275146426632
-0.937922782267
0.133367514067
0.232388507166
-0.760850840972
-0.394408912507
0.787642373531
0.512832471608
-0.86586973404
0.463825314107
-0.860727862275
0.891105834874
-0.201643361415
-0.329554687757
-0.371895834473
0.784835165124
-0.621262393453
0.620025167052
0.861049001428
-0.264369563612
-0.375594002975
0.974646340547
-0.278719319328
0.141988490798
0.0191128947271
0.307865177489
0.00156481659186
-0.608467047532
-0.0827021359118
-0.719962196711
0.997678749413
0.632831205137
-0.703175048559
0.152113131128
0.337266608716
-0.314715190353
0.764869838534
-0.723557960695
-0.124551128872
-0.0260498801743
0.597534176745

-0.0043398696584
0.276183653166
-0.985379772789
-0.802308332525
0.938413647504
-0.0127424329508
-0.991638574665
0.682315567728
0.174716275194
-0.370703996588
-0.682746507138
-0.114211495429
0.269575219835
0.12785912258
0.0422547788259
0.264400151194
-0.86137926612
0.605378984964
0.208569234453
0.301203318861
0.367517899827
0.558122758831
0.526315811385
0.204309264714
0.0234897404158
0.499601792397
-0.156498618771
0.335085489943
-0.558551256838
-0.168659885302
-0.290674723862
-0.0619021434641
0.801638220853
0.474214813975
-0.94155986438
0.623040431784
-0.0402072926056
0.879432988003
-0.397493940039
0.381122332168
-0.506987978233
0.738397421216
-0.618943938009
-0.747743610093
0.0112863513532
0.197364157638
-0.587079342974
0.357846438955
-0.18808495685
-0.938290844125
-0.0676311778145
-0.526763094146
-0.749293987759
-0.205973656918
0.960205806598
0.710626795586
-0.590775440722
-0.324342828302
0.451185266774
-0.965858698967
0.669784797672
-0.245780925141
0.290800154898
-0.0593571413566
0.481961629891
-0.467426888986
0.424547083854
0.151446062021
0.049990635409
-0.90004012716
0.0802874864888
-0.41842751887
0.748259787774
0.335245483042
0.092292676726
-0.582353056454
0.159699268343
0.0107254031734
0.693030303553
0.224088340891

-0.700236093746
-0.800445352457
-0.618468675079
-0.837723786484
0.151911185657
-0.216154878626
0.884929032491
-0.269172539106
0.0534208062747
-0.242756922428
0.263880808693
0.766700377058
0.295419833646
-0.809760981816
-0.797663393504
-0.440024427693
0.912307560574
-0.529225089677
0.79360739796
-0.758673916642
0.679017108451
0.927653536156
0.210374080075
-0.966288932102
-0.626785081518
0.829894361168
-0.0713938464855
0.323603775922
-0.539390433143
-0.895925493556
0.331388807852
-0.938688220715
-0.468906904516
0.389681007342
-0.779369888021
-0.110456361592
0.977517370074
-0.682203268986
-0.422819017711
-0.816274408997
-0.722880937549
-0.431961252068
-0.760203837219
-0.987906451283
-0.649392377112
0.0977991156863
0.757882712854
-0.902804284567
-0.316514386294
0.493669047814
-0.991572769398
0.592138331239
0.170370994181
0.0221956810754
0.570201929232
-0.951278388608
-0.607813177041
0.993583015454
-0.910153777786
-0.304152265954
-0.516941949074
0.698566748276
-0.307329425951
0.291948396939
-0.170180695438
-0.638745614349
-0.523691891927
-0.938931723862
0.236007104846
0.858714843109
0.376395972965
0.632884291871
0.515893991961
-0.615259603087
0.78182638473
-0.411573046031
-0.118558849519
0.804771501919
0.637601266493
-0.648099899738

-0.38354645549
0.690464744094
0.145336261763
-0.229647802203
0.956091647921
-0.427747717751
0.594139101071
0.861814908564
-0.346198287511
-0.45354194808
-0.756036334875
0.196294236979
0.212955831408
-0.80101230091
-0.151467706889
-0.68317438298
-0.301949500447
0.344784014723
0.62129139425
0.849946343317
-0.727886915372
-0.331095427588
-0.589238667225
0.592451251861
0.1923177319
0.995461290538
0.374154339358
-0.416690435178
0.651350003407
0.2278476307
0.404744225099
-0.761724080139
-0.792870439031
-0.139493456549
0.987611561928
0.55022267808
-0.598561646678
0.44612810714
-0.604070282428
0.599747395464
0.46895677858
-0.0571568252357
-0.494012289617
0.526456399421
0.892069193936
0.321437568965
0.895936887663
0.519439778747
0.524122200992
0.111244696955
-0.242617420051
0.586716924854
-0.378055395027
0.567201035029
-0.737060508869
0.364940931117
-0.893476385024
0.324042474478
0.933093096886
0.970106448509
0.521093422453
-0.294677685476
-0.812204736157
0.725029716264
0.710513345675
-0.144702189957
-0.931948807893
-0.977130228526
-0.229705786787
-0.0805439087919
-0.635711994751
0.0726527921266
0.951418326813
-0.0224678071042
-0.766523268097
0.481241000121
0.810357718003
0.74743204861
-0.322654263873
-0.853375434924

0.46940116289
0.670162494875
0.875364747352
0.798373480236
-0.296429248065
0.456309439219
0.00604317491399
0.905150772628
-0.153972589386
-0.466091893563
-0.183842253121
-0.822124212288
-0.132609847099
-0.583166806255
-0.77652317389
0.052995068588
0.980010730684
0.413388768052
-0.114661057455
-0.164851914475
0.568619999525
0.245726586547
-0.762583569353
0.0429826497899
-0.89907250991
0.174752384936
-0.668117759065
-0.557953083217
0.217318250046
0.0930212040906
-0.23170659773
-0.348953010496
-0.303123413558
-0.926313433935
0.684134540191
-0.655807068131
0.789775962835
-0.703090859107
0.556854456473
-0.929152031224
0.0113309412292
0.678164596308
0.355294776994
0.19525207056
0.347288919513
-0.684117587454
0.377544609539
-0.469342651797
0.933124227692
-0.834043362737
-0.792970541656
0.749220728651
-0.347729929346
0.535140059509
0.34884184069
0.219037041085
-0.194438766747
-0.608575559363
0.148319907144
-0.345632526255
0.0287949384837
-0.0530102645828
-0.973929385141
0.372605071119
-0.328908006799
0.828558051803
-0.158352282189
0.0205285850698
-0.263834682857
0.396679983274
-0.508562255361
-0.746770160187
-0.403882042174
0.902685047095
0.0235961965978
0.466112898047
0.808368788135
-0.784109070422
0.703331114317
-0.277079568876

0.530961013022
-0.451354274368
-0.18689107486
0.317245428652
-0.485855763209
0.643460160146
0.180368453138
-0.639288620162
0.0572083947724
-0.990984375899
0.748506657756
0.845013492537
-0.430031424473
0.58306279905
0.86362532051
-0.255351364772
0.782274759727
-0.703891605339
-0.442219962525
0.122227594166
-0.310569045427
-0.541267626601
-0.539052088844
-0.677005435911
0.982933055409
0.664712807379
-0.423869472367
0.950876427393
0.677149024544
0.928041932264
0.408521296171
0.600061399959
-0.854865502252
0.270727095575
-0.223358687716
-0.258883147488
0.178172168902
-0.748773560077
0.943873941072
0.339728473592
-0.248350354292
-0.64558388259
0.455012916043
-0.161228760997
0.939304075527
-0.443606039284
0.423347841148
0.137355925234
0.92228004653
-0.302233358755
0.956122477278
-0.580170255479
-0.461147505081
-0.199024774651
-0.506888299108
0.464521171395
0.527022660394
0.725283773956
-0.661998281976
0.883534445999
0.738528071606
0.53186476556
-0.692306049547
-0.444696760801
-0.687834750498
0.376650209581
0.473617612938
-0.863909777905
-0.0397097988677
0.860381167159
0.158507399464
-0.403219394541
0.746809068804
0.38538867408
-0.0969479642504
-0.464727902973
0.988098085803
0.764657002624
-0.883369272307
0.340127300748

-0.2892535681
0.271526909438
-0.805669008747
-0.184853446435
0.41588750831
-0.543786648527
0.51104046429
0.230021880629
-0.350008042084
0.582110070095
0.0929706240165
0.376234876102
-0.71822079607
-0.338235388906
0.424628747526
-0.987077061999
0.183638111743
0.40160862118
0.913583220687
0.257345755046
0.309779645076
0.621479939567
-0.929317158962
0.153533149942
0.784180614187
0.152834902099
-0.38746217921
-0.945779082318
-0.794008466295
0.0134826194898
0.957729674961
-0.709188110168
0.125729976795
0.457344345089
-0.787283839964
0.276253133672
0.30845302353
0.0475344846774
-0.0792425592117
-0.404822989081
-0.800796113576
-0.932735974788
0.859113542375
-0.512708663849
-0.798436454434
-0.344275036445
-0.231484702995
-0.409016946556
0.101204184032
0.635978472719
-0.39749183116
0.3402743918
0.576614580032
-0.183394649209
-0.778034065481
-0.600176121593
0.743851499884
-0.11992326221
0.795905005588
-0.165603823927
-0.375859769687
-0.852125641359
-0.284049612164
-0.446876702314
-0.519579800148
-0.602585046727
-0.716113733676
0.65830774566
-0.307927520585
-0.391852137056
-0.179641956098
0.062327831904
-0.240560578744
0.223900272681
-0.275561075556
-0.0859199948385
-0.686383739046
-0.629685314793
0.969738264744
-0.77253746448

0.659090073062
-0.0300149768112
-0.365813125587
-0.12200203731
0.598618869099
-0.704587992374
-0.887376464756
0.494977839137
-0.782629633343
0.158943430285
-0.891897246562
0.342706483109
-0.922966219826
-0.318663603784
-0.621139279519
-0.941178963328
0.0191279665014
0.0570037175152
-0.223495338624
-0.865409456797
0.0913304918583
0.163755632644
-0.0849401984968
-0.282976483265
-0.444676806129
-0.106759519092
-0.376035288298
-0.0253399449587
-0.710676643007
0.0940378528273
0.491769972786
0.252912678283
0.524582208538
0.574861404028
0.373517480951
0.179055086646
-0.0448793646163
0.18578680957
-0.86405730985
-0.918904775702
0.119559780569
-0.365526145367
-0.231099736857
0.370974695367
-0.945619702151
-0.19531323328
-0.291813482936
0.302208051086
-0.928050333238
0.852484003446
-0.606409116438
-0.589892014043
-0.573561657008
0.500887248677
0.990752647762
0.534637482312
0.693503905408
-0.996860953183
-0.860367827094
0.696752498512
0.818964551298
-0.604986370432
-0.875135929826
-0.395900412989
-0.239918707776
-0.363604925458
0.938022053719
-0.853019778808
-0.0872179768478
-0.239430180461
-0.436403934479
-0.140022913076
-0.83807481117
0.642507266411
0.977554793946
0.509942028054
-0.0374366960598
0.522840142298
0.825115050032
0.422371277535

0.0449167065312
-0.315118915041
0.315413937312
0.737137041427
-0.692307165486
-0.532678100137
0.404859149581
-0.873907965267
-0.186577669958
-0.942117367117
0.125637807467
-0.596035382439
-0.650517215535
-0.274847999137
0.0532622519724
0.615290228468
0.581025937285
-0.627270596789
-0.0558555427903
0.671951109786
-0.0716253872325
-0.0647435667043
0.8826346758
0.25394511512
-0.0443987334842
0.933783546012
-0.0875893480567
0.572744097055
-0.637365890936
0.59732428741
0.0922910475485
0.0722800098522
0.774131342667
-0.90738572982
-0.637201826159
-0.284296181778
0.435933684161
-0.579037351561
0.297968913129
-0.367524821454
0.0369506662413
-0.29523351151
-0.575859239157
0.339437157867
-0.815032834829
0.336066398068
0.215910183819
0.774897975843
-0.63268689836
-0.911707095767
-0.452036480507
0.64568307032
-0.357129941846
0.330074722598
0.152993272211
-0.42336836811
-0.103508574359
-0.148450019798
0.700026356822
0.370191858518
-0.570238476026
0.119072356535
0.288452477873
-0.340127092887
0.958051560532
-0.212085828271
-0.350066569178
0.896033915419
-0.547529516872
0.227265163824
0.172296335454
0.472818062258
-0.253798829059
0.8017552997
0.835065608673
0.658289764678
0.369587893793
0.15676241988
-0.800461920314
0.745193248579

0.890589462687
-0.901174557932
-0.719107139293
0.646342252388
0.378112874019
0.562798565574
0.754625572351
-0.252216414607
0.0825301434908
-0.17101705068
0.264388500485
0.711289575971
0.351242648376
-0.37651123229
-0.967635926226
0.706431837121
-0.106997169082
0.89089334945
-0.112559955043
-0.0934274189371
-0.77085218589
0.96441796525
0.48980557442
0.0127256579119
-0.250533998046
-0.768619008601
-0.490814914889
-0.166176755244
0.379318131515
-0.724986817688
0.590249128278
-0.794976921649
-0.158604348471
-0.36800925874
-0.419018967526
0.812264627365
0.0418175124449
-0.202434203727
-0.219090636097
-0.0255613009603
-0.162659602563
-0.841365695337
0.757978141819
0.304714582041
0.978787958797
0.470886510018
0.0719572212125
-0.732109925652
-0.775800391293
0.749641904293
-0.0933127643455
0.122722615966
0.232767528914
-0.81449006428
0.0750074793781
-0.955658412899
0.465191914592
-0.315723102983
0.670923647405
-0.851666139776
0.192795054115
-0.706689103784
0.674013311418
0.711688974728
0.510277151306
0.194310698923
-0.0760979373681
-0.435482031411
0.12489607056
-0.854947204397
0.277744892066
0.340469846565
-0.583579928438
-0.482120799229
0.518376776208
0.899059347017
-0.997129524212
-0.568876837002
0.117043765895
-0.912769213052

0.205946635653
0.910593205051
-0.674925478278
0.645356378746
0.108425817321
-0.799005797652
-0.64841611215
0.143497324791
0.634874658206
0.157935408385
-0.693172964788
-0.166235183622
0.908868644839
0.733584524956
0.453476803182
0.665490924116
0.152569837287
-0.450154978918
-0.95603413042
-0.634338804024
-0.470784777235
0.377898024441
-0.232096103099
0.166494285975
-0.141802153047
0.68192672626
-0.493339329896
0.745668641729
-0.522258962165
0.0996237794161
-0.91055092113
-0.100761616833
-0.0186688254712
-0.383422449599
-0.508134483665
0.00419262546944
-0.357937247522
-0.782243441534
0.743245348781
-0.101279328701
0.566906922871
0.0750113802417
-0.234298264682
0.25026948981
-0.529651371124
-0.329560531812
-0.654687757384
0.963909339704
0.556452357503
0.295787575157
-0.686991273191
-0.826689759094
-0.0597693469759
0.0457680691743
-0.20134338929
-0.0594968324646
0.122937291376
0.942184255209
-0.510151958353
0.394852363896
-0.86790694492
0.713093324426
-0.199304686854
0.815117127081
-0.439121464108
-0.488855149209
0.399739587636
-0.712656775629
-0.923109325373
0.705574083536
0.629521819141
0.790494415897
-0.264803659101
0.819381234303
-0.766933443199
0.0303374571778
-0.643792204365
0.620936388628
-0.710900575327
0.00489082945175

0.164597954233
-0.761323210308
0.41627869661
-0.0601492879558
0.816300368266
-0.960334276224
-0.77171956233
-0.565785553818
-0.362283781627
-0.99983125036
0.382085213951
0.129311573159
0.965621281622
-0.834453105828
-0.981776382464
0.474913801139
0.160805354782
-0.0428145177129
-0.940447133395
0.0521670537493
0.414712688545
0.0448142534497
-0.393703789676
0.918773401657
0.060269953181
-0.275653428054
0.626820253904
0.477130352818
0.443589886319
-0.019250049154
-0.58371640202
-0.0806705184889
0.077435459995
0.670360339963
0.615989210553
-0.15406362784
-0.748286517481
0.294673852911
-0.182492539736
0.854289526532
0.791721583246
-0.88618376901
0.619765367638
-0.943086620912
-0.492979394093
-0.26662628406
-0.512217550988
0.36011534874
0.0841556090123
0.433691096859
0.233567231467
0.220464882782
-0.519617359805
0.585787138037
0.911006878495
-0.624876713416
0.21422554767
0.708761957203
-0.917313669152
-0.855438468712
-0.59401874472
-0.145046892758
-0.0701735365485
-0.89587314587
-0.475653667457
0.172086944344
-0.950811853021
0.121441851823
0.600256842883
-0.808494062709
-0.221366294632
0.271383300026
0.28311250426
0.832594478699
0.158639170683
-0.0034447749786
-0.436373893548
-0.24063285703
-0.0273401602897
0.00192218363889

-0.998625275321
0.89228257419
0.32690646533
-0.594390445304
0.434668121656
0.0484300554989
0.304829575868
0.0258443442189
0.797951377132
0.31578826369
0.424342173687
0.0754763549024
0.139015784402
0.985643991024
0.619735213784
0.321066638353
-0.735389331881
-0.295589949469
-0.352010074129
0.391531795517
-0.484861132735
-0.094594425245
-0.381469636876
-0.688639122273
-0.762468659816
0.00827413916699
0.0914167397114
0.0304324841286
0.537085327372
-0.459202488718
-0.824922883526
0.594699583314
-0.265518444206
-0.61584668559
0.98018738349
-0.229181731384
-0.420921364993
0.953219300637
0.250987620797
-0.538106191729
0.330860788148
0.272805241381
0.762971505351
-0.0556444673161
0.722219222667
0.642825519642
-0.0343947782727
-0.0233942371976
-0.00937255693142
0.491541273058
0.0652663949612
0.229697419288
0.68528674851
-0.332260422406
-0.0354027792223
0.893811580744
-0.0176278053281
-0.492002828578
0.925581308069
0.220019572987
-0.949926818178
-0.982720969723
0.109428956515
-0.592987663678
0.464370071718
0.725972281288
-0.414184688698
0.648445046803
-0.199958653326
-0.819225983167
-0.113279320883
0.300639196272
-0.5917588716
-0.896042342048
0.415339673685
0.741773134229
-0.749328904898
0.917913835836
-0.862070917302
-0.609237373819

0.0303415162039
-0.765335466589
-0.12085204363
0.516767018671
0.983536594839
0.571709244406
-0.850256677276
-0.983093537561
0.0494535697574
0.547108651021
-0.259382128699
-0.947834519056
-0.403147710167
-0.45384866264
-0.426206500811
0.564815233994
0.675854087306
0.0154732013281
0.24714302946
-0.0295328560999
-0.516918398925
0.362318906837
-0.789747602454
0.314658937448
-0.696540067978
0.5225536674
0.661873893474
0.0687560046528
-0.5381649333
-0.738332747575
0.922216466262
-0.705432433954
-0.787949824186
0.240280841993
-0.383937331778
0.731553445174
0.00901862807348
-0.389321737608
-0.507396843137
-0.270990466577
-0.813809050432
-0.460728476709
0.359137364328
-0.915129038353
0.156729583888
-0.34325784131
-0.322998394004
-0.0310978956832
-0.280753108992
-0.509863845579
0.949969950712
0.806353497145
-0.817555483517
0.206698378076
0.439265164959
-0.221524990556
-0.582406777265
0.158225664573
-0.474243710777
0.235707617264
-0.411216456152
-0.281573760001
0.979694206435
0.683020551424
0.508630261657
-0.257299981436
0.405003634196
0.113272368579
-0.805751768723
-0.202079545848
-0.416579751602
0.0431351780606
0.915538488718
-0.0845250211165
-0.184875385953
-0.742373324664
-0.00631882985
0.366674684268
0.367082427499
0.683018570104

-0.724545897199
0.143723632672
-0.899520966346
-0.532477520464
0.321376343874
-0.926414632114
0.281413391248
-0.891061143354
-0.758482684545
0.194253062208
0.443762546544
0.929353896346
-0.246955606156
-0.85420423972
-0.862527610938
-0.24737200597
0.906456017222
-0.765708009058
0.361418796122
0.906402356152
-0.533399565679
-0.422817822566
-0.424444570349
0.0744844057851
-0.0674246295415
0.621864016344
0.288618993966
-0.565509407218
-0.446259174993
0.441546183923
0.022639146576
-0.181949918795
0.670285434383
-0.469962793381
0.937767348924
-0.845077445316
-0.655076711828
-0.101990180502
-0.741306701804
0.352276675507
0.880561857939
-0.366907396684
-0.00965873593943
0.955470422132
0.70987854976
0.171176840267
-0.499021660445
0.860939963947
-0.892995429509
-0.569823146756
-0.772535496333
0.0346843148806
0.250076970889
0.772121507507
-0.918563405605
-0.670798782546
-0.356538133476
0.608016912731
-0.564149060995
0.700826674778
0.688649048056
0.216980644729
-0.383328816781
0.979662664986
-0.860108112239
0.0622835370846
0.0606073435408
0.135857398793
0.149849504782
0.313110794412
0.256656907944
-0.960739182273
-0.0532594656814
0.926009231927
0.339056715961
0.757225927156
0.716267532883
-0.486896917566
-0.820686090324
-0.898565453723

0.481627619986
0.424708497708
0.718619627192
0.0873490942567
0.304512801932
-0.40343662381
0.293501643963
0.0987125066564
-0.452449164506
0.659879056765
-0.165091638566
0.891881556431
-0.966422208107
-0.740655707573
-0.587896390699
0.963280127309
-0.434308500225
0.246256176711
-0.503954316927
-0.90265764704
-0.607360326493
-0.973455331106
-0.713579094437
-0.0777587598283
0.644128032957
0.881648349829
0.103878070907
-0.605234313395
0.383634238264
0.860030922696
0.260953008932
-0.585849082266
0.737505936415
-0.658106045115
0.967394107998
-0.641882409812
0.247363600227
0.693568343134
0.415694940503
-0.0957718022763
-0.312625948084
-0.702142743845
-0.308821914352
-0.0468545385505
-0.500513126034
0.506410955232
0.562449245796
-0.0625835532623
0.589852584862
-0.471225204211
0.686441285795
-0.785153247154
0.906410084086
0.640806470726
0.882456114624
-0.768733726911
0.786308622276
0.153313338867
0.399360077192
0.738643617879
0.518236139239
-0.0863738335932
0.279804755136
0.46585550542
-0.00355332053821
-0.393168155651
-0.541474564091
0.853520634622
0.981029140016
-0.944786365207
0.458591238873
0.341608779146
0.460120341743
0.289544920515
0.551720273504
-0.235900915058
-0.852464224931
0.47967370276
-0.678728844862
-0.0851319240718

0.225731282149
0.00929481783974
-0.207217552383
0.328363849889
0.412201775063
0.776594932931
-0.761450305472
0.747550658386
-0.962667082863
-0.364803056856
0.453273439702
0.776765193073
0.497917696045
-0.380656571754
-0.161672321733
-0.270468579042
-0.152177346506
-0.0752302013776
-0.218116811741
0.0877288276017
-0.85911177488
0.636526357979
0.270109104888
0.98707495482
0.70427411779
0.389098896209
-0.368573370186
0.116390878186
0.813495842993
-0.762917938903
-0.98955138534
0.453345539796
0.540629454157
0.290409421043
0.285673076187
0.385858692202
0.541764631441
0.610849452474
0.953296551402
0.408321614749
-0.316669643651
0.136850147276
0.525901033355
-0.181834318733
0.594254706632
0.342057296445
0.372538955374
0.460194314041
-0.528917637225
-0.369613843195
0.46131822077
0.995689071835
0.840642600583
0.736786979351
0.860432106795
0.0549739809488
-0.152184783554
-0.458646916646
0.128190102531
0.692092015097
0.677009993045
-0.152823268915
0.766556956371
-0.412824293485
0.835082960632
0.667636223192
0.538181419662
-0.387508406796
0.69032728705
-0.564804003135
0.675093455654
0.293574349921
-0.853372610234
0.274309668322
0.641996305667
0.056140835515
0.0178172833431
-0.757715854663
0.69536628233
0.212327940667

-0.223638916698
0.0267222169315
0.195251928218
-0.852467161502
-0.250723030032
0.575912756615
-0.188462012362
-0.560777043528
0.950205338805
0.563791893722
0.729989265357
-0.468445936928
-0.50170917937
-0.197438157103
-0.46599902168
0.93056163251
0.0593049462678
-0.723548364246
0.623501962559
-0.222243490672
-0.446114457624
-0.841765564158
0.156666984792
-0.868048609177
-0.775376212687
-0.296279733042
0.981524911484
0.908687907594
0.949241920225
0.798632385909
0.537179596608
-0.521717450291
0.236284870654
-0.66687575549
0.0335861349567
0.984921739688
0.646005622952
-0.229251700375
-0.829558035011
-0.239648434812
0.833448635249
0.399073154217
0.751474164748
0.130560420563
0.492298404322
-0.469544372084
-0.936846212657
-0.503708660824
0.446319960082
0.190297528286
0.467278235881
0.966628211089
-0.35395536121
-0.0545947021356
0.418507216839
-0.612443725339
-0.587414768983
0.917965868318
0.176652707502
-0.441883240512
-0.180548520936
0.609831800557
-0.0263838262873
0.701565591346
0.904041846451
0.228315167449
0.296124102224
0.259666599326
0.98635887315
0.790820219589
0.486665258823
-0.0252058570765
0.288139709517
-0.485983786842
-0.47218930287
-0.946036457987
0.00566036792177
0.0996804265995
-0.520814218311
-0.360946331162

0.507777342194
-0.498497617364
0.991795980273
0.184560905619
0.152761856997
-0.713919577853
-0.165074026521
0.397338249911
0.996916701544
0.327126512262
0.12804395027
0.981343173751
-0.151095851896
0.190863975279
-0.510531234475
0.296375957854
0.565121788843
-0.232862116091
-0.00509787385218
-0.368517170973
0.993480627991
0.0529094062962
-0.402015484893
-0.52712460368
-0.345791512426
0.6779887319
0.694302261458
-0.13306957159
0.915183422554
0.140583282211
-0.476115527292
0.425335042244
-0.972244292056
-0.554158625201
0.647993333197
0.957588757433
-0.308628487979
0.540422381543
0.355032192073
-0.66517473061
-0.716017291154
-0.245941803386
0.500716808016
0.87269086083
-0.385693442886
0.902577542498
-0.739241422043
-0.270329562787
0.360629123172
0.712547540711
0.0767912982175
-0.614366963254
-0.481545007222
0.489200269399
-0.891757292433
-0.72264056072
0.553841932619
-0.111208982942
-0.916154486837
-0.116042079919
0.430877441453
-0.807985037889
-0.0453206172318
0.390889055818
-0.688821366797
-0.706524274923
-0.647495072093
-0.0335509588943
0.688739998987
0.2172707553
-0.957795332055
0.583770266252
0.660250289305
-0.533482484251
0.328266380818
0.714156421037
0.150409840254
0.578194155141
-0.577536609291
0.401658084184

0.834931267127
0.224875047706
-0.523170425396
0.936586886529
0.764509240522
-0.746285562305
0.59682115192
0.0509864834817
-0.865589491263
0.0883128753774
-0.771294442422
-0.49112861584
-0.700468857168
0.108004060898
-0.165126174674
0.639378771221
0.950050601883
0.246191433467
0.545923589909
0.344562522854
0.390458725047
-0.849570938613
-0.10775134752
-0.444070033644
0.657650032915
-0.891566706871
0.16742192171
0.861615740666
0.2865536918
0.328789385362
-0.29866218397
0.623791303687
-0.974388349636
-0.184234187024
0.756636758473
-0.62159289096
0.0493181118097
-0.0986179412373
0.572616189854
0.554102796594
-0.0485363767758
0.222876317764
-0.116709171131
0.386043069087
-0.309440086026
-0.199568948679
-0.388974835154
-0.50618426975
-0.276499344291
-0.312369902663
-0.707320994181
-0.297538014794
-0.800469671498
0.399375485985
-0.148547089096
0.489424234241
-0.535368699019
-0.1093254613
0.474230157546
-0.887020937244
-0.220510182138
-0.68342453526
0.620108585812
-0.222344432183
0.253014161653
0.855125455787
0.466685995588
-0.729221962434
-0.0460514486504
-0.953383682295
0.972543161075
-0.636868913925
0.549384832412
-0.104878493916
0.345339828005
0.0626767351173
0.139988467954
-0.0315783084072
0.0193001734607
-0.105437098417

-0.790708361217
0.60276050269
-0.929855394927
-0.604570437205
-0.0910695817203
-0.0950073281261
-0.0585888864611
0.0147871038496
-0.027744680882
0.319963065158
0.747838183887
0.914743395883
0.185891673254
0.644401320241
-0.34557957252
0.865479217139
-0.225187598143
-0.574485634712
-0.733405903395
0.00802887867711
0.647764394833
0.715318843039
-0.509351053412
0.494002029043
0.735773832585
-0.382064322011
0.816060267956
-0.836929479742
-0.596926879261
-0.103092624631
-0.594535621991
0.0392620090755
0.905857774015
0.387770868086
-0.436100501412
-0.755420283029
-0.837722164333
0.631346359833
-0.615637492962
0.759266770361
-0.46897614338
0.0965782409287
0.6355334154
0.668987010615
-0.591276643513
-0.912899321775
-0.0385062469198
-0.467290021704
0.144372067187
-0.451170440753
0.665944029571
-0.743997187423
-0.41225680048
0.145469391855
0.737823948757
0.980392487946
-0.704212137412
0.331900363667
0.814857009176
0.983474530932
-0.435474847945
-0.0728863283166
-0.403908305414
0.542798903772
-0.715951137245
-0.979803919437
0.839667253934
0.0806731281454
-0.0901937574982
-0.193278586847
-0.574386851335
-0.677924137111
-0.54767019997
0.975365200374
-0.952300625168
0.770791210667
0.00796686319992
0.46644253844
-0.830645144283
-0.502459300395

0.165974574378
0.925606447116
-0.100652498276
-0.691630982062
0.821289053415
0.871639383684
-0.725385786404
0.0453168011996
-0.714482534703
0.82622955461
-0.981480640819
0.801938654458
-0.338242182529
0.473029718507
0.942862448503
-0.944022838708
0.542733407888
-0.326784520614
-0.996501883345
-0.407401500614
-0.617876593975
-0.469508257859
0.805994630201
-0.64587935563
-0.00517693297072
-0.532841013746
-0.585517125055
0.131823650688
0.415194509368
0.557444054423
-0.173405784701
0.582120430636
0.940813963813
-0.990694805164
-0.216530054911
-0.503436440376
0.549013607756
-0.458496061787
-0.327950319731
-0.529494151411
-0.302060141365
-0.194906048001
0.467607699631
0.647842787158
-0.336749035088
0.637357424848
0.179859890333
-0.646561104389
-0.138775914956
-0.145480038745
-0.268876455866
-0.0358593753622
0.799918122734
0.156620649891
0.00820619487078
-0.448821467104
0.750221252654
-0.950302168376
0.939920207219
-0.0536234641418
-0.615340272239
0.240108296335
0.373249263001
-0.795696412628
0.88723659126
0.639531806365
-0.428334963976
-0.335324474446
-0.468078471116
0.904448552011
0.485936512064
0.803320389238
0.883636823421
0.761054246531
0.991260772969
0.872881972295
-0.777262864657
0.22399079771
-0.810121061139
0.785584453687

-0.696823475195
0.898159136679
0.397600852796
-0.798359310034
0.0093297458357
-0.755125612584
0.580771702599
-0.787268334599
0.462438702705
-0.320884971878
-0.636505752168
-0.517681002804
-0.497899119916
-0.522686516233
-0.0608390951148
-0.170170607974
0.673950491726
-0.246587775284
0.783258998959
-0.557596260906
0.074983162358
0.175852027998
-0.261348405349
-0.143617466663
0.253389396128
0.335449691758
-0.494444062665
0.0860511214982
0.782162385928
-0.926073445823
0.935382234554
-0.64825282292
-0.547301150817
-0.0558486241093
-0.24383549128
0.941793531453
-0.617905230874
0.162822154036
0.775547411586
-0.114521689954
-0.894146972609
0.727817991571
0.662867944974
0.611209763365
-0.774580375565
0.227174665884
-0.702424198361
0.135966915696
0.209399064202
-0.636928341097
-0.716619440712
0.709711034613
0.228846350344
0.149063115586
-0.921346006234
-0.989386061095
-0.170142985133
0.868379903294
0.414642671346
-0.499252939533
0.79478240717
0.786467099778
-0.297392281215
0.459305163991
-0.999373446341
-0.178691491727
-0.820120845296
-0.798871725394
0.715266645899
0.769371993943
0.146987704746
0.863601367297
0.46335693721
0.0548343254195
0.222002461325
0.0991263007972
-0.486466523647
-0.719782667903
-0.170904455014
-0.443959539708

-0.388311025055
0.476917341618
-0.578557511734
-0.359425618877
-0.408983029266
-0.0235710433388
-0.000572966644088
-0.567193010064
-0.845594557067
0.3432480771
-0.598948705981
-0.38492408655
-0.58716204597
-0.024223609648
-0.532406436684
0.210980418774
0.565532939292
0.350654975722
-0.169819831995
-0.651324719996
0.273659693432
-0.842381558079
0.87641755891
-0.733979224754
-0.773336418611
0.47405412237
-0.0464878271098
0.637778444355
-0.580761372111
0.188650085348
-0.957041720374
0.0339186985423
-0.355951673392
-0.497034653394
0.614759730672
0.647548115411
-0.62371189936
-0.851263355296
-0.294007837751
0.889226475463
0.217966184611
-0.655907198747
-0.664411596468
0.497190705231
-0.375871460101
-0.192260769089
-0.743094693438
-0.975153437488
0.610074042596
-0.359228286659
0.0579490758082
0.164413692589
0.288747399698
-0.535138298013
-0.640162453168
0.781515517513
0.800579786191
0.903050172967
0.794780036148
0.372401754918
0.936414933823
0.404768696019
-0.590175413196
-0.633243891777
-0.501323278737
0.821636899805
-0.623677437086
0.259871959665
-0.365076936945
-0.578241212829
0.475051797305
-0.412474123733
0.434643196625
-0.247554547399
0.361441750121
-0.91772724185
0.830324008199
-0.048024025472
-0.941976728788
0.597200599812

0.43672457764
-0.0442690194363
-0.106102922972
0.268431616137
0.554870537564
-0.148914463176
-0.0833562207848
-0.870871110497
0.471111607553
-0.796895647903
-0.612824964501
0.106774322894
0.545654355364
-0.375442324833
0.594445150773
0.754007873178
-0.4272311613
0.476540357994
0.830958655089
-0.348111655139
0.505519006641
0.928526261308
0.776722215634
0.290069719479
-0.367199352787
0.597220965245
-0.411714808111
0.888146594252
-0.24221100993
0.154802440859
0.715993539341
0.176288096298
0.344181874194
-0.685378221111
-0.960119696407
0.784893648761
-0.747516454847
0.593838074887
-0.606530423604
-0.265445988906
0.63202393881
-0.139054075206
-0.831556756505
0.431056624831
-0.00614398529888
0.306090194237
0.793902322881
-0.936540626126
0.809006505397
0.536702531047
0.216008372115
-0.603959373448
-0.342509962024
-0.925535802574
-0.874741685052
0.552513931733
-0.999178703944
0.68995103661
-0.00567963039864
0.212331835776
0.567129760202
0.905816354882
-0.84560378149
-0.784300717846
-0.64242683505
0.732834921033
-0.967361661532
-0.732974303039
-0.688556381242
0.586137174032
0.0354841674283
0.62365717121
-0.521580405331
0.994664309708
0.721208460359
-0.0377974581113
-0.90607060088
-0.682412596413
0.77030758065
0.314131833427

0.959199790367
-0.0596450032249
0.498338757491
-0.76309193359
-0.615188275337
-0.441197880116
0.415005346899
0.37355327851
-0.378021098748
0.851147312015
-0.0834880266943
0.453557251139
0.0251834633752
0.187413435707
-0.489889034791
-0.190666487755
-0.801672568417
-0.676520283205
0.310617039374
0.870769798045
-0.307372484653
-0.440095219282
-0.75203418595
-0.163063390867
-0.804991415459
-0.0496596360484
0.561444643505
0.377176267792
0.108865497427
-0.916904068313
0.298533214528
0.561132840052
0.614828826522
0.636099202246
-0.0426643450633
0.877867351827
0.115542611563
-0.932207292919
0.726015243677
0.11412447591
-0.220420336179
-0.909304224071
-0.080556326316
-0.643127569415
-0.0773380626263
-0.820007425702
0.423757969764
-0.456842815118
0.126112983982
-0.577062476108
0.12195518761
0.100155443744
-0.738950844831
-0.845211956479
-0.906180519264
-0.239994883601
0.0601430404428
-0.165899331676
0.968258939346
-0.988642891081
-0.396523116255
0.213645054952
-0.555138253013
-0.121518314012
-0.56217195518
-0.368474923936
0.683932758415
-0.644275464955
-0.742748850462
-0.238924139719
-0.355233090652
0.285466797904
0.902905842844
-0.671706032897
0.842825405032
0.442451746426
-0.625567636604
-0.702824795627
-0.731577358567
-0.155200011827

-0.603391931251
-0.00390028592724
0.175391497468
-0.145557412273
-0.695448826317
-0.377914505353
-0.0607919852617
0.212769361
-0.0167821564811
-0.165094666711
0.153044518522
-0.672989628724
-0.894383714275
-0.300429585572
0.555655056443
0.365201379157
0.724340531957
0.949700733495
-0.597654530934
0.15482959238
-0.0780708045709
-0.652176602895
0.27902938663
0.138296251718
0.983569517626
-0.220574158661
0.233275199194
-0.0611625750357
-0.431860950159
-0.671396394722
-0.0910737314523
0.977227452741
0.167233827175
-0.690046289334
-0.454391803508
-0.83951159797
0.202450347455
0.969667815815
0.643345644081
-0.806197197741
0.741999031171
-0.525345156956
0.404078119648
0.25708271434
0.891177600456
-0.636799444318
-0.419089583482
0.829797322721
-0.253425837389
0.498610146291
0.75349451168
-0.955931564178
-0.497384938237
-0.802765834657
-0.503098197999
0.925789544693
0.767979502797
0.594308382899
-0.522628332541
0.685832386399
-0.997499330145
0.758887450109
0.574920482315
0.817269911525
-0.361924150029
-0.0941946275944
-0.37784775377
-0.341181824564
0.205474686696
0.00408601702346
0.280266766599
0.839392458367
-0.502984511373
-0.0319514710053
0.266968142279
0.857128454473
0.142889084077
-0.4038552172
0.957462237438
0.59448601883

0.469183041647
0.408707604155
-0.468731701251
0.359528415601
-0.313979307038
0.191808466949
0.690674801548
0.092266828004
-0.310230900434
-0.227552332319
0.368040181954
-0.345043089211
0.306258463467
0.357535791565
0.0709493198772
0.684494245595
-0.165712176472
0.574889987774
-0.288847782759
0.143894927468
-0.143450994298
-0.298691526375
0.0951555397521
0.663989482338
0.0838990573907
0.597893996893
0.599065298043
0.260265942496
0.596264192345
0.445739364979
0.471335147339
-0.619667471037
0.355111824391
-0.0680544144628
0.571775170356
0.430846828375
-0.422554844752
0.340173233015
0.473978378467
-0.181530332868
0.290348500123
-0.35178741119
-0.13692194235
0.145515285776
-0.690110677025
0.600337206234
0.211604060311
-0.236984450902
0.159248586916
-0.382959327184
-0.228713271575
-0.633548249608
0.194600230471
-0.258422360338
-0.529003809614
-0.503545452057
-0.158806751288
0.672740960358
0.0946533162734
0.172393978342
-0.432300569745
0.68751836059
0.217790079448
-0.671231446135
-0.130242019363
0.685908278332
0.310306729939
-0.505389201828
-0.113781779449
-0.314042696471
-0.316822512891
-0.480499735272
-0.291864528005
0.550309837087
0.541815834744
-0.268011365329
0.258693160623
0.2392105699
0.210757696992
0.0578202696014

0.367541661377
0.685276282466
0.481099658146
0.256341278975
-0.334409701701
0.184721919268
0.267742365062
0.337791291593
-0.502001395515
-0.220928190379
-0.132477053431
0.532927196963
0.501734181244
-0.336176695153
0.459241562222
-0.146271397885
0.464763464735
0.663007878759
-0.385947058921
0.568592530536
-0.342187892195
0.148928551793
0.656759828554
-0.473574406872
-0.611855359755
-0.641859282205
-0.219220784835
0.0658099245393
-0.620337466481
0.353740459072
-0.0504401730158
-0.107621728827
-0.652669206561
-0.59052530017
-0.410262845245
0.694584065346
0.684978864736
-0.132177648584
-0.687887444076
0.337082888966
0.0988929379957
-0.507292177585
-0.12538343443
-0.0403980782631
0.381473924087
0.0130837594118
-0.362357861255
0.371376893847
0.201730226685
-0.275982925533
0.000488731476147
-0.253841216716
-0.433447125198
-0.0597051769914
0.0855328876719
0.420536826466
-0.208388641141
0.137891826367
0.43990763425
-0.385079897064
0.0111012351825
0.343254401549
0.142651827436
-0.438138314613
-0.614051263016
0.213492627905
0.265951727444
0.0149605325986
-0.238604165831
-0.241527149438
-0.0361244547175
-0.00154425779843
0.1838590269
-0.576282791923
-0.113883079553
-0.0167289909145
-0.277262828833
0.0217252066112
-0.409897585317
0.154328086604

0.243381435009
-0.315856280153
0.318291324284
-0.21610325111
0.109472628294
0.463095941489
-0.494860753876
-0.406862355435
-0.697125475664
0.256534436042
0.632276060607
0.214229326215
-0.547212561015
0.669387761077
-0.156818610826
-0.276847191264
0.143694888125
0.682186557008
-0.590563159604
-0.405281473042
0.480692497061
-0.22941315586
-0.10949557733
0.545483199544
-0.326661259354
0.489391614407
0.0193190326608
0.142666223457
0.402222741928
0.558332961145
0.197994980432
-0.599737500696
0.416722677238
0.65956128038
0.508926559925
0.701942407881
0.352041394718
-0.0358525432737
-0.434089994255
0.192750973955
0.429876042623
0.476901597283
0.00338667212077
-0.356803341679
0.261456637654
-0.557100771631
-0.00989736168957
0.48940251929
-0.463364152057
-0.541436703765
-0.449674632263
-0.569275611139
0.595924753564
-0.478778066789
0.658818981392
-0.583209343323
-0.605813092734
-0.601399355155
-0.163160414048
-0.174008184832
-0.00324400734863
-0.205432773822
0.442980298864
-0.438639231019
0.355883407868
0.292893338255
0.17024604249
0.167493339594
-0.430713280357
0.256512401282
0.649075418732
-0.124787071014
-0.266936688904
0.490225035337
-0.326452005509
0.145260861763
0.317091330786
0.65967301202
0.291285918379
0.131612228602

-0.569236033396
0.114504333372
-0.453802779475
0.662368543779
0.0359559474287
0.550667532462
0.0403105694767
0.509661710271
0.461975336744
-0.202899969698
-0.0759159183727
0.607626994891
0.0744691026092
0.566867861133
-0.0253066869714
0.0642023580757
-0.395349076634
0.545729936463
-0.0379420849467
-0.0280576655675
0.104318561083
-0.644074067965
-0.14721934382
0.519269801632
0.189441768705
-0.0891741829972
0.368693384916
-0.498506096579
-0.326706330563
0.661550896207
-0.56788056603
-0.30795383022
0.0730989433613
-0.491770577586
0.669956173401
-0.105658022402
-0.172683097108
0.569540649044
-0.0715200843704
-0.658809348073
0.323111217541
-0.0681487611059
0.683128175767
0.137655375153
-0.650753449956
-0.0549682955573
-0.338637664404
0.149339898131
-0.0378119916596
0.156682058543
0.667971024938
0.0651468526508
0.578560361946
0.0911498594803
0.371418321511
-0.374437819655
0.478112545967
-0.290167248808
0.255805230233
-0.335843775314
0.456047959507
0.205189084825
-0.659641659802
-0.0676374447668
-0.229900644791
0.632935923152
-0.469576611961
0.612395423871
0.356476575587
0.098786706833
0.247013867245
0.238481922352
0.635383973939
0.233100669977
0.692933778298
-0.588644323986
0.10450827716
0.186715785446
-0.435188528839
0.176050783382

-0.591235352657
0.442329656333
0.0937094750302
0.3028283347
0.276857800922
-0.403039016805
-0.28695420294
-0.0707856301635
-0.553017227419
0.286360316976
0.110906570874
-0.325786890945
-0.701021421252
-0.461592162905
-0.3755358288
-0.235275150858
0.0680491972509
-0.095172923909
0.0449696616461
0.61466787187
-0.549626159766
-0.661490197265
-0.385744108665
-0.345253454045
-0.236290402786
0.629899454152
0.109401402835
0.325047315699
-0.540631403303
0.180302797254
0.0859028938962
0.378685753333
0.513825243255
-0.361590601867
-0.364980540673
0.17421759688
-0.498439468295
-0.480923814088
0.168502710046
-0.51331098426
0.613773213428
0.294754870605
0.323702028714
0.339461613966
0.671479945936
-0.004394954721
0.580698270192
0.394145487712
-0.541535063352
-0.433191844652
-0.0736698971198
0.541269945629
0.611146929251
-0.496119082826
0.37766969771
-0.201457232403
0.699162537364
-0.666396508108
-0.399569283668
-0.462619107281
-0.162446305352
-0.182855081919
-0.482332133597
-0.386227104305
-0.657960983844
-0.125489455491
-0.664769736948
0.52497617941
-0.50746321721
-0.345428937227
-0.268352567413
0.63742398327
0.215314247194
-0.401985930872
-0.489201025133
-0.684210373812
-0.426607957628
0.662014488464
-0.120775344866
-0.260234920875

0.571077220395
-0.465666492145
-0.672910323627
-0.0238854451793
0.371450552592
-0.519139238415
0.184079022529
-0.540016362299
0.370673236829
0.285176096777
0.339538406142
-0.060715110619
0.634643365705
0.424849503645
-0.702628026251
-0.151030332728
-0.682638420624
-0.0287368893304
0.529773286449
0.340380310681
0.223017002959
0.405718935876
0.370366160265
0.664918711047
0.676656109397
-0.323655448223
0.282280271299
0.273898220717
0.029725077162
0.201096840249
0.213819638492
0.0824488226474
0.303132552434
-0.140587007261
-0.425373873225
-0.219693557773
0.6896359972
-0.038104094591
0.541004778517
-0.200276919161
0.198421945373
-0.0909648250324
-0.331160394531
-0.250259619696
-0.306334950695
0.037722232185
-0.623587551362
0.573421492413
-0.041034142724
0.323508031753
-0.670882645425
0.436695442507
0.580644055992
-0.340150770514
-0.512137344716
-0.38297374468
0.448853979678
0.0336576981449
-0.21767134924
0.325262374049
-0.456224276402
0.213182561284
0.179156556418
-0.392921072846
0.314897410542
0.273716849469
-0.232954142943
-0.176189752103
0.207146062867
-0.598164300821
0.612055518219
0.416984539965
0.51870189496
-0.671988999014
-0.317310167543
0.0382381515552
0.143950213519
-0.694646308559
-0.0141908657519
-0.0332107990948

0.140768927073
0.558748030539
-0.543319443617
-0.225418754629
-0.581419312575
-0.0872184215501
0.582790522623
0.566424538234
-0.515017931471
-0.574256231117
-0.321220724331
-0.434171898026
-0.0869660793569
-0.270053837761
-0.333924857227
0.22600141771
0.122259535014
0.631582333698
0.174373723179
-0.101625023038
-0.587769968282
0.455653004089
0.148383775078
0.605325602313
0.203635618193
0.533680882488
-0.199924442747
-0.541782998946
0.414226295613
-0.226277505456
-0.70176055186
-0.0790950434493
0.541743339047
0.410248225682
0.626717629993
-0.654105820535
-0.08420788392
-0.15541068763
0.517196422426
0.401598055931
0.30113791148
-0.417078196955
-0.299854797969
0.481642217651
-0.0515697682312
-0.459335139647
0.289621296319
-0.269033812728
-0.383491464918
-0.28187641144
-0.151515946473
0.339745986483
-0.390165556693
-0.0325851280867
-0.405428361172
-0.132509927048
-0.637889543463
-0.624700464127
0.082635330906
0.5735017708
-0.293350957097
-0.316789736083
0.216182317707
-0.422181805478
-0.422073139603
-0.464439365844
-0.13618756334
0.591028513555
0.386444447819
-0.531827650386
-0.221015305714
0.408003963566
-0.515920537812
-0.189607902939
0.199944370805
-0.287660828668
0.396884552805
-0.113684352941
0.698980418459
-0.315701062429

-0.218045181326
-0.22153494311
0.60954191739
0.120042291236
-0.35732198736
-0.560847157041
-0.514074678678
0.297706773413
0.16136086189
0.549408408665
-0.151457896354
0.367020386026
0.458235954296
0.53158540814
0.513836982973
-0.14188727636
0.267868466261
-0.701697607108
0.256657929767
0.149495822049
-0.315374192903
0.619755261656
-0.401346595928
-0.266870280642
-0.183470082002
-0.609691786019
0.0729617748238
0.528345209398
0.395900378766
0.57631514689
-0.314987639232
-0.0601766725184
-0.396838657027
0.29827638183
-0.451438291372
0.382821122311
-0.186259948282
0.404759372151
-0.662328371709
0.190855515384
0.545903768274
0.287368646004
0.167140003128
0.0938941678756
0.0860508922897
-0.0953062606247
0.0521943513166
-0.547490465431
-0.647816738036
0.406025847962
-0.0312341420396
-0.63643923789
-0.409728376812
-0.63181599165
0.489478703607
0.0088274379777
-0.278286654455
-0.14569687878
0.509803312299
0.438650972708
-0.611945303541
0.626649580656
0.182304397971
-0.351911728727
0.437388741299
0.661082123068
0.519053565015
0.106686890351
0.252228689916
0.592914042988
0.32609679902
-0.607279032403
0.459526125564
-0.314440774069
0.527375709329
0.268701131159
-0.35531102362
-0.543514570869
-0.587900326029
-0.593276875912

0.65905799957
-0.270339552271
0.414912074522
0.358810083643
0.424956949987
-0.391481064744
-0.0225173365983
-0.041548188929
0.631532883296
-0.403574257117
0.0650790548498
0.0363477546502
0.417076631864
-0.551720137333
0.174854231917
-0.492742395062
0.055276950205
-0.437467326994
0.149320435789
-0.564202741466
-0.442493674307
0.312833787965
-0.391698858568
-0.0562715761019
-0.463379046868
0.455042692918
-0.447080008956
-0.533220042222
-0.448272793946
-0.321856414484
0.32959330346
-0.00477946814755
-0.507414515421
0.122391627352
0.661030827368
0.460568611344
-0.0684957103233
0.431654615033
0.441896149181
-0.285603646308
0.0769235193251
0.652109778094
0.176191679097
0.514554146552
0.632679778044
-0.499470051476
0.563922180291
0.505850886352
-0.0359592814021
-0.662868846959
-0.426294864404
0.646489794026
-0.527378308004
0.346951320268
-0.42050918733
-0.0602967731134
-0.588210057572
-0.290895991271
-0.49912972178
-0.290811392711
-0.532646400986
-0.33431714539
-0.0159090351055
-0.705974270933
-0.173540733579
0.0471878969545
0.225935309676
0.186580640548
-0.392653863964
-0.367444822841
-0.504558225486
0.651594064197
0.125637850825
0.109496905708
-0.431145400349
0.169698913255
-0.640542874278
-0.532230288644
0.614623901199
-0.29837893421

-0.443755449947
0.341814997347
-0.62703307879
0.505279950075
-0.183417333912
0.465781603089
-0.438610773561
-0.344615849248
-0.106720353135
-0.703366292104
-0.429359237813
-0.295923325882
0.591829771105
-0.0482794473463
-0.327060643655
0.509398808883
0.262751045176
-0.423288440563
-0.309119508057
-0.00167434239119
-0.63285591564
0.495989359226
0.323333527022
0.445004660219
0.168339612857
0.456847543287
-0.454722230363
-0.640338137265
-0.107320348321
0.394164544552
-0.657484873382
0.0720065889848
-0.0509567430724
0.381222648515
0.17072816876
0.304405357072
-0.593905125668
-0.224615048301
0.235783874016
-0.545049853453
-0.357745809921
0.0636222448684
0.133725362751
-0.464710694341
-0.227721369085
-0.600425546143
0.0448056761368
-0.10279139778
0.678801895113
-0.513186190407
0.16393179748
-0.0821931454784
0.424863894059
0.245073304996
-0.501512515634
0.333979848309
-0.551953327015
0.11198504237
-0.333742306042
0.234974574819
0.690813368246
0.0138732042179
-0.237049609373
-0.325849687844
-0.13900941042
0.637471049517
0.177980215596
-0.518784563007
-0.648063811031
0.587859046849
0.226931730466
0.139903523384
-0.234231192017
-0.0299876976575
0.157786914735
0.186492204345
0.586662905461
-0.298382306762
-0.689265920734
-0.54403667295

0.370174008031
-0.138324463101
0.22029752257
-0.375369462078
0.553008553658
0.162549955685
0.0319644657734
0.628612472746
-0.232157303479
0.152231732908
-0.434255279449
-0.261229875706
-0.470244973348
0.181518829404
0.642162084732
0.704695025554
0.258319058992
0.390564322644
0.543592423683
-0.362622699207
0.173707630679
-0.642222383639
0.476238819287
-0.217515161763
-0.0398561600699
-0.539546831059
-0.434662545064
0.0311708643077
0.488884845215
-0.428583106275
0.694303061292
0.408989443482
0.105797924102
0.49117689568
0.147299466619
-0.476394891964
0.220667232553
-0.303078198453
0.246003309056
-0.419445435956
0.169440268353
-0.441571632893
-0.0600734791074
0.391208536848
0.306659454658
0.0358335317599
-0.668989498614
0.00875180438315
0.235094165028
-0.292802471808
-0.0731113519034
-0.288762807052
0.689431127068
0.132490969752
0.365021686129
0.486479839916
-0.449589917268
0.550864364049
0.22729569841
0.271045226027
0.332612745022
-0.531411182508
-0.374465988319
-0.563351250797
0.469735573915
-0.503351120239
-0.556795020137
-0.188753468964
-0.339289650423
-0.220429765494
0.207760173412
-0.675437536059
0.241824404756
-0.240047304621
-0.663606288857
0.186870011989
0.30989920879
0.0724795704519
-0.0663775567248
0.259085007883

0.28116829954
-0.118875376062
0.207750012203
-0.129552994362
0.0628071358683
0.490964687053
-0.599986849293
-0.210190947057
0.166817871142
0.512986491592
-0.280562720301
0.607447017833
-0.340264880521
-0.16893557229
0.32575340608
-0.266172879276
0.146157435232
0.268734201411
-0.300529033555
-0.542482019451
-0.646701055652
-0.0330106203297
0.491706869927
-0.371851117108
0.391774077867
-0.582810729978
0.706586316953
0.695020827552
0.183651099985
-0.381750872489
0.526241412122
-0.326652152303
0.255098370946
-0.60812285401
-0.706388932046
0.356881759889
-0.532802327918
0.265755281016
0.103411536662
0.0812332928764
0.0754594520237
-0.0603431077093
0.522800700083
0.105265792389
0.57155334701
-0.168167312533
0.121270097579
0.340138701587
0.451899196231
0.159538769247
-0.226326217175
-0.400112577139
0.284327824142
0.206047591288
0.238455767473
-0.0543397677389
0.0692449258987
-0.183421324289
0.214599886469
-0.653086991947
0.223458451346
-0.00435051951341
-0.0104281886348
-0.475075461557
-0.351064462124
-0.535830391468
0.157063024055
0.314612566666
0.194270839382
-0.489470359592
-0.346909298635
0.220949850188
0.581278932652
-0.0691400257201
0.575386426181
0.236169566591
0.703252730034
-0.223170763886
0.48713112214
-0.678421588104

0.267126622456
0.116958810394
0.564135081133
0.65260941878
0.306116931453
-0.270251425149
-0.0868008902593
-0.450529383874
0.255294117892
-0.215212283946
-0.658547137045
-0.0133395068711
0.325224490343
0.072007598639
-0.405820806246
-0.237420680691
0.410567836992
0.112361622822
0.628207889294
-0.104030536332
0.0531997228511
-0.627453776892
0.346503283112
0.644330129967
-0.100280437555
-0.0353048340304
-0.125478449361
0.214542842108
0.378434572528
-0.679769121086
-0.23503361205
0.240154313966
0.247368010094
0.160205510833
-0.654098564025
-0.0360489341052
-0.155106084573
-0.272677517335
0.0210882266303
0.556616668759
0.700856540723
0.613128742852
-0.252155351974
-0.240442657202
0.666807272511
-0.46765128766
-0.347744497776
0.617605266675
-0.08290832928
0.305845777129
-0.0933255917907
-0.471746333511
0.525896177408
0.427664168003
-0.363528748431
0.404055997573
0.0409953300049
0.360994238773
0.178488163917
-0.115634333921
0.119195620427
0.0995004524967
-0.162808916616
0.627690676327
-0.344888413602
0.243885004344
0.558015440172
0.301860287645
0.453861586331
0.574432980561
-0.631836412415
-0.389427920799
-0.517877290037
0.174979777366
-0.475566438107
0.291639164436
0.100805253749
0.474039460225
0.422426122863
0.309340381397

-0.618444245832
-0.0901631350716
-0.136242168789
0.493040269921
0.485300751761
0.0766452949141
0.598977790841
-0.315837867235
-0.151661734274
-0.66423480504
-0.47537717144
-0.626859009706
-0.317933771352
0.0638922089068
-0.588692355472
-0.338538283955
0.619201990389
0.34080069079
0.270558362638
0.0484130765104
-0.182437963588
-0.31529444519
-0.588553726149
0.389563614061
0.491525404281
0.374768489831
0.56316957053
0.20627241212
0.272486402327
-0.27650749013
-0.130798646498
0.0289621109909
-0.0968453164927
0.260177921518
-0.688790852006
0.611786552084
0.235854575974
-0.393260206404
0.24402250399
-0.51522211656
-0.417906050686
-0.133345413691
0.266013440786
0.573626608344
-0.0778473054533
0.351990409041
-0.11960332286
0.480605545764
-0.472601645301
-0.671871329335
0.465473667175
-0.33424843917
-0.0973667624074
0.217921342101
-0.0868693124218
0.302190326199
-0.621641812468
-0.121290134129
0.114404620203
0.0856525148099
0.412703584994
0.495111562312
0.190674846843
0.60683493166
-0.287902124664
-0.4305149535
-0.507620404295
0.104352895309
-0.677432655672
-0.378440525731
0.166373523843
0.340663700203
-0.316799166993
0.288836350079
0.146677372442
-0.280095140516
0.567921838567
0.672466403285
-0.299577970032
0.330037836548

0.383735099694
-0.0618751806511
0.379011776044
0.509528630636
0.118829818982
0.620261450841
-0.41565171579
-0.0996443754998
-0.346442091837
-0.367098782926
0.674537314544
-0.258920500206
0.372808347958
0.631630411287
-0.64592090717
0.0919971750666
0.0095790816973
-0.629140516284
0.553691415457
0.18188552419
0.0470846885217
-0.251051912492
-0.256375876759
-0.15259858472
-0.428007343302
-0.0986257618518
0.480905646486
-0.40508004897
-0.449192150342
0.326974152894
-0.314838429063
-0.49363315136
0.0549013669395
0.0846093492276
-0.522806059954
-0.249448328605
-0.599286962225
0.0371038498977
0.671717371871
-0.490299029322
0.491434388795
0.271310136782
0.328777281161
0.580804468366
0.621364496326
0.400477544147
0.636690871317
-0.571420645887
0.558334842644
0.000606954091726
-0.182421475003
0.495236648029
-0.0322416921717
-0.640492412433
0.394584128749
0.285650742695
0.125070159703
0.386956781209
0.625547418453
-0.197127162338
-0.339439215467
0.475172156751
-0.271236325479
-0.636645919656
0.052804716579
0.00276656655863
0.271213406934
-0.661032590148
-0.610325325092
-0.335434914488
-0.0971336412718
0.417698643194
0.0472941658761
-0.275392849642
-0.646671609446
-0.171129369643
0.034072417169
0.547362763072
-0.109597151206
-0.42542258185

-0.442370143411
-0.692852673727
-0.350648942864
0.421119901176
0.449154148583
-0.101724386773
0.361649818345
0.254271256699
-0.193285188976
-0.434023244202
-0.670240298611
0.623795150729
-0.350239244281
-0.704604455071
0.165652724498
0.38917733479
0.579832725891
0.56657278276
0.479557260508
0.288306946844
0.338634215335
-0.031351435559
0.496759291393
0.60223175918
0.707026002513
0.000576243233279
0.416315482545
-0.215527006391
0.463065565429
0.409523893797
-0.122720653194
-0.515092257774
0.00491663572059
-0.187749493615
-0.149209673788
0.310678759557
-0.655694316178
0.331455595611
-0.388419948672
0.605288413221
-0.018290455885
0.0786613158791
-0.40261105154
0.299836561189
-0.464199679096
0.507631464628
-0.162804391553
-0.582313084138
0.388018074882
0.26952297476
0.401290765738
-0.0238135051873
-0.207496038887
-0.330988063985
0.616444606082
-0.0736715329703
-0.689231898443
-0.565535319548
-0.39887034913
-0.0142479250835
-0.631497236667
-0.603681602893
0.133158762117
-0.190634693358
0.606741039111
0.7029080532
0.445066764081
0.0770735975784
0.254677300039
-0.336855562319
0.688518850523
0.43009893987
-0.130397494192
-0.177322211579
-0.649742549653
0.704324021777
0.19763198309
0.0125220507122
-0.571935084608
0.672728888532

0.259653566717
-0.319695494474
0.41736807574
-0.203216298741
-0.00106303535757
0.327888580014
-0.508034933932
-0.159808099882
0.257263174147
0.144263673181
-0.0956110857264
0.13177293519
-0.520065660294
-0.629296261356
0.081859444708
-0.67711025508
0.597763684057
-0.0637648880846
-0.266415621996
-0.507145927324
0.59785024177
-0.60357131321
-0.17914307374
0.3520553937
-0.0928123080012
-0.685193194365
0.102588394342
-0.628393498824
0.392937916609
0.61628852552
-0.676740029489
0.0115381438874
-0.657487575135
0.56267805105
-0.0708083572337
-0.379677773345
0.620766943213
0.597579356662
0.493539310391
0.332092846668
0.319777130148
-0.679073654146
0.244734832972
0.531258186463
-0.481771256296
0.351992802541
0.511716708401
0.498705242245
-0.268117703809
0.335238319469
-0.291994983338
0.666062659163
-0.371116717164
-0.528761491122
-0.282921168904
-0.152118451565
0.32238823114
0.661972215616
-0.0978644894974
0.178199162416
-0.15311126602
0.18587533095
-0.296087451613
0.16864125143
0.683686101777
0.193346752954
0.329273517638
-0.251552108796
0.145484195359
0.683577193406
-0.0728634783415
0.118614820434
-0.362606951819
-0.34693287754
-0.107068380934
0.39144667537
0.608150632376
-0.69780206659
-0.431288492108
0.212750022201

0.295869308993
0.0271427410565
0.251499252023
0.1631883428
0.112089268987
-0.0751544289678
-0.288093333361
-0.466016156851
-0.465749801116
0.554617480585
-0.149820595736
0.168571164155
0.674706646271
0.457402949844
-0.165030749649
0.522950394986
0.184620860043
-0.392316563385
-0.69128142255
-0.479370975683
-0.300514581041
0.172613522698
-0.586468880835
0.42221690236
-0.060824508761
0.0585203002638
0.5121950436
-0.682637669967
0.396908792536
-0.502121530231
0.0765127485164
0.43210796864
-0.196042390129
-0.265238041906
-0.130676084344
-0.156890448819
0.323570557546
0.578044047565
-0.703481709608
0.239840749616
-0.625408637996
-0.70699707191
-0.482273190683
0.534158665623
0.597700874913
0.0761876360009
0.206564690046
-0.554264111791
-0.402014802922
-0.421817397503
-0.122468217756
0.209184013218
-0.0594791814571
0.0702295774125
0.268060145973
0.0167767592429
-0.221856302394
0.0896438356392
-0.397019666532
-0.48062854611
-0.659428030356
-0.70065540965
-0.320774507721
0.413432958237
0.0939379740822
-0.40105363906
0.419012150485
0.505443718922
0.584332699025
-0.622907531831
0.0608389807672
0.4998948614
0.6633598448
0.0700984580483
0.30645494274
0.438281062534
0.158956766354
0.352177839362
-0.456098593501
0.200963657788

0.6289914396
-0.164422347965
0.473927188289
0.207263722213
0.222771500063
-0.528703701363
0.299529826282
-0.61169969006
-0.118960414366
-0.595237066418
-0.0245388686618
0.420278151293
-0.688379249114
0.496079835274
-0.592263570478
0.516164977885
0.515274303977
-0.129750713104
0.0903648415697
0.193996168804
-0.162386733187
-0.510672119631
-0.253717462121
-0.152219060974
0.565401408235
-0.0247876991352
0.0711200278896
-0.438693683409
0.162163108364
-0.600967727032
0.537393587635
-0.416003284074
0.587927337224
-0.0555647024513
0.412480160775
0.127998848192
-0.503256144085
0.650895953333
-0.0339274777523
-0.560573107759
0.0818649701893
0.289784207457
-0.0385794513931
0.384746761584
0.195202170023
-0.367880696043
0.650329581418
-0.688020708046
-0.0382584448212
0.123865107005
-0.263758438495
0.525455384003
0.187138662725
-0.0742753446286
0.233791424008
0.187673649694
-0.588309668211
0.692179119951
-0.225844135474
-0.0277613232143
0.686410114988
0.501175144091
-0.55157007695
0.497440408576
0.490613593909
0.316362248312
-0.400465134963
-0.634566166247
-0.438318110281
-0.0816749380524
0.485068378743
-0.00798062681057
0.368344776056
0.635556617051
-0.319550325753
0.554622309952
0.698410490108
-0.596087594425
0.325300684542
0.060276137663

0.64218381986
0.217020583691
-0.707092300239
-0.0042976153572
-0.325929337976
-0.678961997275
0.705699111161
-0.0599297866353
-0.0259032725782
0.579688807315
-0.447146084794
-0.178636251974
0.600760409659
0.125492495619
-0.466389111903
-0.684570089319
-0.22514491688
-0.381143416724
-0.622136038575
-0.0757488552918
-0.27078673532
-0.0703538666308
0.417377482937
-0.442540658836
-0.525863962506
-0.275763007103
0.660910273089
0.0159918577272
0.52109010609
0.116567781605
0.261363764948
-0.344073086046
0.230609629359
-0.568850208969
0.0668992200584
-0.568887584738
-0.328356208643
-0.605286193348
0.0582065940702
-0.642347844673
-0.682798519009
-0.544214883697
-0.497292592621
-0.638525081407
0.678620794512
-0.262188784541
-0.342069661162
-0.284540262547
-0.322143956782
-0.519512804347
0.425891143836
0.226167083218
-0.253188797999
0.0913329776366
0.434009761367
0.0911283425528
-0.269960565386
0.546858066805
-0.588128308668
-0.077411328859
0.348167919133
0.679457024086
0.487831656349
-0.650151810216
0.411385081283
0.193703296569
-0.128854648559
-0.501411286713
0.0250486692208
-0.661768940593
0.386048350722
0.291253511348
-0.633415621424
-0.16079286387
0.150439619864
0.453569337357
0.238924372292
-0.33859702105
0.681078857099
0.19118164292

0.14559046509
0.339103050874
-0.260909725183
-0.516877587149
0.240912555726
0.447800193157
-0.578170590161
0.145190426453
0.112961329457
-0.17521283781
0.13378835266
-0.231414597499
0.596330194438
0.626472598786
-0.589956697951
0.128673992631
0.552218164761
-0.281295397181
-0.235472693713
-0.393692983475
0.471716547673
-0.66552104086
0.161566384197
-0.33099300929
-0.142053523124
-0.199088545489
0.54753413348
0.360104369877
-0.309576412941
-0.272798233048
-0.342860657788
0.452892890241
0.693814819071
0.561348093077
0.0435535144077
0.49876640553
-0.407371651443
0.418539090476
-0.14800248807
-0.168737536572
0.645745279895
-0.652343778608
0.336396327993
0.475004851182
-0.0506153698977
-0.498281471512
-0.40420883365
0.090453126626
0.374204000246
0.24465539256
0.260573072122
-0.323588996085
-0.302185379467
0.119726128435
0.258293336508
-0.645045399566
-0.542776025956
-0.00354851318588
-0.614758531236
-0.373193884518
0.25734009513
-0.389431480137
0.231599008321
-0.179296096159
0.403669066532
-0.622443308568
-0.382900795008
0.687281487804
-0.305674919361
0.163184842395
0.531115524254
-0.310337034748
-0.233213180947
0.467671210483
0.444964611276
-0.0318026121714
-0.659022561913
0.561764482273
0.476047052223
-0.0929954776893

-0.00365267485278
-0.302915742849
-0.601518375129
0.469393410151
0.326253301503
-0.519615925534
0.17554670182
0.0866374437001
0.251788532556
-0.12098857994
0.687536049359
0.431991066101
-0.40265094889
0.377392494981
0.503016178882
0.369916630008
0.636117037882
-0.491351588901
-0.682837322454
-0.636287460941
0.145536277168
0.474728880237
-0.00868226506341
-0.548940841169
0.21354980223
0.514624799624
-0.46068635984
-0.363725426903
-0.0403801773411
0.217049575285
0.539462905955
0.372360749767
-0.550346649799
-0.555823446064
0.533047691705
0.0998202468681
0.287675902839
-0.580939676567
-0.565977493291
-0.612968238453
-0.0769761029875
0.158563653085
0.433674678225
-0.523803843389
-0.382417258633
0.506837829056
0.159635481719
0.0351183877294
-0.373250640128
0.408640787805
-0.512009167864
-0.614656996226
0.300682119719
-0.330750748911
0.263439648459
-0.27092812423
0.555993884313
-0.571170222968
0.0559829029372
0.566781741058
0.208486328355
0.645775567153
-0.648858078254
0.20066350918
0.361969243003
0.141047946235
-0.117953489924
0.548771830749
-0.630425667396
-0.51475549358
-0.665791203532
0.549708690326
-0.499728928031
0.234375053293
0.403627383474
0.573082798193
-0.422350379325
0.580149468676
-0.0384473239546
0.562341059545

0.243989213697
0.272491382511
0.272239438447
-0.368456066389
0.12756034111
-0.248753235537
-0.616923774345
0.286300325742
0.0711622127379
0.118712509691
-0.320133720981
-0.540651289034
0.334322343768
-0.247609819364
-0.605662101035
-0.487313986298
-0.0364994736047
-0.380047068438
-0.385811692893
0.352035176201
-0.492562793967
0.470942736672
0.223528908996
-0.049502232845
0.504137131357
0.237305794296
0.282138442947
0.418489743286
0.687680691564
0.130537623956
-0.705298998054
0.38498952739
0.65670559695
-0.285700237137
-0.60558012489
-0.179416586835
-0.243862203779
-0.318799383562
0.392671920628
-0.338882527779
0.446426005213
-0.287940462152
-0.182792102145
0.366617320632
0.389300056265
-0.00691106039812
-0.232900836641
-0.496081940764
-0.2192155465
0.13989411681
0.228040854759
-0.462913240034
-0.622119587369
-0.461990298458
-0.0741856632009
-0.372491865705
-0.471743614733
0.210022875739
-0.349838985597
0.405773488
0.532947393719
-0.460478733435
0.0708761802777
-0.0136536170293
0.523511637169
0.0844165708809
0.239946533144
-0.0565830040231
-0.397380421072
0.615045216317
0.0548129791793
0.283829559111
0.0643977432408
0.389248815559
0.455813072783
-0.0938593275592
-0.542865831743
0.445718123078
-0.0732045042185
-0.573822687829

-0.507142008811
-0.665964801197
0.503673434177
0.494335855853
-0.533597329071
0.696184272569
0.498181756246
0.269132054306
0.436353375663
0.576971827664
-0.279565418126
0.246247855429
-0.304559129317
-0.151146247933
0.263796238193
0.00318741399807
0.0207866623058
0.137555875342
-0.0140631106285
-0.256639388377
0.625689677085
0.363589892092
0.589705200733
0.507632061877
-0.163110151938
-0.604118259849
-0.584666703482
-0.346283402548
-0.286506146942
-0.107775196454
0.100751181408
-0.335741531023
-0.449364093234
-0.438682232616
0.402282209146
0.0573884893702
0.0672622744231
0.4888732896
0.125560448505
-0.629460310969
0.121811234182
-0.129430828485
0.275240432025
-0.151048839823
-0.110546622324
0.526420925418
0.637482089834
0.493742648666
0.0716719669711
-0.294679364446
0.202934583668
0.35743815406
0.482790707382
0.266401341227
-0.335008435947
-0.339721952223
-0.145109852596
0.134419767306
-0.706820979918
0.463296362016
0.692279160597
-0.070788828727
-0.549415929226
0.407433189253
-0.465866799152
0.677244384189
0.132573329569
0.341883838408
0.556890085173
-0.576286156993
0.244864041981
-0.428812876833
-0.1443960718
-0.689720593412
-0.121492994095
0.225996276556
0.216160853673
0.00168888001165
-0.132958890846
-0.399718507457

-0.283856230522
-0.287178807092
-0.318233953323
0.513329863717
-0.352577831559
-0.594994311601
-0.0587354148765
-0.498590981166
-0.125728576388
0.111026129169
-0.104853712535
-0.0528422849377
0.167016653625
0.197604590691
-0.000518197584842
-0.632669896703
0.349589978661
-0.703741127491
0.0433854425078
-0.0293364094359
0.166303236306
-0.240563098908
-0.0319223775201
-0.353694386071
0.424767073148
0.57247841692
0.424087249903
-0.0948490699071
-0.103561067338
0.311671809535
-0.268711451017
-0.687973147717
-0.152716860828
-0.1842222942
-0.133872543731
-0.221388445257
-0.61349971097
0.516646947173
-0.20100309907
-0.319779078838
-0.486869655722
0.0520639293745
-0.235486378669
-0.40830249173
0.657164519364
0.620759662383
-0.616695589429
-0.51483263215
0.294736762395
0.0360543171202
-0.392883302155
-0.0783868269213
0.0926660752845
0.703618353674
0.30948147778
-0.181756267474
-0.651836070033
0.0886415182452
0.214973619097
0.120533751411
0.523546157018
0.658706293139
0.704128827836
0.383228731694
-0.259824287446
0.472649899579
-0.503305732088
-0.162420455975
0.28960479348
0.680592039142
-0.644399932297
0.476536025363
0.388937990774
-0.492207327877
-0.189726001824
0.644281563636
-0.312274254115
-0.689996266813
0.280914887384
-0.112732924989

0.0602115613349
-0.401974876699
0.0796457717659
0.0664964176035
0.653938994591
-0.60521491029
-0.405829275217
0.601159597321
0.431649692412
0.682671051946
0.0424032114803
-0.138450096882
-0.0842557073739
-0.436454707811
0.222630169917
-0.105209555652
-0.474576190672
0.364940647895
-0.631927905329
-0.0441700953528
-0.21344010123
0.316103834508
-0.310628393654
-0.326637201862
-0.347133270835
-0.129822001351
0.443208519761
-0.436487993929
-0.0728104620071
-0.201664375725
0.0789168749242
0.519265747494
0.481160771564
0.244329124305
-0.320807761368
-0.379535155185
-0.340107404065
-0.70623670546
-0.595080189639
0.270558296834
-0.4731899668
-0.214171484376
0.511737665739
-0.47056167834
-0.584836368534
0.299704386444
0.56433046612
0.461196497873
0.270321107717
-0.467765951929
0.321168615814
-0.105703016964
0.534328403119
-0.326714501477
0.113423769395
-0.223853055509
0.0524451735088
0.0784212028929
0.639062065384
0.643550947501
0.366721826298
-0.361049687651
-0.517024577431
-0.686636267237
-0.672687063664
-0.621212943336
-0.356414807324
-0.439630284169
0.6890594373
0.190683467964
-0.538820759657
0.629124318761
-0.489908192157
-0.102318908856
-0.544119877441
-0.362820553275
-0.608047922196
0.252070045439
0.157219063679
-0.118162459945

0.689322733694
0.602300392504
0.0180294222437
-0.258566982266
-0.188710822183
-0.684791357727
-0.408206667327
0.473475972599
-0.441187004684
0.0375591342761
0.666987682575
0.492491831756
-0.266790861643
0.331798241564
-0.182454664309
0.680854927281
0.343512773236
-0.527138233038
0.214700029628
-0.512910696665
0.484213668643
0.268516163201
0.206146487794
0.636657631009
0.55437337459
0.188122352389
-0.422880825964
0.325268047636
-0.46463728783
0.365347545723
-0.0467220596676
0.16504302496
0.515313541567
0.133111590989
0.25413834847
0.612833757677
0.136595622768
0.0583930518214
-0.331210852595
0.256688388545
0.525341393582
-0.193954609054
0.372574385744
0.618883637875
-0.606652791006
0.507928652565
-0.195268912903
-0.157218813406
-0.130858626657
0.2366203823
-0.102656270969
-0.510208824364
-0.608460482224
-0.64490785539
0.579179107111
-0.226875448975
-0.373544257884
0.453688326069
-0.522910228688
0.359226495821
-0.503888180366
-0.207233410501
-0.662813073297
0.321246586686
0.678215356336
-0.0779994944154
-0.0177141173696
-0.289409003183
0.0212553739019
0.0169594740414
0.696010723147
0.080981209611
0.578199275281
-0.394368719611
0.223308823665
-0.124679745161
0.0979391201686
0.500461723529
0.263531223597
-0.499763599059

-0.317179112973
0.702406968523
-0.160947951306
0.254301582678
0.229256595816
0.403372467255
0.39745512435
-0.485350953126
0.214494119019
0.104865890388
0.0750364357245
-0.505107131613
-0.658161311596
0.155135950348
0.614364619244
-0.647891596946
-0.160943556222
-0.185759573751
0.266320345146
-0.0630303043792
0.506901996301
0.400273594124
-0.387550148805
-0.474751986847
-0.160452766516
0.494758582301
-0.156779680803
0.485611233778
-0.685307006733
-0.0364985573058
0.180626004603
-0.0397992309269
-0.190854141073
0.363788075158
-0.515255414158
0.167381620751
-0.169533344224
0.25230061876
0.325098924393
0.361193631622
0.363171352289
-0.548269991667
-0.548804974474
0.434224728902
-0.0432071082342
-0.219244310426
-0.537223915402
0.394248279602
-0.35338219373
0.635844074233
0.318810466398
0.254989639399
-0.685504234759
-0.00425736539523
0.439843312235
-0.599311927834
0.238367722617
0.623805494144
0.382599611375
0.491204848218
-0.255395568186
-0.387583307855
0.417900160762
-0.702331131506
0.583270438158
0.324784914728
-0.445803565057
-0.196172425848
0.594118006465
-0.475039217036
-0.679049420075
-0.042222312886
0.667539493273
-0.280667173927
0.475298331477
-0.591469089236
0.420160324187
-0.596974982207
-0.336582771767
-0.55798154359

-0.64558510233
-0.20475461657
0.480395623182
0.674483933222
-0.497632087826
0.345757580958
0.681902189499
-0.134077268997
-0.56840901816
0.468717406187
0.0227245430271
-0.222268123628
-0.68345857847
-0.148520934381
-0.0444643679904
-0.284743965534
0.236287468309
0.0998539261454
-0.321666072396
0.368280240838
-0.658790438987
-0.335919717951
-0.436404250243
-0.693447004045
0.506588609782
-0.0924016493837
-0.376096835846
0.60455717674
0.207720812519
-0.389582224768
-0.703410663289
0.484116686717
-0.0789351532656
-0.419165791383
0.445237661177
0.533425981516
0.0369055351834
-0.623669947649
-0.577126511467
0.326883978956
-0.595847972339
0.37156157674
0.551789082345
-0.0526158894646
0.0581406406862
-0.191155957686
0.102707107084
0.653498567807
0.210574494516
-0.487003223377
-0.223487936082
-0.110266612752
0.609343888272
0.559182328366
-0.473232285055
-0.657628067121
-0.222954873261
-0.435692080902
0.245294158754
0.344884423546
-0.249393563917
-0.391210455934
-0.279354183046
0.693305858364
-0.0398201620223
0.013869131069
-0.320199652462
-0.702642744679
-0.0320517986674
0.556199503048
0.314388810718
0.368033767249
-0.274092184016
-0.147491429617
-0.0464687105735
-0.269889081115
-0.0396301592374
-0.308087048388
-0.568667467026
0.131179986834

0.0320854249446
0.673884923992
-0.676443910452
0.205444630608
-0.122770887425
0.144776125712
-0.364195651384
0.117228319369
-0.273414376229
0.546267602099
0.640954886612
0.119543904947
-0.130198601834
0.255943322997
0.408953931614
-0.0707771412768
0.382785887331
-0.598970585798
0.177126773937
-0.466156231864
0.596565860528
-0.610725076694
0.294626969619
-0.103407803484
0.686854808709
-0.584005273174
-0.622850417084
0.0377967011651
0.0377814624171
-0.238310735383
0.277713266013
0.157006532144
0.308239154883
-0.0742804877781
0.307328117662
-0.118256794857
0.540294364417
-0.336654586989
-0.271470473183
0.0318183802199
-0.665057506046
0.404624586268
-0.344171992576
0.45311877631
0.598976258457
0.0465059007576
-0.156260931749
-0.10788050065
0.58672665564
0.175392880106
-0.307443193269
-0.298902810163
0.396715479983
0.209129327134
-0.463227412304
-0.414674314346
-0.609556169862
-0.610374903333
-0.680785067597
0.26231463867
-0.688491543114
0.207306659464
0.580568432879
-0.622213218836
-0.0671529557428
-0.158151478207
0.687774159621
-0.0412315432723
-0.115299968204
-0.178571278495
-0.227699487427
-0.39301147141
-0.230825920248
-0.450721746888
-0.275451032732
0.613769103657
0.246033372236
-0.513036200133
-0.253112344937
0.615307266494

-0.352290979545
0.380849059536
-0.63909158584
-0.420941017648
-0.214937533274
-0.423020247095
-0.334595870299
0.431213756609
0.387286123656
-0.448757458946
-0.463341309747
-0.201802625462
0.550868971512
-0.491071964411
0.127275845743
-0.350759151816
-0.516544591611
-0.149848098074
-0.306504731813
0.211995118325
0.488405163444
-0.136969748267
-0.236166581351
0.194075993879
-0.462456866054
0.237411901506
-0.135001135525
-0.380160551363
0.670242591191
-0.286964303672
0.640475594354
-0.134174232882
0.190076640166
-0.68564336759
-0.0860525510239
-0.162207564042
-0.583282841032
0.683675057288
-0.677886137188
0.186343572674
-0.248872144292
-0.152593683299
-0.66770901149
-0.525462437671
0.0781029873263
-0.0765156642224
0.462796259166
0.0920738897919
-0.368265046129
-0.139334542834
-0.695324607076
0.13564839743
-0.15259640624
-0.283485277348
0.700314349227
0.489117940333
0.173610409787
0.679547488787
-0.14596275017
0.641019779723
0.308105178505
-0.377697977433
-0.268014314985
-0.254727205886
-0.0424592802437
-0.149867098692
-0.0476002034219
-0.646003655895
-0.388155293943
-0.317008004403
-0.660819840134
-0.12591745228
0.612031953327
0.556328802349
-0.291540937586
0.155895561801
-0.280370869812
-0.590901011726
0.330494818027
-0.0934711312794

-0.349481689895
-0.517692478832
-0.462724421867
0.488052130843
0.209643807045
-0.188904217908
-0.651991440828
0.244582005611
-0.0727519724699
0.10295685314
0.612639435338
-0.216942802719
0.0229456431934
0.672775808689
-0.513969184611
-0.628697992446
0.309597636221
0.464777267773
-0.638747699359
-0.215411324535
0.0217610918676
0.00469975285751
0.558748447156
-0.507434812514
-0.221805021302
-0.552840836712
-0.0961050220064
-0.333856945229
0.163569179592
0.161127952018
-0.649096128752
0.0650354252183
-0.392709094599
-0.0134450646778
0.628421664053
0.674729830405
0.32372552169
-0.351282047974
0.468633640545
0.393643184645
-0.434498946331
0.133091806809
-0.021031976269
-0.504858021403
0.0555561859109
0.267772788412
-0.64563779679
-0.177772581603
0.0285390988697
-0.476995996241
-0.249021324453
0.448317948482
0.643613419954
0.665277646589
0.0343474079579
0.271147711685
-0.458588777232
0.149644130363
-0.395945224137
0.473883015648
0.464792562775
-0.431400652439
0.353878762579
0.0764885189289
-0.347266945043
-0.584908168038
-0.618214012179
0.356386036289
-0.388193018238
0.0534045099363
0.315489782174
-0.702033697972
0.0718125302345
-0.30037759807
-0.282697579153
0.702993836828
0.0602069832104
-0.152198086755
0.0955927287347
-0.024230463806

0.240133421171
0.348896457645
-0.204577418179
0.0994706427525
-0.525087103348
0.135954496205
0.430268208699
0.240022713744
-0.571126640955
0.254418460522
-0.402289680169
0.456269574458
-0.572352285799
-0.663685254079
0.10533144676
0.0134324601038
-0.658023100463
0.615351484438
0.16302819494
0.122379925655
-0.520621563502
-0.643906084852
0.361416455077
-0.239111088423
0.402301412948
0.166321531484
0.199247944178
0.535272218789
0.130938939055
0.397622295761
0.141693684639
-0.014628479488
-0.311015590965
0.0934405439443
0.553674436889
0.432003740535
0.064268497486
0.656673204965
-0.310296463288
-0.0497881874028
0.327484841905
0.308209973758
-0.287407800259
-0.407805887968
-0.367063681642
-0.0233076665995
-0.407946675465
-0.360982139664
-0.249834410948
0.260434432199
0.0449254505108
0.0555993404847
-0.047462939893
-0.0210913259432
-0.351700757936
-0.367913920399
-0.582558619626
0.545574223578
0.022047355225
-0.700293371662
-0.019332962876
0.654961516841
-0.261109683843
-0.427028731943
0.0581789810677
-0.595231692156
-0.585645574473
-0.550008719154
-0.223225920485
-0.306927693865
0.610639328807
-0.166141367239
0.15476777452
0.00634813237965
0.329801480904
0.441642302198
-0.691899929006
-0.484314003384
-0.329475366289
0.600040356199

-0.256216208438
0.371575747969
0.395446668364
0.399144871515
-0.656124171162
0.298879988436
-0.155915444144
0.202975365631
0.648662730436
0.10401402179
-0.288606684213
-0.172310619418
-0.288294555841
-0.534534099295
-0.266314349102
0.073859329194
0.250407897311
-0.311494744412
-0.411432331073
0.119512023182
0.362676985236
-0.216192721345
-0.672097775904
-0.172818398284
-0.52694703436
-0.201185491712
-0.444260433902
0.563942470236
0.0521060425203
0.605213110819
-0.175270116909
-0.425194128332
0.206200184008
0.595303898985
-0.70297322514
0.694890224779
0.545840683695
-0.564425977064
0.137046257814
0.468338046582
0.389167734074
-0.291530375993
-0.000843705941329
0.508477801093
-0.219196920608
-0.479521344282
0.195033198552
0.553423619277
-0.668482842631
0.0526169799803
-0.175601299923
0.145199461005
0.401650789316
-0.169062003244
-0.485649035275
0.34186251489
-0.0230767832175
0.212565039102
0.5953389089
0.312185620482
0.645009654131
0.517047945076
0.123570428393
0.15688281892
-0.182074322931
0.473923330012
0.540196797864
-0.075476745559
0.231702788673
-0.0726474917636
0.578545367297
-0.70348484515
0.356291971585
0.577383592567
-0.232338524711
-0.520804550823
-0.290428818367
-0.667863232641
0.563298838329
-0.252112730355

0.586628696247
-0.517669659046
-0.151938148987
0.105360175919
0.167949024178
0.522128589537
-0.304710657893
0.356488108622
0.490732242581
-0.345460922498
0.655717008757
0.0481700957768
-0.5445029029
0.191184110309
0.479207784495
0.300029922477
-0.170205404769
-0.408546743756
0.587601720885
-0.411789290279
0.00368960274708
0.640430919286
0.0549149236863
-0.363404549666
-0.662235164678
0.479222912459
0.0677464160749
-0.672910101655
-0.0131404167491
0.662243566849
0.105890314141
0.192874618193
0.35931721554
-0.682217046573
0.25767647205
0.127210335898
0.208232805669
0.525621098958
-0.53734870892
0.166473757578
-0.0656573491678
0.480819089019
0.124663987065
0.607732501856
0.270270658016
-0.160134519826
0.0546073469779
0.635759952202
0.46326292486
-0.0665341158756
0.698561071339
0.419507229508
-0.311690101491
0.409144568576
0.254594207793
-0.595304533991
-0.553192666127
0.0424902037633
0.171411815673
0.598577307856
0.343297839765
0.11715142104
-0.528709486488
-0.678863975126
-0.256177564792
-0.39563075463
-0.557632856632
-0.140235361512
-0.674663129273
0.703519593647
0.216639531155
-0.706318110639
-0.137846915783
-0.0478322719724
-0.502181016993
0.311146249651
-0.163137323603
-0.198575352465
0.57422724806
0.0771971920818

0.265774167413
-0.2552453403
0.525614529543
0.303127818958
-0.0399622276043
0.0867659765572
0.128431013678
0.382378594517
-0.109149118796
-0.304925333738
-0.657049366649
0.407955135419
0.131013491751
-0.469784300977
-0.307750352089
-0.357376807491
-0.328935096018
0.236120931957
-0.493500229972
-0.204698406762
0.106946030276
-0.446144650481
-0.226435406549
0.293276404679
0.29615794505
0.561151614223
0.0190906264513
0.458661891703
0.544322525579
0.0812557525348
0.403908232279
0.611326777365
-0.514866671257
-0.425387119133
0.659477989381
0.281388870435
-0.510238770729
-0.542012222927
-0.00998657978413
-0.125418025835
0.492060797026
-0.445872482598
0.573656328852
-0.267252145732
0.338695298423
-0.554904303251
-0.069194804901
-0.448468576791
-0.580274846192
0.626364337011
0.640765209408
0.319570165883
-0.212415616593
0.132719734892
0.344876559334
-0.28537640558
0.178491435131
-0.184182292724
0.436354713948
-0.197248710623
-0.283882034679
-0.0989098398877
0.512272595871
0.278494716721
0.249268757592
-0.125453257953
0.680238232553
-0.104347787266
-0.0471829498614
0.520543907566
0.56080923871
-0.381410918142
0.659185030135
0.0756849460497
-0.677537248238
-0.398197715789
-0.394991812949
0.518339440061
-0.540761759988
-0.271884328013

0.145532436005
0.489059665122
0.126588188389
0.69122372036
-0.598837969777
0.330269989022
0.0605896639159
-0.666121112237
-0.193734856385
0.0941750214777
0.388951645711
-0.123849946355
0.217278399117
-0.504670758784
-0.438736118475
-0.68410178711
0.258835742896
0.458693073309
0.234980395573
0.349498326091
0.472013109721
0.383023104948
0.289562291199
0.0988787924954
-0.0196565012302
-0.645813441116
-0.194624846537
0.0844171191775
0.566937052799
-0.558010529503
-0.107927118448
0.0170663182951
0.357685838773
0.0962883272963
-0.300239549606
-0.475891322185
-0.194986310291
-0.24636714182
0.0922476553872
-0.347293065611
-0.607120415243
0.209854926622
0.323638595063
-0.0647825546206
-0.702084353526
-0.0102235344383
0.173817787106
0.033592331865
0.540851009595
0.566010383475
0.0587257248702
0.185219630607
-0.0128877382841
-0.391287997628
0.591127652473
0.161461389177
-0.543474105774
0.334913405454
0.359228526773
0.236725798346
0.106324105827
-0.171528972728
0.148579001656
-0.601645028948
-0.324415777109
0.643436390191
-0.439782676262
0.3172528542
0.588746651208
0.543569869652
0.579411020466
0.231340858995
-0.250432401827
-0.6420673228
-0.526680156599
0.330110675411
0.305292301016
0.485160385632
0.308348610552
-0.595319556905

-0.336597499164
0.105941168456
0.326203210126
-0.0628158072323
-0.459425265992
0.110271592488
-0.348522509543
-0.322031781704
0.128571330981
-0.529416945821
-0.1846402122
-0.699179878469
-0.577597232164
-0.590066110768
0.208538728513
0.263168374053
0.498576474968
-0.388639081651
-0.605668855804
0.497382628019
-0.607643339135
-0.191716950872
0.350581713057
-0.166754700525
0.520937484051
-0.40522103287
0.652444535148
0.144178552655
0.437093690381
-0.173073780353
-0.055703328134
0.151551691301
0.44959517467
-0.507017813703
-0.373406995037
0.534308076406
-0.233962301529
-0.413102725862
0.612707407479
0.0589416756441
-0.121665153055
0.468508066964
-0.44276257898
-0.629262128201
0.210869278029
0.559439949679
0.543745854503
-0.000884420642301
0.464317868289
-0.691305183289
0.543714192375
0.0958472438272
0.653773930733
-0.433221813742
0.297774174168
0.137600105806
-0.351056107092
-0.071192197937
0.692229753926
-0.643370754327
-0.582784785607
0.180713039442
0.491070994982
-0.356991676582
-0.604304663134
-0.116448487554
-0.323993170777
-0.145083122462
-0.0343038071978
0.523597809134
0.680289795093
0.200707753227
0.11864836901
-0.144253034025
0.433991227099
-0.281698133527
-0.00647610994894
0.698438020444
0.497773817481
0.541679918738

0.596047208086
-0.0664464353037
0.135331576634
0.655063169834
-0.0727754873977
-0.138726183029
-0.592485286587
0.441907540999
-0.0945415926026
-0.340762630085
-0.0103929604594
0.231847422394
-0.0337867283704
-0.333952680165
0.0568395896298
0.20153805222
-0.571978538212
-0.511119038774
0.225664092871
-0.0700920934678
-0.0875650284743
0.191469151661
-0.559269464517
-0.451786820962
0.263756119406
-0.202471347337
-0.455894357098
0.185265286935
-0.627894847809
0.48044492211
0.160038087925
-0.188564228441
0.437545211736
0.202288010877
-0.581168182361
0.361414258168
-0.351310840585
0.663951857079
0.658315929622
-0.683111471632
5.38807932767e-05
-0.0182566015652
-0.648774241052
-0.644085258413
0.587475557392
-0.326490794701
0.64196034429
-0.207571779475
0.141674706171
0.348966758387
-0.0811974311959
0.137506375289
0.165316502181
0.616086861907
0.316554664472
0.606764068689
0.445869380684
0.0437966100974
-0.0290776205808
0.200623111786
0.00486218343384
0.499049129647
0.339252871568
0.105850249343
0.196725943809
-0.689461744654
0.651675328112
0.202801739436
0.0823739180639
0.142749397965
-0.249560884971
-0.697315699064
0.210495325836
0.67556593588
0.299822733108
-0.348255930649
-0.473418511148
-0.214058873257
0.495644296545
-0.630079866706

-0.175060937669
-0.0493701046829
0.214310190574
-0.321098048837
-0.544841003968
-0.0120706049413
0.518567354887
0.157444126064
-0.413772494607
0.243161419867
-0.13988841655
-0.472342799606
-0.34449479052
0.585875220297
-0.239751600028
0.040551043623
0.136047974222
-0.217477143721
0.0975955480729
-0.372947450285
-0.613768644634
-0.00744489087858
-0.273719392845
0.222410315269
0.171214936
-0.209373659396
0.628799060415
-0.00133633059206
-0.101581084691
-0.190897330826
-0.657639419031
0.627882482093
0.497732686073
-0.0409446916314
0.148678468861
-0.399137744743
-0.452598902801
0.472828730238
0.0590093507406
0.14215347407
-0.459584656407
-0.69518616928
-0.537333636519
0.625675934307
-0.650497694694
0.0771292817381
-0.209441025219
-0.507089029922
0.013107327359
0.66929616007
-0.405556037576
-0.0477938179382
-0.0322997641673
0.0822702175674
-0.608605665531
-0.583915378374
0.411463520364
0.226657071347
-0.241435141779
0.531934896158
0.625637260976
0.52471816598
0.649925799026
-0.459707836104
-0.289582151397
-0.574340930546
0.0671814277625
-0.629784706572
-0.233879418912
0.341185582482
0.388441910289
-0.0925793815201
-0.595639196832
-0.155019039484
-0.431610253629
-0.00724497738075
-0.701274841472
-0.163483869201
0.0806027200456
0.699609421013

-0.0129102538173
-0.232726615875
-0.28774507024
0.42043636676
0.589183580906
-0.27818959801
-0.0342497793789
-0.0201251518657
0.112934916995
0.107670069508
0.515814499944
-0.198140537664
-0.0423385593202
-0.174300112566
0.00953916013168
0.400315831127
0.183795052876
0.564023861483
-0.364414760224
0.00915386073002
-0.0975244185362
0.267748707563
-0.542174569288
-0.559886751025
0.109810272691
-0.637199814325
0.352703559417
0.643569642572
-0.0158067539713
-0.0949556113243
0.589212099731
-0.352559062496
-0.576919631182
-0.5039028197
-0.591771541991
-0.11445172391
-0.377303981932
-0.306673057153
-0.540177614383
0.0902978220724
0.535248546381
0.122441402726
0.359556666128
-0.136015314028
0.614967352198
-0.247356786237
0.659734693622
-0.445623022496
-0.359719634269
-0.46996452799
0.41796795643
0.645402663726
-0.353038634696
0.423287162576
-0.637599868067
-0.228829446441
0.31290998283
0.46766449874
0.12422431085
0.530927247111
-0.550756644713
0.0870642305732
0.139437570897
0.203841969138
-0.591286555791
-0.0348310593034
0.382207261472
0.443037002974
0.316695234608
-0.250125414355
-0.342466120585
-0.00702092411724
-0.221341014915
0.43050978244
0.182762152688
-0.082275588156
0.281572130106
0.636734781688
-0.377904147987
-0.464075690915

0.347252007629
0.290060588645
-0.478306727447
0.414870412775
-0.0434095618723
-0.392471320638
-0.395443208393
-0.525553872711
0.0402394577619
0.336089504976
-0.0734722061269
0.569276014431
0.122778885871
-0.351106959501
-0.3192110891
-0.545236750391
-0.674336574351
-0.365453272799
-0.671280679418
-0.209123653882
0.384558762544
-0.111284999035
0.648634154421
-0.575868448171
-0.652807577061
-0.455585581828
0.392705791929
-0.409969984004
-0.0322488268555
-0.0209866975142
0.0667514556806
-0.618637556456
-0.475236737796
0.44487253914
-0.660779414672
-0.160461868924
0.515032628846
-0.418116951733
-0.564201634107
0.159967762267
-0.169145494308
0.695130928634
-0.0129852213856
0.0229883229136
0.584684509188
0.536085976146
0.05802305097
0.283371831027
0.588689040303
-0.681336455224
0.257652945048
0.446208559482
0.462848103205
0.0037282115135
-0.504131574337
-0.072078167415
-0.598786599258
-0.245407132829
-0.173471248177
0.0441354322566
0.703944656847
0.0534405131224
-0.126210302603
-0.120348817709
-0.560907947634
0.248645495162
0.532717500347
0.448173466732
0.246113711914
0.701353082037
-0.0326835537569
0.494946853664
-0.424663773688
-0.253546607669
-0.517250244986
0.0525033593004
0.00216141528871
0.0778345597488
0.681624691167
-0.539911645328

-0.275538443351
-0.0819649596681
0.53263677622
-0.443072401669
0.201959995779
0.300561507968
0.17745945985
0.136650449904
-0.175527920042
-0.135811974214
-0.642834417861
0.381840774167
0.0045313748703
-0.595448939249
-0.429421222637
0.0236199158232
-0.698659444201
0.106932177532
-0.602084341424
0.306269317917
-0.706332461976
0.693522881006
-0.4605053539
0.168825358887
-0.367199542444
-0.148637668796
0.669925839075
0.19335901674
-0.674868357301
-0.620394677789
0.074059894336
-0.564268630698
0.50063924893
-0.17472153551
-0.413936802543
0.577418389108
0.339991300997
0.40436879218
0.317728663278
-0.128992634442
0.0608044341133
0.548150828925
-0.510553093709
-0.511225144878
-0.441254436092
0.422128096919
0.570531196316
-0.543007855638
-0.48645710587
0.0318635028837
-0.554790768516
0.349265266034
0.0228953400096
0.385464280549
0.564428162108
-0.315890003678
0.575675429814
0.189541922692
-0.52140909808
-0.279350767506
-0.2350301046
-0.272855755077
-0.123686271488
0.291160506942
-0.355853925815
-0.183023465256
-0.499758188731
-0.12316437582
0.142977511033
0.0901853583176
0.688814285425
0.159219826827
-0.339393689515
0.678176697249
0.680647616434
0.330098414736
-0.210914714391
-0.253284823954
0.419670066255
0.35780903345

0.346322456214
-0.558834607563
0.38277202341
0.21282008986
-0.078537224545
-0.0872260241312
-0.199556184693
0.0136280473393
0.693137035745
-0.39977151012
-0.235084555847
0.0485844263039
-0.501332086756
-0.222082889208
0.435532649859
-0.332751352993
0.627248221501
0.105112440173
0.0909293802145
0.264427392269
-0.451787016459
0.241186386615
-0.21479447737
0.0673799276959
0.140295670466
-0.684442890894
-0.244096405323
-0.630115927272
0.0429388673988
-0.538872930074
0.359589278676
0.579337391651
0.699509834034
0.316956878503
0.271937228821
-0.0679773146593
-0.118051020734
-0.330634089234
0.121400408373
0.325902935397
0.656274531926
